<?xml version="1.0"?>
<opencv_storage>
<cascade>
  <stageType>BOOST</stageType>
  <featureType>HAAR</featureType>
  <height>32</height>
  <width>32</width>
  <stageParams>
    <boostType>GAB</boostType>
    <minHitRate>9.9900001287460327e-01</minHitRate>
    <maxFalseAlarm>4.0000000596046448e-01</maxFalseAlarm>
    <weightTrimRate>9.4999999999999996e-01</weightTrimRate>
    <maxDepth>1</maxDepth>
    <maxWeakCount>100</maxWeakCount></stageParams>
  <featureParams>
    <maxCatCount>0</maxCatCount>
    <featSize>1</featSize>
    <mode>BASIC</mode></featureParams>
  <stageNum>12</stageNum>
  <stages>
    <!-- stage 0 -->
    <_>
      <maxWeakCount>7</maxWeakCount>
      <stageThreshold>-1.7497786283493042e+00</stageThreshold>
      <weakClassifiers>
        <_>
          <internalNodes>
            0 -1 128 6.7966338247060776e-03</internalNodes>
          <leafValues>
            -7.9388296604156494e-01 4.2954546213150024e-01</leafValues></_>
        <_>
          <internalNodes>
            0 -1 342 5.3130099549889565e-03</internalNodes>
          <leafValues>
            -6.5266239643096924e-01 4.9513101577758789e-01</leafValues></_>
        <_>
          <internalNodes>
            0 -1 66 -4.4561302661895752e-01</internalNodes>
          <leafValues>
            -6.8786573410034180e-01 4.6415492892265320e-01</leafValues></_>
        <_>
          <internalNodes>
            0 -1 39 -1.2822901830077171e-02</internalNodes>
          <leafValues>
            6.9458097219467163e-01 -4.7301465272903442e-01</leafValues></_>
        <_>
          <internalNodes>
            0 -1 321 1.4598930720239878e-03</internalNodes>
          <leafValues>
            -3.5956051945686340e-01 6.0273724794387817e-01</leafValues></_>
        <_>
          <internalNodes>
            0 -1 24 -6.3308747485280037e-04</internalNodes>
          <leafValues>
            4.9967333674430847e-01 -4.6290782094001770e-01</leafValues></_>
        <_>
          <internalNodes>
            0 -1 264 -6.5769982757046819e-04</internalNodes>
          <leafValues>
            5.1251983642578125e-01 -4.0520167350769043e-01</leafValues></_></weakClassifiers></_>
    <!-- stage 1 -->
    <_>
      <maxWeakCount>12</maxWeakCount>
      <stageThreshold>-1.5766260623931885e+00</stageThreshold>
      <weakClassifiers>
        <_>
          <internalNodes>
            0 -1 57 -9.6516937017440796e-02</internalNodes>
          <leafValues>
            -7.8566455841064453e-01 3.3051741123199463e-01</leafValues></_>
        <_>
          <internalNodes>
            0 -1 232 9.6191372722387314e-03</internalNodes>
          <leafValues>
            -4.8543813824653625e-01 3.9504882693290710e-01</leafValues></_>
        <_>
          <internalNodes>
            0 -1 7 -2.0561069250106812e-03</internalNodes>
          <leafValues>
            4.2762875556945801e-01 -4.4101512432098389e-01</leafValues></_>
        <_>
          <internalNodes>
            0 -1 136 -2.1731769666075706e-03</internalNodes>
          <leafValues>
            5.2613216638565063e-01 -3.3676093816757202e-01</leafValues></_>
        <_>
          <internalNodes>
            0 -1 238 -1.9326373934745789e-02</internalNodes>
          <leafValues>
            -5.5683845281600952e-01 3.0638682842254639e-01</leafValues></_>
        <_>
          <internalNodes>
            0 -1 296 3.3354002516716719e-04</internalNodes>
          <leafValues>
            -3.4962201118469238e-01 4.6675819158554077e-01</leafValues></_>
        <_>
          <internalNodes>
            0 -1 357 5.0703817978501320e-03</internalNodes>
          <leafValues>
            -2.9797598719596863e-01 4.7280663251876831e-01</leafValues></_>
        <_>
          <internalNodes>
            0 -1 306 -1.2426897883415222e-03</internalNodes>
          <leafValues>
            3.8277596235275269e-01 -3.8276466727256775e-01</leafValues></_>
        <_>
          <internalNodes>
            0 -1 154 -1.3154274784028530e-03</internalNodes>
          <leafValues>
            6.1238443851470947e-01 -2.3839335143566132e-01</leafValues></_>
        <_>
          <internalNodes>
            0 -1 89 -4.2875960934907198e-04</internalNodes>
          <leafValues>
            5.8721899986267090e-01 -2.5259572267532349e-01</leafValues></_>
        <_>
          <internalNodes>
            0 -1 43 1.0140603408217430e-03</internalNodes>
          <leafValues>
            -3.0372560024261475e-01 4.1764760017395020e-01</leafValues></_>
        <_>
          <internalNodes>
            0 -1 274 8.6349074263125658e-04</internalNodes>
          <leafValues>
            -2.4334274232387543e-01 5.6648480892181396e-01</leafValues></_></weakClassifiers></_>
    <!-- stage 2 -->
    <_>
      <maxWeakCount>23</maxWeakCount>
      <stageThreshold>-1.9852958917617798e+00</stageThreshold>
      <weakClassifiers>
        <_>
          <internalNodes>
            0 -1 181 -1.3409505784511566e-01</internalNodes>
          <leafValues>
            -6.4518272876739502e-01 1.7633675038814545e-01</leafValues></_>
        <_>
          <internalNodes>
            0 -1 23 -2.1591903641819954e-03</internalNodes>
          <leafValues>
            3.1202596426010132e-01 -4.7154194116592407e-01</leafValues></_>
        <_>
          <internalNodes>
            0 -1 130 7.1874032728374004e-03</internalNodes>
          <leafValues>
            -4.5437395572662354e-01 3.2984277606010437e-01</leafValues></_>
        <_>
          <internalNodes>
            0 -1 75 1.2364813592284918e-03</internalNodes>
          <leafValues>
            -3.9329764246940613e-01 3.1356695294380188e-01</leafValues></_>
        <_>
          <internalNodes>
            0 -1 365 1.1821192689239979e-02</internalNodes>
          <leafValues>
            -2.7272707223892212e-01 4.1979023814201355e-01</leafValues></_>
        <_>
          <internalNodes>
            0 -1 55 -5.6225438602268696e-03</internalNodes>
          <leafValues>
            5.3960156440734863e-01 -2.1158051490783691e-01</leafValues></_>
        <_>
          <internalNodes>
            0 -1 53 -2.8810487128794193e-03</internalNodes>
          <leafValues>
            4.9262359738349915e-01 -2.3086978495121002e-01</leafValues></_>
        <_>
          <internalNodes>
            0 -1 297 3.4830023068934679e-03</internalNodes>
          <leafValues>
            -3.3723613619804382e-01 3.1339848041534424e-01</leafValues></_>
        <_>
          <internalNodes>
            0 -1 211 -1.3089070096611977e-02</internalNodes>
          <leafValues>
            3.0210769176483154e-01 -3.6110916733741760e-01</leafValues></_>
        <_>
          <internalNodes>
            0 -1 124 -2.9650014638900757e-01</internalNodes>
          <leafValues>
            -2.5259402394294739e-01 4.1745966672897339e-01</leafValues></_>
        <_>
          <internalNodes>
            0 -1 108 -2.9110911418683827e-04</internalNodes>
          <leafValues>
            4.4577276706695557e-01 -2.4074196815490723e-01</leafValues></_>
        <_>
          <internalNodes>
            0 -1 222 1.8249989952892065e-03</internalNodes>
          <leafValues>
            -1.7341311275959015e-01 5.8965790271759033e-01</leafValues></_>
        <_>
          <internalNodes>
            0 -1 288 3.5630533238872886e-04</internalNodes>
          <leafValues>
            -2.3236408829689026e-01 4.3282449245452881e-01</leafValues></_>
        <_>
          <internalNodes>
            0 -1 332 -2.5501646450720727e-04</internalNodes>
          <leafValues>
            4.6072190999984741e-01 -2.0606499910354614e-01</leafValues></_>
        <_>
          <internalNodes>
            0 -1 212 -2.0090837497264147e-03</internalNodes>
          <leafValues>
            6.2412053346633911e-01 -1.4881156384944916e-01</leafValues></_>
        <_>
          <internalNodes>
            0 -1 209 3.6333429161459208e-03</internalNodes>
          <leafValues>
            -1.9737698137760162e-01 4.9572885036468506e-01</leafValues></_>
        <_>
          <internalNodes>
            0 -1 217 1.3664097059518099e-04</internalNodes>
          <leafValues>
            -1.5350724756717682e-01 5.7693094015121460e-01</leafValues></_>
        <_>
          <internalNodes>
            0 -1 338 3.6167606594972312e-04</internalNodes>
          <leafValues>
            -1.6029569506645203e-01 5.9102141857147217e-01</leafValues></_>
        <_>
          <internalNodes>
            0 -1 158 -2.2841908503323793e-04</internalNodes>
          <leafValues>
            2.9305064678192139e-01 -3.2706007361412048e-01</leafValues></_>
        <_>
          <internalNodes>
            0 -1 282 -7.5711756944656372e-02</internalNodes>
          <leafValues>
            -2.8203576803207397e-01 3.9435812830924988e-01</leafValues></_>
        <_>
          <internalNodes>
            0 -1 86 -5.9362652245908976e-04</internalNodes>
          <leafValues>
            6.6348522901535034e-01 -1.3940301537513733e-01</leafValues></_>
        <_>
          <internalNodes>
            0 -1 141 -3.5622221184894443e-04</internalNodes>
          <leafValues>
            4.5999938249588013e-01 -2.0889897644519806e-01</leafValues></_>
        <_>
          <internalNodes>
            0 -1 338 -4.4034875463694334e-04</internalNodes>
          <leafValues>
            5.2778655290603638e-01 -1.6195453703403473e-01</leafValues></_></weakClassifiers></_>
    <!-- stage 3 -->
    <_>
      <maxWeakCount>23</maxWeakCount>
      <stageThreshold>-1.6432433128356934e+00</stageThreshold>
      <weakClassifiers>
        <_>
          <internalNodes>
            0 -1 78 -4.6480596065521240e-03</internalNodes>
          <leafValues>
            2.0396600663661957e-01 -5.7210963964462280e-01</leafValues></_>
        <_>
          <internalNodes>
            0 -1 233 -3.3213570713996887e-03</internalNodes>
          <leafValues>
            3.4480974078178406e-01 -4.1336110234260559e-01</leafValues></_>
        <_>
          <internalNodes>
            0 -1 41 -6.7588776350021362e-02</internalNodes>
          <leafValues>
            -3.9748159050941467e-01 3.1860187649726868e-01</leafValues></_>
        <_>
          <internalNodes>
            0 -1 6 -1.7815094441175461e-02</internalNodes>
          <leafValues>
            4.6162524819374084e-01 -2.1744433045387268e-01</leafValues></_>
        <_>
          <internalNodes>
            0 -1 51 -4.2080916464328766e-03</internalNodes>
          <leafValues>
            4.5268955826759338e-01 -2.0570899546146393e-01</leafValues></_>
        <_>
          <internalNodes>
            0 -1 345 1.3795453123748302e-03</internalNodes>
          <leafValues>
            -3.1769353151321411e-01 3.3615413308143616e-01</leafValues></_>
        <_>
          <internalNodes>
            0 -1 64 5.5928173242136836e-04</internalNodes>
          <leafValues>
            -2.3927788436412811e-01 3.9972633123397827e-01</leafValues></_>
        <_>
          <internalNodes>
            0 -1 107 -3.4786027390509844e-04</internalNodes>
          <leafValues>
            5.1402133703231812e-01 -2.0871947705745697e-01</leafValues></_>
        <_>
          <internalNodes>
            0 -1 186 -1.9629420712590218e-03</internalNodes>
          <leafValues>
            3.4293636679649353e-01 -2.7930206060409546e-01</leafValues></_>
        <_>
          <internalNodes>
            0 -1 367 3.0600153841078281e-03</internalNodes>
          <leafValues>
            -2.3220120370388031e-01 4.0275487303733826e-01</leafValues></_>
        <_>
          <internalNodes>
            0 -1 138 -3.2588881440460682e-03</internalNodes>
          <leafValues>
            5.0925087928771973e-01 -1.8973398208618164e-01</leafValues></_>
        <_>
          <internalNodes>
            0 -1 183 -2.9322964837774634e-04</internalNodes>
          <leafValues>
            3.5133418440818787e-01 -2.8284418582916260e-01</leafValues></_>
        <_>
          <internalNodes>
            0 -1 176 1.6519391909241676e-02</internalNodes>
          <leafValues>
            -2.4742443859577179e-01 4.0035352110862732e-01</leafValues></_>
        <_>
          <internalNodes>
            0 -1 334 -1.0593854822218418e-03</internalNodes>
          <leafValues>
            3.7433800101280212e-01 -2.4945653975009918e-01</leafValues></_>
        <_>
          <internalNodes>
            0 -1 67 1.7999787814915180e-03</internalNodes>
          <leafValues>
            -1.6431120038032532e-01 5.3507232666015625e-01</leafValues></_>
        <_>
          <internalNodes>
            0 -1 126 -1.0476440191268921e-02</internalNodes>
          <leafValues>
            -4.5102864503860474e-01 1.9404979050159454e-01</leafValues></_>
        <_>
          <internalNodes>
            0 -1 122 3.6897235549986362e-03</internalNodes>
          <leafValues>
            -1.7406263947486877e-01 5.3109669685363770e-01</leafValues></_>
        <_>
          <internalNodes>
            0 -1 259 1.4175493561197072e-04</internalNodes>
          <leafValues>
            -1.9326104223728180e-01 4.0723714232444763e-01</leafValues></_>
        <_>
          <internalNodes>
            0 -1 9 -5.8722998946905136e-03</internalNodes>
          <leafValues>
            3.5221934318542480e-01 -2.4133045971393585e-01</leafValues></_>
        <_>
          <internalNodes>
            0 -1 352 -2.1292814053595066e-03</internalNodes>
          <leafValues>
            4.9054586887359619e-01 -1.6824908554553986e-01</leafValues></_>
        <_>
          <internalNodes>
            0 -1 59 -4.9189000856131315e-04</internalNodes>
          <leafValues>
            3.5378262400627136e-01 -2.3192088305950165e-01</leafValues></_>
        <_>
          <internalNodes>
            0 -1 353 -5.3890990093350410e-03</internalNodes>
          <leafValues>
            5.6546145677566528e-01 -1.4263515174388885e-01</leafValues></_>
        <_>
          <internalNodes>
            0 -1 309 -1.3609501365863252e-05</internalNodes>
          <leafValues>
            2.2763210535049438e-01 -3.4537962079048157e-01</leafValues></_></weakClassifiers></_>
    <!-- stage 4 -->
    <_>
      <maxWeakCount>29</maxWeakCount>
      <stageThreshold>-1.8187829256057739e+00</stageThreshold>
      <weakClassifiers>
        <_>
          <internalNodes>
            0 -1 95 -2.1777162328362465e-02</internalNodes>
          <leafValues>
            2.6492536067962646e-01 -5.1839828491210938e-01</leafValues></_>
        <_>
          <internalNodes>
            0 -1 247 9.6380256582051516e-04</internalNodes>
          <leafValues>
            -4.5631623268127441e-01 2.4101695418357849e-01</leafValues></_>
        <_>
          <internalNodes>
            0 -1 280 -1.1521759442985058e-02</internalNodes>
          <leafValues>
            -5.7706874608993530e-01 2.1094197034835815e-01</leafValues></_>
        <_>
          <internalNodes>
            0 -1 311 3.5829339176416397e-03</internalNodes>
          <leafValues>
            -3.8228785991668701e-01 3.3050638437271118e-01</leafValues></_>
        <_>
          <internalNodes>
            0 -1 3 -1.5034377574920654e-03</internalNodes>
          <leafValues>
            2.7572906017303467e-01 -3.3434492349624634e-01</leafValues></_>
        <_>
          <internalNodes>
            0 -1 223 -9.0747233480215073e-04</internalNodes>
          <leafValues>
            5.3515142202377319e-01 -1.7762231826782227e-01</leafValues></_>
        <_>
          <internalNodes>
            0 -1 111 -2.5992803275585175e-03</internalNodes>
          <leafValues>
            4.2949509620666504e-01 -2.0708616077899933e-01</leafValues></_>
        <_>
          <internalNodes>
            0 -1 101 7.9951854422688484e-04</internalNodes>
          <leafValues>
            -3.3741378784179688e-01 2.7267283201217651e-01</leafValues></_>
        <_>
          <internalNodes>
            0 -1 207 -2.6767520466819406e-04</internalNodes>
          <leafValues>
            3.2476583123207092e-01 -3.1786501407623291e-01</leafValues></_>
        <_>
          <internalNodes>
            0 -1 134 -2.1966310217976570e-02</internalNodes>
          <leafValues>
            7.7731275558471680e-01 -1.0324161499738693e-01</leafValues></_>
        <_>
          <internalNodes>
            0 -1 71 -5.4475955665111542e-02</internalNodes>
          <leafValues>
            -1.5453344583511353e-01 5.3192204236984253e-01</leafValues></_>
        <_>
          <internalNodes>
            0 -1 241 -3.6429945379495621e-02</internalNodes>
          <leafValues>
            3.7202006578445435e-01 -2.4028806388378143e-01</leafValues></_>
        <_>
          <internalNodes>
            0 -1 153 -5.2953802514821291e-04</internalNodes>
          <leafValues>
            4.1695567965507507e-01 -1.7963948845863342e-01</leafValues></_>
        <_>
          <internalNodes>
            0 -1 356 2.1845386072527617e-04</internalNodes>
          <leafValues>
            -1.3956882059574127e-01 5.3145182132720947e-01</leafValues></_>
        <_>
          <internalNodes>
            0 -1 325 1.6528000123798847e-03</internalNodes>
          <leafValues>
            -1.5935671329498291e-01 5.0566220283508301e-01</leafValues></_>
        <_>
          <internalNodes>
            0 -1 290 1.5793263446539640e-04</internalNodes>
          <leafValues>
            -1.3485817611217499e-01 4.9744200706481934e-01</leafValues></_>
        <_>
          <internalNodes>
            0 -1 301 6.0584424063563347e-03</internalNodes>
          <leafValues>
            -2.8350776433944702e-01 2.5216954946517944e-01</leafValues></_>
        <_>
          <internalNodes>
            0 -1 272 -5.8493879623711109e-04</internalNodes>
          <leafValues>
            3.9659354090690613e-01 -2.2566996514797211e-01</leafValues></_>
        <_>
          <internalNodes>
            0 -1 83 -2.6196541730314493e-03</internalNodes>
          <leafValues>
            5.3985643386840820e-01 -1.4618323743343353e-01</leafValues></_>
        <_>
          <internalNodes>
            0 -1 79 3.5342462360858917e-03</internalNodes>
          <leafValues>
            -1.1717658489942551e-01 5.8553951978683472e-01</leafValues></_>
        <_>
          <internalNodes>
            0 -1 315 -8.2575920969247818e-03</internalNodes>
          <leafValues>
            -1.9230310618877411e-01 3.4230467677116394e-01</leafValues></_>
        <_>
          <internalNodes>
            0 -1 224 3.8789336103945971e-03</internalNodes>
          <leafValues>
            -1.5980266034603119e-01 5.1711684465408325e-01</leafValues></_>
        <_>
          <internalNodes>
            0 -1 21 -9.5666848123073578e-02</internalNodes>
          <leafValues>
            2.3186142742633820e-01 -2.9530709981918335e-01</leafValues></_>
        <_>
          <internalNodes>
            0 -1 283 -4.8358316416852176e-04</internalNodes>
          <leafValues>
            5.8282595872879028e-01 -1.3691799342632294e-01</leafValues></_>
        <_>
          <internalNodes>
            0 -1 91 5.3000226616859436e-03</internalNodes>
          <leafValues>
            -1.2401594221591949e-01 6.0257011651992798e-01</leafValues></_>
        <_>
          <internalNodes>
            0 -1 350 -2.0064151613041759e-04</internalNodes>
          <leafValues>
            3.4341192245483398e-01 -2.0018383860588074e-01</leafValues></_>
        <_>
          <internalNodes>
            0 -1 300 1.0076757753267884e-03</internalNodes>
          <leafValues>
            -1.9788675010204315e-01 3.1966418027877808e-01</leafValues></_>
        <_>
          <internalNodes>
            0 -1 20 -9.5834605395793915e-02</internalNodes>
          <leafValues>
            -1.4925965666770935e-01 4.2397132515907288e-01</leafValues></_>
        <_>
          <internalNodes>
            0 -1 221 7.2279195301234722e-03</internalNodes>
          <leafValues>
            -1.7334462702274323e-01 3.6871066689491272e-01</leafValues></_></weakClassifiers></_>
    <!-- stage 5 -->
    <_>
      <maxWeakCount>36</maxWeakCount>
      <stageThreshold>-1.7468413114547729e+00</stageThreshold>
      <weakClassifiers>
        <_>
          <internalNodes>
            0 -1 93 2.2299485281109810e-02</internalNodes>
          <leafValues>
            -4.6996122598648071e-01 4.8124998807907104e-01</leafValues></_>
        <_>
          <internalNodes>
            0 -1 37 -1.4848327636718750e-01</internalNodes>
          <leafValues>
            -4.8571929335594177e-01 2.2027572989463806e-01</leafValues></_>
        <_>
          <internalNodes>
            0 -1 76 -2.1543484181165695e-02</internalNodes>
          <leafValues>
            6.7141890525817871e-01 -1.7521248757839203e-01</leafValues></_>
        <_>
          <internalNodes>
            0 -1 116 2.0061038434505463e-02</internalNodes>
          <leafValues>
            -1.2576864659786224e-01 7.2620058059692383e-01</leafValues></_>
        <_>
          <internalNodes>
            0 -1 25 -1.2659854255616665e-03</internalNodes>
          <leafValues>
            2.5979682803153992e-01 -3.2897874712944031e-01</leafValues></_>
        <_>
          <internalNodes>
            0 -1 113 -1.5605974011123180e-02</internalNodes>
          <leafValues>
            4.3059325218200684e-01 -1.5317796170711517e-01</leafValues></_>
        <_>
          <internalNodes>
            0 -1 173 2.0407950505614281e-03</internalNodes>
          <leafValues>
            -2.3999315500259399e-01 2.9560741782188416e-01</leafValues></_>
        <_>
          <internalNodes>
            0 -1 202 -8.9851066470146179e-02</internalNodes>
          <leafValues>
            -7.4081987142562866e-01 9.6384435892105103e-02</leafValues></_>
        <_>
          <internalNodes>
            0 -1 135 -1.2051309458911419e-03</internalNodes>
          <leafValues>
            2.8966888785362244e-01 -2.5262042880058289e-01</leafValues></_>
        <_>
          <internalNodes>
            0 -1 103 -1.4585806056857109e-03</internalNodes>
          <leafValues>
            4.1341891884803772e-01 -1.7750383913516998e-01</leafValues></_>
        <_>
          <internalNodes>
            0 -1 364 1.6285691410303116e-02</internalNodes>
          <leafValues>
            -1.8849022686481476e-01 3.4731468558311462e-01</leafValues></_>
        <_>
          <internalNodes>
            0 -1 144 -3.0128005892038345e-04</internalNodes>
          <leafValues>
            5.0585323572158813e-01 -1.2047411501407623e-01</leafValues></_>
        <_>
          <internalNodes>
            0 -1 144 3.3084128517657518e-04</internalNodes>
          <leafValues>
            -1.0496626794338226e-01 5.3745204210281372e-01</leafValues></_>
        <_>
          <internalNodes>
            0 -1 262 -6.2247255118563771e-04</internalNodes>
          <leafValues>
            -4.3635374307632446e-01 1.4725698530673981e-01</leafValues></_>
        <_>
          <internalNodes>
            0 -1 196 -9.9641794804483652e-05</internalNodes>
          <leafValues>
            2.1877983212471008e-01 -2.5801289081573486e-01</leafValues></_>
        <_>
          <internalNodes>
            0 -1 361 -2.9122871346771717e-03</internalNodes>
          <leafValues>
            5.0232636928558350e-01 -1.3281087577342987e-01</leafValues></_>
        <_>
          <internalNodes>
            0 -1 279 1.3611752365250140e-04</internalNodes>
          <leafValues>
            1.1788400262594223e-01 -5.4408121109008789e-01</leafValues></_>
        <_>
          <internalNodes>
            0 -1 179 -1.4224500628188252e-03</internalNodes>
          <leafValues>
            4.0668374300003052e-01 -1.4614687860012054e-01</leafValues></_>
        <_>
          <internalNodes>
            0 -1 49 2.9268190264701843e-02</internalNodes>
          <leafValues>
            -1.9221928715705872e-01 2.8176504373550415e-01</leafValues></_>
        <_>
          <internalNodes>
            0 -1 161 -1.2325991701800376e-04</internalNodes>
          <leafValues>
            2.7068087458610535e-01 -2.4187824130058289e-01</leafValues></_>
        <_>
          <internalNodes>
            0 -1 99 -3.6931814975105226e-05</internalNodes>
          <leafValues>
            2.4083569645881653e-01 -2.7386918663978577e-01</leafValues></_>
        <_>
          <internalNodes>
            0 -1 276 -2.7208130806684494e-02</internalNodes>
          <leafValues>
            -8.5602867603302002e-01 6.7330397665500641e-02</leafValues></_>
        <_>
          <internalNodes>
            0 -1 26 2.5713568553328514e-02</internalNodes>
          <leafValues>
            -1.4248874783515930e-01 4.2846050858497620e-01</leafValues></_>
        <_>
          <internalNodes>
            0 -1 22 -4.2416565120220184e-02</internalNodes>
          <leafValues>
            7.8717671334743500e-02 -8.0286222696304321e-01</leafValues></_>
        <_>
          <internalNodes>
            0 -1 328 2.3705881903879344e-04</internalNodes>
          <leafValues>
            -1.9980303943157196e-01 2.7514186501502991e-01</leafValues></_>
        <_>
          <internalNodes>
            0 -1 142 -1.6138517821673304e-05</internalNodes>
          <leafValues>
            2.2826860845088959e-01 -2.3929683864116669e-01</leafValues></_>
        <_>
          <internalNodes>
            0 -1 358 6.5644169808365405e-05</internalNodes>
          <leafValues>
            -2.7498143911361694e-01 1.8779242038726807e-01</leafValues></_>
        <_>
          <internalNodes>
            0 -1 32 -1.4114761725068092e-02</internalNodes>
          <leafValues>
            4.3257036805152893e-01 -1.2118805944919586e-01</leafValues></_>
        <_>
          <internalNodes>
            0 -1 331 -1.6190975438803434e-03</internalNodes>
          <leafValues>
            -1.0089113563299179e-01 5.1318812370300293e-01</leafValues></_>
        <_>
          <internalNodes>
            0 -1 47 2.9541705735027790e-03</internalNodes>
          <leafValues>
            -1.0743821412324905e-01 4.9947965145111084e-01</leafValues></_>
        <_>
          <internalNodes>
            0 -1 229 -2.1305270493030548e-02</internalNodes>
          <leafValues>
            -7.1740996837615967e-01 7.9742655158042908e-02</leafValues></_>
        <_>
          <internalNodes>
            0 -1 218 -1.1009925510734320e-03</internalNodes>
          <leafValues>
            2.3415432870388031e-01 -2.4515378475189209e-01</leafValues></_>
        <_>
          <internalNodes>
            0 -1 11 -1.3706535100936890e-02</internalNodes>
          <leafValues>
            7.7083986997604370e-01 -7.8524366021156311e-02</leafValues></_>
        <_>
          <internalNodes>
            0 -1 61 4.6055443584918976e-02</internalNodes>
          <leafValues>
            1.0866402834653854e-01 -5.9494125843048096e-01</leafValues></_>
        <_>
          <internalNodes>
            0 -1 58 7.6912939548492432e-02</internalNodes>
          <leafValues>
            -9.9409565329551697e-02 5.9057992696762085e-01</leafValues></_>
        <_>
          <internalNodes>
            0 -1 235 -1.6800418961793184e-04</internalNodes>
          <leafValues>
            3.5164865851402283e-01 -1.5288740396499634e-01</leafValues></_></weakClassifiers></_>
    <!-- stage 6 -->
    <_>
      <maxWeakCount>32</maxWeakCount>
      <stageThreshold>-1.5150727033615112e+00</stageThreshold>
      <weakClassifiers>
        <_>
          <internalNodes>
            0 -1 81 -7.1506418287754059e-02</internalNodes>
          <leafValues>
            -6.2739324569702148e-01 3.5087719559669495e-02</leafValues></_>
        <_>
          <internalNodes>
            0 -1 298 1.3560224324464798e-02</internalNodes>
          <leafValues>
            -3.4111157059669495e-01 3.0130425095558167e-01</leafValues></_>
        <_>
          <internalNodes>
            0 -1 240 -1.6508279368281364e-02</internalNodes>
          <leafValues>
            3.3257535099983215e-01 -3.0236440896987915e-01</leafValues></_>
        <_>
          <internalNodes>
            0 -1 234 -2.7062743902206421e-03</internalNodes>
          <leafValues>
            2.5306579470634460e-01 -2.9239180684089661e-01</leafValues></_>
        <_>
          <internalNodes>
            0 -1 136 -2.3140718694776297e-03</internalNodes>
          <leafValues>
            3.2245063781738281e-01 -2.1207989752292633e-01</leafValues></_>
        <_>
          <internalNodes>
            0 -1 268 -2.2047376260161400e-03</internalNodes>
          <leafValues>
            5.1042366027832031e-01 -1.6192187368869781e-01</leafValues></_>
        <_>
          <internalNodes>
            0 -1 8 -7.8692391980439425e-04</internalNodes>
          <leafValues>
            2.6067027449607849e-01 -2.5689113140106201e-01</leafValues></_>
        <_>
          <internalNodes>
            0 -1 242 -3.8391249254345894e-03</internalNodes>
          <leafValues>
            -4.7961205244064331e-01 1.4566205441951752e-01</leafValues></_>
        <_>
          <internalNodes>
            0 -1 42 -2.0237490534782410e-02</internalNodes>
          <leafValues>
            2.4933978915214539e-01 -2.3711095750331879e-01</leafValues></_>
        <_>
          <internalNodes>
            0 -1 322 -3.1896785367280245e-04</internalNodes>
          <leafValues>
            3.8682386279106140e-01 -1.4589913189411163e-01</leafValues></_>
        <_>
          <internalNodes>
            0 -1 31 -6.6589238122105598e-03</internalNodes>
          <leafValues>
            -5.7976913452148438e-01 9.9358826875686646e-02</leafValues></_>
        <_>
          <internalNodes>
            0 -1 73 -6.3842929899692535e-02</internalNodes>
          <leafValues>
            3.9944162964820862e-01 -1.6238859295845032e-01</leafValues></_>
        <_>
          <internalNodes>
            0 -1 15 -2.8942336793988943e-03</internalNodes>
          <leafValues>
            3.8533961772918701e-01 -1.8278938531875610e-01</leafValues></_>
        <_>
          <internalNodes>
            0 -1 10 2.1294546313583851e-03</internalNodes>
          <leafValues>
            -1.6024461388587952e-01 3.5690236091613770e-01</leafValues></_>
        <_>
          <internalNodes>
            0 -1 102 3.3737099729478359e-03</internalNodes>
          <leafValues>
            -1.7538918554782867e-01 3.3798438310623169e-01</leafValues></_>
        <_>
          <internalNodes>
            0 -1 80 1.2679573893547058e-01</internalNodes>
          <leafValues>
            7.4953489005565643e-02 -8.6944001913070679e-01</leafValues></_>
        <_>
          <internalNodes>
            0 -1 354 8.7454076856374741e-04</internalNodes>
          <leafValues>
            -3.2411247491836548e-01 1.6357916593551636e-01</leafValues></_>
        <_>
          <internalNodes>
            0 -1 172 -3.5236572148278356e-04</internalNodes>
          <leafValues>
            2.9107716679573059e-01 -1.9480684399604797e-01</leafValues></_>
        <_>
          <internalNodes>
            0 -1 30 8.0009195953607559e-03</internalNodes>
          <leafValues>
            -1.2614606320858002e-01 4.0622562170028687e-01</leafValues></_>
        <_>
          <internalNodes>
            0 -1 258 3.3619767054915428e-03</internalNodes>
          <leafValues>
            -1.5453271567821503e-01 3.6691668629646301e-01</leafValues></_>
        <_>
          <internalNodes>
            0 -1 106 4.3171882862225175e-04</internalNodes>
          <leafValues>
            -1.4164800941944122e-01 3.9498704671859741e-01</leafValues></_>
        <_>
          <internalNodes>
            0 -1 191 9.8020276054739952e-03</internalNodes>
          <leafValues>
            -7.3104821145534515e-02 7.7725464105606079e-01</leafValues></_>
        <_>
          <internalNodes>
            0 -1 341 -5.9378810692578554e-04</internalNodes>
          <leafValues>
            2.8609061241149902e-01 -1.7380712926387787e-01</leafValues></_>
        <_>
          <internalNodes>
            0 -1 347 1.3591381139121950e-04</internalNodes>
          <leafValues>
            -1.8416142463684082e-01 2.8467857837677002e-01</leafValues></_>
        <_>
          <internalNodes>
            0 -1 52 1.4496168121695518e-02</internalNodes>
          <leafValues>
            -6.7904599010944366e-02 6.9309782981872559e-01</leafValues></_>
        <_>
          <internalNodes>
            0 -1 267 1.0238749906420708e-02</internalNodes>
          <leafValues>
            1.3998620212078094e-01 -4.0439933538436890e-01</leafValues></_>
        <_>
          <internalNodes>
            0 -1 119 -4.1715033352375031e-02</internalNodes>
          <leafValues>
            -1.2099476158618927e-01 4.8849636316299438e-01</leafValues></_>
        <_>
          <internalNodes>
            0 -1 90 -3.7873812019824982e-02</internalNodes>
          <leafValues>
            7.0867359638214111e-01 -7.1619480848312378e-02</leafValues></_>
        <_>
          <internalNodes>
            0 -1 255 -1.0838131420314312e-03</internalNodes>
          <leafValues>
            8.3157882094383240e-02 -7.8807789087295532e-01</leafValues></_>
        <_>
          <internalNodes>
            0 -1 293 -1.3122323434799910e-03</internalNodes>
          <leafValues>
            3.8082930445671082e-01 -1.4627902209758759e-01</leafValues></_>
        <_>
          <internalNodes>
            0 -1 62 -4.3747079325839877e-04</internalNodes>
          <leafValues>
            5.7852804660797119e-01 -8.2485496997833252e-02</leafValues></_>
        <_>
          <internalNodes>
            0 -1 170 -4.9971165135502815e-03</internalNodes>
          <leafValues>
            5.4246741533279419e-01 -8.3674952387809753e-02</leafValues></_></weakClassifiers></_>
    <!-- stage 7 -->
    <_>
      <maxWeakCount>34</maxWeakCount>
      <stageThreshold>-1.5687661170959473e+00</stageThreshold>
      <weakClassifiers>
        <_>
          <internalNodes>
            0 -1 253 2.8208831325173378e-02</internalNodes>
          <leafValues>
            -5.8327424526214600e-01 7.1942447684705257e-03</leafValues></_>
        <_>
          <internalNodes>
            0 -1 2 -7.1170651353895664e-03</internalNodes>
          <leafValues>
            2.3021212220191956e-01 -3.2627573609352112e-01</leafValues></_>
        <_>
          <internalNodes>
            0 -1 147 -2.0234072580933571e-02</internalNodes>
          <leafValues>
            5.9335327148437500e-01 -1.2129218131303787e-01</leafValues></_>
        <_>
          <internalNodes>
            0 -1 133 2.0000401884317398e-02</internalNodes>
          <leafValues>
            -1.1988317966461182e-01 6.0900449752807617e-01</leafValues></_>
        <_>
          <internalNodes>
            0 -1 215 1.4097198843955994e-02</internalNodes>
          <leafValues>
            1.0504070669412613e-01 -7.3248076438903809e-01</leafValues></_>
        <_>
          <internalNodes>
            0 -1 295 -1.6457166522741318e-02</internalNodes>
          <leafValues>
            -3.0405342578887939e-01 2.2232252359390259e-01</leafValues></_>
        <_>
          <internalNodes>
            0 -1 13 -9.7313039004802704e-03</internalNodes>
          <leafValues>
            2.9802432656288147e-01 -2.0616886019706726e-01</leafValues></_>
        <_>
          <internalNodes>
            0 -1 69 -3.4661163226701319e-04</internalNodes>
          <leafValues>
            3.6343169212341309e-01 -1.5573132038116455e-01</leafValues></_>
        <_>
          <internalNodes>
            0 -1 335 7.8411749564111233e-04</internalNodes>
          <leafValues>
            -3.3382782340049744e-01 1.7363291978836060e-01</leafValues></_>
        <_>
          <internalNodes>
            0 -1 110 -1.5437914058566093e-02</internalNodes>
          <leafValues>
            4.0915188193321228e-01 -1.6325680911540985e-01</leafValues></_>
        <_>
          <internalNodes>
            0 -1 16 -6.0779596678912640e-03</internalNodes>
          <leafValues>
            3.6805599927902222e-01 -1.6061231493949890e-01</leafValues></_>
        <_>
          <internalNodes>
            0 -1 157 2.2830602247267962e-03</internalNodes>
          <leafValues>
            -1.9719873368740082e-01 3.0511108040809631e-01</leafValues></_>
        <_>
          <internalNodes>
            0 -1 330 -4.7367289662361145e-03</internalNodes>
          <leafValues>
            -1.8301030993461609e-01 3.1663060188293457e-01</leafValues></_>
        <_>
          <internalNodes>
            0 -1 29 -4.3880986049771309e-03</internalNodes>
          <leafValues>
            1.6662006080150604e-01 -3.4448230266571045e-01</leafValues></_>
        <_>
          <internalNodes>
            0 -1 304 4.3423997703939676e-04</internalNodes>
          <leafValues>
            -1.6666892170906067e-01 3.2061326503753662e-01</leafValues></_>
        <_>
          <internalNodes>
            0 -1 150 1.1963274329900742e-02</internalNodes>
          <leafValues>
            -2.0893880724906921e-01 2.3992402851581573e-01</leafValues></_>
        <_>
          <internalNodes>
            0 -1 307 -3.4454293549060822e-02</internalNodes>
          <leafValues>
            -9.2932993173599243e-01 4.3386034667491913e-02</leafValues></_>
        <_>
          <internalNodes>
            0 -1 201 -5.2459768950939178e-02</internalNodes>
          <leafValues>
            -9.6374815702438354e-01 3.5062775015830994e-02</leafValues></_>
        <_>
          <internalNodes>
            0 -1 45 8.7109999731183052e-04</internalNodes>
          <leafValues>
            -1.6764827072620392e-01 3.3620920777320862e-01</leafValues></_>
        <_>
          <internalNodes>
            0 -1 189 1.6734231263399124e-02</internalNodes>
          <leafValues>
            8.6636364459991455e-02 -5.6980925798416138e-01</leafValues></_>
        <_>
          <internalNodes>
            0 -1 213 -1.8918201327323914e-02</internalNodes>
          <leafValues>
            4.4178283214569092e-01 -1.1438413709402084e-01</leafValues></_>
        <_>
          <internalNodes>
            0 -1 203 6.1840796843171120e-03</internalNodes>
          <leafValues>
            -2.4056971073150635e-01 3.2679253816604614e-01</leafValues></_>
        <_>
          <internalNodes>
            0 -1 72 -8.7324040941894054e-04</internalNodes>
          <leafValues>
            4.6083322167396545e-01 -1.1332087218761444e-01</leafValues></_>
        <_>
          <internalNodes>
            0 -1 260 -1.3069380074739456e-02</internalNodes>
          <leafValues>
            -4.4502314925193787e-01 1.2491572648286819e-01</leafValues></_>
        <_>
          <internalNodes>
            0 -1 121 -3.4315302036702633e-04</internalNodes>
          <leafValues>
            2.5340399146080017e-01 -1.8976302444934845e-01</leafValues></_>
        <_>
          <internalNodes>
            0 -1 82 3.4083228092640638e-03</internalNodes>
          <leafValues>
            -8.7639711797237396e-02 5.4864567518234253e-01</leafValues></_>
        <_>
          <internalNodes>
            0 -1 226 4.2643509805202484e-03</internalNodes>
          <leafValues>
            -1.8996654450893402e-01 2.5930637121200562e-01</leafValues></_>
        <_>
          <internalNodes>
            0 -1 239 -1.7500990070402622e-03</internalNodes>
          <leafValues>
            3.0798327922821045e-01 -1.5906906127929688e-01</leafValues></_>
        <_>
          <internalNodes>
            0 -1 243 -2.7723843231797218e-05</internalNodes>
          <leafValues>
            -3.5917177796363831e-01 1.5987627208232880e-01</leafValues></_>
        <_>
          <internalNodes>
            0 -1 129 -5.8259442448616028e-03</internalNodes>
          <leafValues>
            5.5712366104125977e-01 -9.5780700445175171e-02</leafValues></_>
        <_>
          <internalNodes>
            0 -1 324 2.1763395518064499e-02</internalNodes>
          <leafValues>
            -1.6598799824714661e-01 2.9553723335266113e-01</leafValues></_>
        <_>
          <internalNodes>
            0 -1 285 -2.6047831401228905e-02</internalNodes>
          <leafValues>
            3.1002196669578552e-01 -2.0012719929218292e-01</leafValues></_>
        <_>
          <internalNodes>
            0 -1 115 -1.3379148207604885e-02</internalNodes>
          <leafValues>
            -9.4103723764419556e-02 4.7565022110939026e-01</leafValues></_>
        <_>
          <internalNodes>
            0 -1 98 -1.1652536690235138e-02</internalNodes>
          <leafValues>
            8.0395907163619995e-02 -7.6291465759277344e-01</leafValues></_></weakClassifiers></_>
    <!-- stage 8 -->
    <_>
      <maxWeakCount>47</maxWeakCount>
      <stageThreshold>-1.6788297891616821e+00</stageThreshold>
      <weakClassifiers>
        <_>
          <internalNodes>
            0 -1 96 -2.2873796988278627e-03</internalNodes>
          <leafValues>
            -2.3834196850657463e-02 -5.5884426832199097e-01</leafValues></_>
        <_>
          <internalNodes>
            0 -1 237 -3.4352022409439087e-01</internalNodes>
          <leafValues>
            -5.8364415168762207e-01 1.0481911897659302e-01</leafValues></_>
        <_>
          <internalNodes>
            0 -1 117 -3.8213008083403111e-03</internalNodes>
          <leafValues>
            3.7387874722480774e-01 -2.0109328627586365e-01</leafValues></_>
        <_>
          <internalNodes>
            0 -1 34 -4.8661101609468460e-03</internalNodes>
          <leafValues>
            3.5588258504867554e-01 -2.1607087552547455e-01</leafValues></_>
        <_>
          <internalNodes>
            0 -1 192 7.9733897000551224e-03</internalNodes>
          <leafValues>
            -2.1845272183418274e-01 2.6381850242614746e-01</leafValues></_>
        <_>
          <internalNodes>
            0 -1 227 -4.4107707217335701e-03</internalNodes>
          <leafValues>
            6.4621073007583618e-01 -1.0387276113033295e-01</leafValues></_>
        <_>
          <internalNodes>
            0 -1 371 5.8850203640758991e-04</internalNodes>
          <leafValues>
            -2.0564071834087372e-01 2.4430786073207855e-01</leafValues></_>
        <_>
          <internalNodes>
            0 -1 175 -1.0548797436058521e-03</internalNodes>
          <leafValues>
            3.8232189416885376e-01 -1.1567287892103195e-01</leafValues></_>
        <_>
          <internalNodes>
            0 -1 245 -8.3323509898036718e-05</internalNodes>
          <leafValues>
            1.7048068344593048e-01 -2.9456233978271484e-01</leafValues></_>
        <_>
          <internalNodes>
            0 -1 50 -2.7389484457671642e-03</internalNodes>
          <leafValues>
            2.9043689370155334e-01 -1.6905245184898376e-01</leafValues></_>
        <_>
          <internalNodes>
            0 -1 46 -4.2945124208927155e-02</internalNodes>
          <leafValues>
            -7.1521157026290894e-01 7.3589682579040527e-02</leafValues></_>
        <_>
          <internalNodes>
            0 -1 299 5.9684680309146643e-04</internalNodes>
          <leafValues>
            -1.6522687673568726e-01 3.0927923321723938e-01</leafValues></_>
        <_>
          <internalNodes>
            0 -1 195 -9.9726188636850566e-05</internalNodes>
          <leafValues>
            1.9327154755592346e-01 -2.4020040035247803e-01</leafValues></_>
        <_>
          <internalNodes>
            0 -1 250 6.4626176026649773e-05</internalNodes>
          <leafValues>
            -6.5568193793296814e-02 7.5157231092453003e-01</leafValues></_>
        <_>
          <internalNodes>
            0 -1 28 -1.6554797184653580e-05</internalNodes>
          <leafValues>
            1.6878725588321686e-01 -2.8434318304061890e-01</leafValues></_>
        <_>
          <internalNodes>
            0 -1 302 -8.6818344425410032e-04</internalNodes>
          <leafValues>
            5.8135670423507690e-01 -8.4740437567234039e-02</leafValues></_>
        <_>
          <internalNodes>
            0 -1 60 1.4959892723709345e-03</internalNodes>
          <leafValues>
            -1.2564352154731750e-01 3.6643788218498230e-01</leafValues></_>
        <_>
          <internalNodes>
            0 -1 156 -6.6792275756597519e-03</internalNodes>
          <leafValues>
            -8.5816644132137299e-02 5.2137798070907593e-01</leafValues></_>
        <_>
          <internalNodes>
            0 -1 375 -6.3668452203273773e-03</internalNodes>
          <leafValues>
            -6.1794352531433105e-01 8.2925342023372650e-02</leafValues></_>
        <_>
          <internalNodes>
            0 -1 355 5.1851300522685051e-03</internalNodes>
          <leafValues>
            -2.2070220112800598e-01 1.9633483886718750e-01</leafValues></_>
        <_>
          <internalNodes>
            0 -1 70 4.9484595656394958e-03</internalNodes>
          <leafValues>
            -2.1437239646911621e-01 2.0772416889667511e-01</leafValues></_>
        <_>
          <internalNodes>
            0 -1 236 -2.0043409895151854e-03</internalNodes>
          <leafValues>
            2.9434344172477722e-01 -1.5380473434925079e-01</leafValues></_>
        <_>
          <internalNodes>
            0 -1 112 -1.8187038600444794e-02</internalNodes>
          <leafValues>
            4.4402447342872620e-01 -1.0027866810560226e-01</leafValues></_>
        <_>
          <internalNodes>
            0 -1 287 -2.9141872073523700e-04</internalNodes>
          <leafValues>
            5.0081348419189453e-01 -8.6067952215671539e-02</leafValues></_>
        <_>
          <internalNodes>
            0 -1 188 1.2930855154991150e-04</internalNodes>
          <leafValues>
            -2.0368717610836029e-01 2.2543571889400482e-01</leafValues></_>
        <_>
          <internalNodes>
            0 -1 5 -5.9072999283671379e-04</internalNodes>
          <leafValues>
            2.3688384890556335e-01 -1.9157226383686066e-01</leafValues></_>
        <_>
          <internalNodes>
            0 -1 4 4.0499293245375156e-03</internalNodes>
          <leafValues>
            -9.7862318158149719e-02 4.7450557351112366e-01</leafValues></_>
        <_>
          <internalNodes>
            0 -1 231 1.7384231090545654e-02</internalNodes>
          <leafValues>
            5.2094236016273499e-02 -8.1685286760330200e-01</leafValues></_>
        <_>
          <internalNodes>
            0 -1 105 -9.2457570135593414e-03</internalNodes>
          <leafValues>
            3.7579900026321411e-01 -1.1859709024429321e-01</leafValues></_>
        <_>
          <internalNodes>
            0 -1 310 -2.3765544756315649e-04</internalNodes>
          <leafValues>
            2.6303607225418091e-01 -1.5868534147739410e-01</leafValues></_>
        <_>
          <internalNodes>
            0 -1 291 -1.2947077862918377e-02</internalNodes>
          <leafValues>
            -6.8427860736846924e-01 6.8260774016380310e-02</leafValues></_>
        <_>
          <internalNodes>
            0 -1 123 -4.6405754983425140e-03</internalNodes>
          <leafValues>
            -4.2375922203063965e-01 9.3567162752151489e-02</leafValues></_>
        <_>
          <internalNodes>
            0 -1 314 -2.8670772910118103e-02</internalNodes>
          <leafValues>
            -2.3911452293395996e-01 1.8396465480327606e-01</leafValues></_>
        <_>
          <internalNodes>
            0 -1 351 -4.4831226114183664e-04</internalNodes>
          <leafValues>
            5.8396410197019577e-02 -7.6951217651367188e-01</leafValues></_>
        <_>
          <internalNodes>
            0 -1 366 3.0374568887054920e-03</internalNodes>
          <leafValues>
            -1.4655901491641998e-01 3.0767455697059631e-01</leafValues></_>
        <_>
          <internalNodes>
            0 -1 174 6.6679646261036396e-03</internalNodes>
          <leafValues>
            -2.0468890666961670e-01 2.1937079727649689e-01</leafValues></_>
        <_>
          <internalNodes>
            0 -1 323 1.2009462807327509e-03</internalNodes>
          <leafValues>
            -1.2824589014053345e-01 3.4117615222930908e-01</leafValues></_>
        <_>
          <internalNodes>
            0 -1 339 -3.7799256388098001e-03</internalNodes>
          <leafValues>
            -9.1885261237621307e-02 4.7733741998672485e-01</leafValues></_>
        <_>
          <internalNodes>
            0 -1 266 -2.9415730386972427e-03</internalNodes>
          <leafValues>
            8.5911661386489868e-02 -6.1641734838485718e-01</leafValues></_>
        <_>
          <internalNodes>
            0 -1 38 3.7650413811206818e-02</internalNodes>
          <leafValues>
            -1.3821707665920258e-01 3.5347878932952881e-01</leafValues></_>
        <_>
          <internalNodes>
            0 -1 155 -9.9179917015135288e-04</internalNodes>
          <leafValues>
            3.4522363543510437e-01 -1.4120896160602570e-01</leafValues></_>
        <_>
          <internalNodes>
            0 -1 185 -4.5706517994403839e-04</internalNodes>
          <leafValues>
            2.0873694121837616e-01 -2.1541565656661987e-01</leafValues></_>
        <_>
          <internalNodes>
            0 -1 97 -1.0146796703338623e-02</internalNodes>
          <leafValues>
            5.9840339422225952e-01 -6.8898439407348633e-02</leafValues></_>
        <_>
          <internalNodes>
            0 -1 269 -7.3720389045774937e-03</internalNodes>
          <leafValues>
            -9.4462372362613678e-02 4.0963828563690186e-01</leafValues></_>
        <_>
          <internalNodes>
            0 -1 251 -8.9511187979951501e-05</internalNodes>
          <leafValues>
            5.7572316378355026e-02 -7.7080905437469482e-01</leafValues></_>
        <_>
          <internalNodes>
            0 -1 109 3.7944585084915161e-02</internalNodes>
          <leafValues>
            3.1186755746603012e-02 -8.8669914007186890e-01</leafValues></_>
        <_>
          <internalNodes>
            0 -1 303 2.6017479831352830e-04</internalNodes>
          <leafValues>
            -1.7161653935909271e-01 2.3018011450767517e-01</leafValues></_></weakClassifiers></_>
    <!-- stage 9 -->
    <_>
      <maxWeakCount>42</maxWeakCount>
      <stageThreshold>-1.4435278177261353e+00</stageThreshold>
      <weakClassifiers>
        <_>
          <internalNodes>
            0 -1 94 -3.6569768562912941e-03</internalNodes>
          <leafValues>
            2.1844660863280296e-02 -5.3461539745330811e-01</leafValues></_>
        <_>
          <internalNodes>
            0 -1 248 -8.5116913542151451e-03</internalNodes>
          <leafValues>
            2.3017178475856781e-01 -3.1229126453399658e-01</leafValues></_>
        <_>
          <internalNodes>
            0 -1 204 -1.5782113187015057e-03</internalNodes>
          <leafValues>
            2.4009425938129425e-01 -2.6755219697952271e-01</leafValues></_>
        <_>
          <internalNodes>
            0 -1 149 -2.4574503768235445e-03</internalNodes>
          <leafValues>
            -4.6707272529602051e-01 1.1820050328969955e-01</leafValues></_>
        <_>
          <internalNodes>
            0 -1 228 -6.3822069205343723e-04</internalNodes>
          <leafValues>
            3.4722065925598145e-01 -1.5670955181121826e-01</leafValues></_>
        <_>
          <internalNodes>
            0 -1 65 -2.8039497556164861e-04</internalNodes>
          <leafValues>
            4.4239658862352371e-02 -7.7468013763427734e-01</leafValues></_>
        <_>
          <internalNodes>
            0 -1 151 -8.1565469503402710e-02</internalNodes>
          <leafValues>
            -3.6000794172286987e-01 1.4310497045516968e-01</leafValues></_>
        <_>
          <internalNodes>
            0 -1 289 -1.1954301735386252e-03</internalNodes>
          <leafValues>
            4.9109208583831787e-01 -1.1769745498895645e-01</leafValues></_>
        <_>
          <internalNodes>
            0 -1 281 6.6448247525840998e-04</internalNodes>
          <leafValues>
            -1.0615603625774384e-01 4.1616049408912659e-01</leafValues></_>
        <_>
          <internalNodes>
            0 -1 164 2.7665235393214971e-05</internalNodes>
          <leafValues>
            1.7304791510105133e-01 -2.4645881354808807e-01</leafValues></_>
        <_>
          <internalNodes>
            0 -1 118 -5.0734495744109154e-03</internalNodes>
          <leafValues>
            4.5455482602119446e-01 -1.0000532120466232e-01</leafValues></_>
        <_>
          <internalNodes>
            0 -1 84 -2.0863654208369553e-04</internalNodes>
          <leafValues>
            2.4897556006908417e-01 -1.7818365991115570e-01</leafValues></_>
        <_>
          <internalNodes>
            0 -1 294 -1.9974191673099995e-03</internalNodes>
          <leafValues>
            7.7542044222354889e-02 -5.2689820528030396e-01</leafValues></_>
        <_>
          <internalNodes>
            0 -1 329 -7.8117139637470245e-03</internalNodes>
          <leafValues>
            -9.2015214264392853e-02 5.0009226799011230e-01</leafValues></_>
        <_>
          <internalNodes>
            0 -1 225 -7.4908426031470299e-03</internalNodes>
          <leafValues>
            3.6577793955802917e-01 -1.1336088925600052e-01</leafValues></_>
        <_>
          <internalNodes>
            0 -1 132 -1.2632661499083042e-02</internalNodes>
          <leafValues>
            -7.1989387273788452e-01 6.0226194560527802e-02</leafValues></_>
        <_>
          <internalNodes>
            0 -1 74 -9.6516148187220097e-04</internalNodes>
          <leafValues>
            4.3276634812355042e-01 -9.8613195121288300e-02</leafValues></_>
        <_>
          <internalNodes>
            0 -1 349 -4.1231713839806616e-04</internalNodes>
          <leafValues>
            4.6498551964759827e-02 -7.8362590074539185e-01</leafValues></_>
        <_>
          <internalNodes>
            0 -1 369 -2.3153317160904408e-03</internalNodes>
          <leafValues>
            2.5226423144340515e-01 -1.6227635741233826e-01</leafValues></_>
        <_>
          <internalNodes>
            0 -1 63 -1.5646914107492194e-05</internalNodes>
          <leafValues>
            1.7014823853969574e-01 -2.4311745166778564e-01</leafValues></_>
        <_>
          <internalNodes>
            0 -1 14 -7.5056785717606544e-03</internalNodes>
          <leafValues>
            3.3242130279541016e-01 -1.2848325073719025e-01</leafValues></_>
        <_>
          <internalNodes>
            0 -1 363 -3.9833607152104378e-03</internalNodes>
          <leafValues>
            3.9590516686439514e-01 -1.0711313039064407e-01</leafValues></_>
        <_>
          <internalNodes>
            0 -1 336 3.9165511727333069e-02</internalNodes>
          <leafValues>
            -1.6882675886154175e-01 2.5490012764930725e-01</leafValues></_>
        <_>
          <internalNodes>
            0 -1 85 -5.5377949029207230e-03</internalNodes>
          <leafValues>
            1.9750341773033142e-01 -2.1771802008152008e-01</leafValues></_>
        <_>
          <internalNodes>
            0 -1 263 7.3883828008547425e-05</internalNodes>
          <leafValues>
            1.5494400262832642e-01 -2.4673390388488770e-01</leafValues></_>
        <_>
          <internalNodes>
            0 -1 146 7.7594585716724396e-02</internalNodes>
          <leafValues>
            -1.0338798910379410e-01 4.0030798316001892e-01</leafValues></_>
        <_>
          <internalNodes>
            0 -1 166 2.7589510864345357e-05</internalNodes>
          <leafValues>
            1.8504442274570465e-01 -2.7758723497390747e-01</leafValues></_>
        <_>
          <internalNodes>
            0 -1 318 2.2338319569826126e-02</internalNodes>
          <leafValues>
            5.6617539376020432e-02 -6.7007756233215332e-01</leafValues></_>
        <_>
          <internalNodes>
            0 -1 256 -2.0015614107251167e-02</internalNodes>
          <leafValues>
            -7.7997636795043945e-01 3.7922747433185577e-02</leafValues></_>
        <_>
          <internalNodes>
            0 -1 87 -1.7768624238669872e-03</internalNodes>
          <leafValues>
            3.3330520987510681e-01 -1.2812027335166931e-01</leafValues></_>
        <_>
          <internalNodes>
            0 -1 376 3.5267940256744623e-04</internalNodes>
          <leafValues>
            -1.0329931974411011e-01 3.5441371798515320e-01</leafValues></_>
        <_>
          <internalNodes>
            0 -1 125 -6.6942209377884865e-04</internalNodes>
          <leafValues>
            3.3443352580070496e-01 -1.1932545900344849e-01</leafValues></_>
        <_>
          <internalNodes>
            0 -1 152 -3.8489518919959664e-04</internalNodes>
          <leafValues>
            2.6207977533340454e-01 -1.4141377806663513e-01</leafValues></_>
        <_>
          <internalNodes>
            0 -1 246 -2.6185151189565659e-02</internalNodes>
          <leafValues>
            -5.6893897056579590e-01 6.5964661538600922e-02</leafValues></_>
        <_>
          <internalNodes>
            0 -1 327 -1.2553064152598381e-02</internalNodes>
          <leafValues>
            -1.2763509154319763e-01 3.1199491024017334e-01</leafValues></_>
        <_>
          <internalNodes>
            0 -1 337 3.1006094068288803e-03</internalNodes>
          <leafValues>
            -6.0274694114923477e-02 7.4871510267257690e-01</leafValues></_>
        <_>
          <internalNodes>
            0 -1 270 -1.5879946295171976e-03</internalNodes>
          <leafValues>
            7.8376285731792450e-02 -6.2782537937164307e-01</leafValues></_>
        <_>
          <internalNodes>
            0 -1 169 -1.0496456176042557e-02</internalNodes>
          <leafValues>
            3.4146510064601898e-02 -7.9979890584945679e-01</leafValues></_>
        <_>
          <internalNodes>
            0 -1 12 -2.4660746566951275e-03</internalNodes>
          <leafValues>
            -4.8497298359870911e-01 6.8065866827964783e-02</leafValues></_>
        <_>
          <internalNodes>
            0 -1 208 1.5639897901564837e-04</internalNodes>
          <leafValues>
            -1.2136615812778473e-01 3.2642361521720886e-01</leafValues></_>
        <_>
          <internalNodes>
            0 -1 77 -3.5995010286569595e-02</internalNodes>
          <leafValues>
            5.7665467262268066e-01 -6.0029663145542145e-02</leafValues></_>
        <_>
          <internalNodes>
            0 -1 178 -1.7008610069751740e-02</internalNodes>
          <leafValues>
            -9.0012609958648682e-02 4.1606247425079346e-01</leafValues></_></weakClassifiers></_>
    <!-- stage 10 -->
    <_>
      <maxWeakCount>49</maxWeakCount>
      <stageThreshold>-1.6135559082031250e+00</stageThreshold>
      <weakClassifiers>
        <_>
          <internalNodes>
            0 -1 114 -1.7670642584562302e-02</internalNodes>
          <leafValues>
            2.6011560112237930e-02 -4.9290779232978821e-01</leafValues></_>
        <_>
          <internalNodes>
            0 -1 275 -3.3679639454931021e-04</internalNodes>
          <leafValues>
            2.0641532540321350e-01 -3.0389195680618286e-01</leafValues></_>
        <_>
          <internalNodes>
            0 -1 165 2.0745103247463703e-03</internalNodes>
          <leafValues>
            -3.1507381796836853e-01 1.9233524799346924e-01</leafValues></_>
        <_>
          <internalNodes>
            0 -1 278 -1.2891957536339760e-02</internalNodes>
          <leafValues>
            -3.6876416206359863e-01 1.4516693353652954e-01</leafValues></_>
        <_>
          <internalNodes>
            0 -1 139 -2.8598885983228683e-02</internalNodes>
          <leafValues>
            1.1071158200502396e-01 -8.0768013000488281e-01</leafValues></_>
        <_>
          <internalNodes>
            0 -1 137 -1.8592661945149302e-03</internalNodes>
          <leafValues>
            2.0299394428730011e-01 -2.5360313057899475e-01</leafValues></_>
        <_>
          <internalNodes>
            0 -1 167 -2.2100550122559071e-03</internalNodes>
          <leafValues>
            2.6204249262809753e-01 -1.8672625720500946e-01</leafValues></_>
        <_>
          <internalNodes>
            0 -1 160 5.3965793922543526e-03</internalNodes>
          <leafValues>
            -8.2577653229236603e-02 5.8242928981781006e-01</leafValues></_>
        <_>
          <internalNodes>
            0 -1 348 -7.4525922536849976e-04</internalNodes>
          <leafValues>
            2.8570103645324707e-01 -1.9288429617881775e-01</leafValues></_>
        <_>
          <internalNodes>
            0 -1 168 -4.7864351421594620e-02</internalNodes>
          <leafValues>
            9.2599892616271973e-01 -5.5273175239562988e-02</leafValues></_>
        <_>
          <internalNodes>
            0 -1 40 -3.4794346429407597e-03</internalNodes>
          <leafValues>
            8.2569360733032227e-02 -6.2061250209808350e-01</leafValues></_>
        <_>
          <internalNodes>
            0 -1 261 -6.8600270897150040e-03</internalNodes>
          <leafValues>
            -9.0340919792652130e-02 5.3508871793746948e-01</leafValues></_>
        <_>
          <internalNodes>
            0 -1 205 2.5046507289516740e-05</internalNodes>
          <leafValues>
            1.7234311997890472e-01 -2.6959836483001709e-01</leafValues></_>
        <_>
          <internalNodes>
            0 -1 257 -1.7276985570788383e-02</internalNodes>
          <leafValues>
            2.7296039462089539e-01 -1.6243481636047363e-01</leafValues></_>
        <_>
          <internalNodes>
            0 -1 254 2.3496284848079085e-04</internalNodes>
          <leafValues>
            1.2652865052223206e-01 -2.9766607284545898e-01</leafValues></_>
        <_>
          <internalNodes>
            0 -1 140 -1.2681649066507816e-02</internalNodes>
          <leafValues>
            3.8875246047973633e-01 -1.1506917327642441e-01</leafValues></_>
        <_>
          <internalNodes>
            0 -1 131 4.3223965913057327e-02</internalNodes>
          <leafValues>
            -7.5584910809993744e-02 4.9134275317192078e-01</leafValues></_>
        <_>
          <internalNodes>
            0 -1 344 -2.5803060270845890e-04</internalNodes>
          <leafValues>
            3.1915956735610962e-01 -1.4162857830524445e-01</leafValues></_>
        <_>
          <internalNodes>
            0 -1 372 -1.7089031171053648e-03</internalNodes>
          <leafValues>
            4.7392290085554123e-02 -8.2267075777053833e-01</leafValues></_>
        <_>
          <internalNodes>
            0 -1 197 -3.1403042376041412e-02</internalNodes>
          <leafValues>
            -8.8497674465179443e-01 3.4796658903360367e-02</leafValues></_>
        <_>
          <internalNodes>
            0 -1 319 -2.3042042448651046e-04</internalNodes>
          <leafValues>
            3.5819226503372192e-01 -1.1636151373386383e-01</leafValues></_>
        <_>
          <internalNodes>
            0 -1 27 -4.0343306027352810e-03</internalNodes>
          <leafValues>
            4.9653345346450806e-01 -8.3069734275341034e-02</leafValues></_>
        <_>
          <internalNodes>
            0 -1 88 -2.1789010614156723e-02</internalNodes>
          <leafValues>
            -6.4491599798202515e-01 6.4517319202423096e-02</leafValues></_>
        <_>
          <internalNodes>
            0 -1 171 -9.8181329667568207e-04</internalNodes>
          <leafValues>
            2.3070888221263885e-01 -1.7359368503093719e-01</leafValues></_>
        <_>
          <internalNodes>
            0 -1 210 1.1504818394314498e-04</internalNodes>
          <leafValues>
            9.1227509081363678e-02 -4.3680021166801453e-01</leafValues></_>
        <_>
          <internalNodes>
            0 -1 326 4.5936591923236847e-02</internalNodes>
          <leafValues>
            5.1297381520271301e-02 -7.0609688758850098e-01</leafValues></_>
        <_>
          <internalNodes>
            0 -1 19 -4.5728068798780441e-03</internalNodes>
          <leafValues>
            -5.8445012569427490e-01 6.1562180519104004e-02</leafValues></_>
        <_>
          <internalNodes>
            0 -1 340 -2.0583992591127753e-04</internalNodes>
          <leafValues>
            3.4091025590896606e-02 -8.7791925668716431e-01</leafValues></_>
        <_>
          <internalNodes>
            0 -1 200 2.9102282132953405e-04</internalNodes>
          <leafValues>
            -1.0422409325838089e-01 4.1832149028778076e-01</leafValues></_>
        <_>
          <internalNodes>
            0 -1 320 -6.0340040363371372e-03</internalNodes>
          <leafValues>
            -1.5013331174850464e-01 2.7915340662002563e-01</leafValues></_>
        <_>
          <internalNodes>
            0 -1 265 3.9117662236094475e-03</internalNodes>
          <leafValues>
            -7.0140503346920013e-02 5.8004158735275269e-01</leafValues></_>
        <_>
          <internalNodes>
            0 -1 359 5.2076899446547031e-03</internalNodes>
          <leafValues>
            -7.6008081436157227e-02 5.4462075233459473e-01</leafValues></_>
        <_>
          <internalNodes>
            0 -1 163 -1.9704870283021592e-05</internalNodes>
          <leafValues>
            2.0471219718456268e-01 -1.9871999323368073e-01</leafValues></_>
        <_>
          <internalNodes>
            0 -1 286 1.6224622959271073e-04</internalNodes>
          <leafValues>
            1.2285297363996506e-01 -3.5249382257461548e-01</leafValues></_>
        <_>
          <internalNodes>
            0 -1 346 -1.2219175696372986e-03</internalNodes>
          <leafValues>
            -3.4224927425384521e-01 1.0726740956306458e-01</leafValues></_>
        <_>
          <internalNodes>
            0 -1 18 -3.5577947273850441e-03</internalNodes>
          <leafValues>
            2.7701973915100098e-01 -1.4150427281856537e-01</leafValues></_>
        <_>
          <internalNodes>
            0 -1 54 -4.2971470393240452e-03</internalNodes>
          <leafValues>
            -3.4524270892143250e-01 1.2133237719535828e-01</leafValues></_>
        <_>
          <internalNodes>
            0 -1 92 -2.3270972073078156e-02</internalNodes>
          <leafValues>
            4.4366970658302307e-01 -9.6107937395572662e-02</leafValues></_>
        <_>
          <internalNodes>
            0 -1 148 -7.8286686912178993e-03</internalNodes>
          <leafValues>
            -5.3259360790252686e-01 7.7205970883369446e-02</leafValues></_>
        <_>
          <internalNodes>
            0 -1 0 -5.6922836229205132e-03</internalNodes>
          <leafValues>
            3.0751389265060425e-01 -1.2777072191238403e-01</leafValues></_>
        <_>
          <internalNodes>
            0 -1 48 -1.1089680716395378e-02</internalNodes>
          <leafValues>
            2.9776600003242493e-01 -1.5197314321994781e-01</leafValues></_>
        <_>
          <internalNodes>
            0 -1 68 -9.0199569240212440e-04</internalNodes>
          <leafValues>
            2.4303653836250305e-01 -1.6957756876945496e-01</leafValues></_>
        <_>
          <internalNodes>
            0 -1 100 -2.1171765401959419e-03</internalNodes>
          <leafValues>
            2.2474886476993561e-01 -1.8398262560367584e-01</leafValues></_>
        <_>
          <internalNodes>
            0 -1 104 -1.3664759695529938e-02</internalNodes>
          <leafValues>
            2.8121602535247803e-01 -1.4713695645332336e-01</leafValues></_>
        <_>
          <internalNodes>
            0 -1 378 1.5876065008342266e-03</internalNodes>
          <leafValues>
            -1.8689841032028198e-01 2.1558226644992828e-01</leafValues></_>
        <_>
          <internalNodes>
            0 -1 317 6.3020779634825885e-05</internalNodes>
          <leafValues>
            1.3357779383659363e-01 -3.1734108924865723e-01</leafValues></_>
        <_>
          <internalNodes>
            0 -1 220 1.6509417037013918e-05</internalNodes>
          <leafValues>
            -6.9926448166370392e-02 6.6501039266586304e-01</leafValues></_>
        <_>
          <internalNodes>
            0 -1 216 -9.0163193817716092e-05</internalNodes>
          <leafValues>
            -3.8641032576560974e-01 1.1550518870353699e-01</leafValues></_>
        <_>
          <internalNodes>
            0 -1 292 -1.5677063493058085e-04</internalNodes>
          <leafValues>
            4.6884696930646896e-02 -7.3476612567901611e-01</leafValues></_></weakClassifiers></_>
    <!-- stage 11 -->
    <_>
      <maxWeakCount>49</maxWeakCount>
      <stageThreshold>-1.4344452619552612e+00</stageThreshold>
      <weakClassifiers>
        <_>
          <internalNodes>
            0 -1 36 -9.8836980760097504e-02</internalNodes>
          <leafValues>
            -5.6179773807525635e-01 -1.6666667535901070e-02</leafValues></_>
        <_>
          <internalNodes>
            0 -1 249 8.4040139336138964e-04</internalNodes>
          <leafValues>
            -3.4964936971664429e-01 1.5782694518566132e-01</leafValues></_>
        <_>
          <internalNodes>
            0 -1 244 -1.9270598422735929e-03</internalNodes>
          <leafValues>
            2.2363543510437012e-01 -2.2860656678676605e-01</leafValues></_>
        <_>
          <internalNodes>
            0 -1 177 -9.0050173457711935e-04</internalNodes>
          <leafValues>
            2.6647958159446716e-01 -1.6569055616855621e-01</leafValues></_>
        <_>
          <internalNodes>
            0 -1 377 -8.0388056812807918e-04</internalNodes>
          <leafValues>
            4.8654023557901382e-02 -6.2930405139923096e-01</leafValues></_>
        <_>
          <internalNodes>
            0 -1 190 -7.2813577950000763e-02</internalNodes>
          <leafValues>
            -1.1394894868135452e-01 3.5807013511657715e-01</leafValues></_>
        <_>
          <internalNodes>
            0 -1 343 -4.1484826942905784e-04</internalNodes>
          <leafValues>
            3.0592384934425354e-01 -1.4173214137554169e-01</leafValues></_>
        <_>
          <internalNodes>
            0 -1 1 -2.7566769858822227e-04</internalNodes>
          <leafValues>
            1.6605524718761444e-01 -2.8389146924018860e-01</leafValues></_>
        <_>
          <internalNodes>
            0 -1 33 -2.7013604994863272e-03</internalNodes>
          <leafValues>
            1.7189078032970428e-01 -2.1510015428066254e-01</leafValues></_>
        <_>
          <internalNodes>
            0 -1 271 -2.1778335212729871e-04</internalNodes>
          <leafValues>
            1.9237427413463593e-01 -1.9399784505367279e-01</leafValues></_>
        <_>
          <internalNodes>
            0 -1 273 -4.2594238766469061e-04</internalNodes>
          <leafValues>
            2.6244148612022400e-01 -1.5480525791645050e-01</leafValues></_>
        <_>
          <internalNodes>
            0 -1 370 4.5050389599055052e-04</internalNodes>
          <leafValues>
            -2.6044666767120361e-01 1.4789476990699768e-01</leafValues></_>
        <_>
          <internalNodes>
            0 -1 277 2.5989043060690165e-03</internalNodes>
          <leafValues>
            5.2993927150964737e-02 -5.6806087493896484e-01</leafValues></_>
        <_>
          <internalNodes>
            0 -1 120 -1.2050387449562550e-02</internalNodes>
          <leafValues>
            3.9095202088356018e-01 -9.5292091369628906e-02</leafValues></_>
        <_>
          <internalNodes>
            0 -1 198 1.8303068645764142e-04</internalNodes>
          <leafValues>
            -1.8598480522632599e-01 2.0477126538753510e-01</leafValues></_>
        <_>
          <internalNodes>
            0 -1 206 1.2616489082574844e-02</internalNodes>
          <leafValues>
            9.3152225017547607e-02 -4.2057624459266663e-01</leafValues></_>
        <_>
          <internalNodes>
            0 -1 214 -1.1110132932662964e-01</internalNodes>
          <leafValues>
            -8.0275875329971313e-01 3.6456171423196793e-02</leafValues></_>
        <_>
          <internalNodes>
            0 -1 313 -3.9617659058421850e-04</internalNodes>
          <leafValues>
            2.5266280397772789e-02 -9.6523511409759521e-01</leafValues></_>
        <_>
          <internalNodes>
            0 -1 180 -4.5368833525571972e-05</internalNodes>
          <leafValues>
            1.4923091232776642e-01 -2.1571843326091766e-01</leafValues></_>
        <_>
          <internalNodes>
            0 -1 182 1.4291035011410713e-02</internalNodes>
          <leafValues>
            -8.7425589561462402e-02 3.6584779620170593e-01</leafValues></_>
        <_>
          <internalNodes>
            0 -1 193 2.2759987041354179e-03</internalNodes>
          <leafValues>
            -1.2458445876836777e-01 3.1280863285064697e-01</leafValues></_>
        <_>
          <internalNodes>
            0 -1 56 1.2090642936527729e-02</internalNodes>
          <leafValues>
            -8.2372941076755524e-02 3.9979481697082520e-01</leafValues></_>
        <_>
          <internalNodes>
            0 -1 17 -1.2840399518609047e-02</internalNodes>
          <leafValues>
            2.3019579052925110e-01 -1.7441505193710327e-01</leafValues></_>
        <_>
          <internalNodes>
            0 -1 35 3.1420355662703514e-03</internalNodes>
          <leafValues>
            -6.7301757633686066e-02 4.8329764604568481e-01</leafValues></_>
        <_>
          <internalNodes>
            0 -1 305 -1.7802018672227859e-02</internalNodes>
          <leafValues>
            -1.5521471202373505e-01 2.1922101080417633e-01</leafValues></_>
        <_>
          <internalNodes>
            0 -1 143 -4.2197469156235456e-04</internalNodes>
          <leafValues>
            4.0705997496843338e-02 -8.5287648439407349e-01</leafValues></_>
        <_>
          <internalNodes>
            0 -1 187 -2.5034279096871614e-03</internalNodes>
          <leafValues>
            4.0333798527717590e-01 -9.3214631080627441e-02</leafValues></_>
        <_>
          <internalNodes>
            0 -1 219 -3.3360522240400314e-02</internalNodes>
          <leafValues>
            -8.1469291448593140e-01 4.3938424438238144e-02</leafValues></_>
        <_>
          <internalNodes>
            0 -1 308 -4.4008079916238785e-02</internalNodes>
          <leafValues>
            4.5327967405319214e-01 -8.7119720876216888e-02</leafValues></_>
        <_>
          <internalNodes>
            0 -1 316 -1.5508225187659264e-02</internalNodes>
          <leafValues>
            -5.4245823621749878e-01 7.7011480927467346e-02</leafValues></_>
        <_>
          <internalNodes>
            0 -1 230 -7.9744476824998856e-03</internalNodes>
          <leafValues>
            -4.7406920790672302e-01 7.1284905076026917e-02</leafValues></_>
        <_>
          <internalNodes>
            0 -1 145 -5.7060658931732178e-02</internalNodes>
          <leafValues>
            3.4173136949539185e-01 -1.1772121489048004e-01</leafValues></_>
        <_>
          <internalNodes>
            0 -1 127 3.1402163207530975e-02</internalNodes>
          <leafValues>
            -1.4617487788200378e-01 3.1371602416038513e-01</leafValues></_>
        <_>
          <internalNodes>
            0 -1 194 3.2101094722747803e-02</internalNodes>
          <leafValues>
            5.4893970489501953e-02 -6.7803263664245605e-01</leafValues></_>
        <_>
          <internalNodes>
            0 -1 373 -4.3588569387793541e-03</internalNodes>
          <leafValues>
            5.4748374223709106e-01 -7.3852807283401489e-02</leafValues></_>
        <_>
          <internalNodes>
            0 -1 252 1.5780974645167589e-03</internalNodes>
          <leafValues>
            -9.0627528727054596e-02 3.2058086991310120e-01</leafValues></_>
        <_>
          <internalNodes>
            0 -1 44 8.5921224672347307e-04</internalNodes>
          <leafValues>
            -4.7970544546842575e-02 6.6951704025268555e-01</leafValues></_>
        <_>
          <internalNodes>
            0 -1 199 -1.2026871554553509e-03</internalNodes>
          <leafValues>
            -4.4236615300178528e-01 8.8600367307662964e-02</leafValues></_>
        <_>
          <internalNodes>
            0 -1 312 -2.1395931980805472e-05</internalNodes>
          <leafValues>
            3.3594496548175812e-02 -8.4441393613815308e-01</leafValues></_>
        <_>
          <internalNodes>
            0 -1 333 1.7031579773174599e-05</internalNodes>
          <leafValues>
            -2.0106272399425507e-01 1.6088925302028656e-01</leafValues></_>
        <_>
          <internalNodes>
            0 -1 360 -8.8159204460680485e-04</internalNodes>
          <leafValues>
            1.8866509199142456e-01 -1.7559477686882019e-01</leafValues></_>
        <_>
          <internalNodes>
            0 -1 162 -7.3772976174950600e-03</internalNodes>
          <leafValues>
            4.8465785384178162e-01 -6.3583046197891235e-02</leafValues></_>
        <_>
          <internalNodes>
            0 -1 159 1.1244187771808356e-04</internalNodes>
          <leafValues>
            1.5378870069980621e-01 -2.4081924557685852e-01</leafValues></_>
        <_>
          <internalNodes>
            0 -1 184 -1.0688313341233879e-04</internalNodes>
          <leafValues>
            1.5172603726387024e-01 -2.1625263988971710e-01</leafValues></_>
        <_>
          <internalNodes>
            0 -1 217 2.0052751642651856e-04</internalNodes>
          <leafValues>
            -1.0450530797243118e-01 3.5103300213813782e-01</leafValues></_>
        <_>
          <internalNodes>
            0 -1 362 2.4159997701644897e-04</internalNodes>
          <leafValues>
            -2.1053756773471832e-01 1.6711089015007019e-01</leafValues></_>
        <_>
          <internalNodes>
            0 -1 368 -1.0482037905603647e-03</internalNodes>
          <leafValues>
            3.0465108156204224e-01 -1.0933539271354675e-01</leafValues></_>
        <_>
          <internalNodes>
            0 -1 374 -1.1115858796983957e-04</internalNodes>
          <leafValues>
            3.7486199289560318e-02 -9.2843919992446899e-01</leafValues></_>
        <_>
          <internalNodes>
            0 -1 284 -4.6308476477861404e-02</internalNodes>
          <leafValues>
            -6.5864883363246918e-02 5.5854409933090210e-01</leafValues></_></weakClassifiers></_></stages>
  <features>
    <_>
      <rects>
        <_>
          0 0 2 24 -1.</_>
        <_>
          1 0 1 24 2.</_></rects>
      <tilted>0</tilted></_>
    <_>
      <rects>
        <_>
          0 0 6 10 -1.</_>
        <_>
          3 0 3 10 2.</_></rects>
      <tilted>0</tilted></_>
    <_>
      <rects>
        <_>
          0 0 10 6 -1.</_>
        <_>
          5 0 5 6 2.</_></rects>
      <tilted>0</tilted></_>
    <_>
      <rects>
        <_>
          0 1 14 3 -1.</_>
        <_>
          7 1 7 3 2.</_></rects>
      <tilted>0</tilted></_>
    <_>
      <rects>
        <_>
          0 1 18 2 -1.</_>
        <_>
          0 1 9 1 2.</_>
        <_>
          9 2 9 1 2.</_></rects>
      <tilted>0</tilted></_>
    <_>
      <rects>
        <_>
          0 2 4 10 -1.</_>
        <_>
          0 2 2 5 2.</_>
        <_>
          2 7 2 5 2.</_></rects>
      <tilted>0</tilted></_>
    <_>
      <rects>
        <_>
          0 2 4 26 -1.</_>
        <_>
          2 2 2 26 2.</_></rects>
      <tilted>0</tilted></_>
    <_>
      <rects>
        <_>
          0 2 10 4 -1.</_>
        <_>
          5 2 5 4 2.</_></rects>
      <tilted>0</tilted></_>
    <_>
      <rects>
        <_>
          0 3 12 2 -1.</_>
        <_>
          6 3 6 2 2.</_></rects>
      <tilted>0</tilted></_>
    <_>
      <rects>
        <_>
          0 5 10 5 -1.</_>
        <_>
          5 5 5 5 2.</_></rects>
      <tilted>0</tilted></_>
    <_>
      <rects>
        <_>
          0 7 4 12 -1.</_>
        <_>
          0 7 2 6 2.</_>
        <_>
          2 13 2 6 2.</_></rects>
      <tilted>0</tilted></_>
    <_>
      <rects>
        <_>
          0 8 32 2 -1.</_>
        <_>
          0 8 16 1 2.</_>
        <_>
          16 9 16 1 2.</_></rects>
      <tilted>0</tilted></_>
    <_>
      <rects>
        <_>
          0 12 2 4 -1.</_>
        <_>
          0 14 2 2 2.</_></rects>
      <tilted>0</tilted></_>
    <_>
      <rects>
        <_>
          0 12 4 15 -1.</_>
        <_>
          2 12 2 15 2.</_></rects>
      <tilted>0</tilted></_>
    <_>
      <rects>
        <_>
          0 12 28 2 -1.</_>
        <_>
          0 13 28 1 2.</_></rects>
      <tilted>0</tilted></_>
    <_>
      <rects>
        <_>
          0 13 4 3 -1.</_>
        <_>
          2 13 2 3 2.</_></rects>
      <tilted>0</tilted></_>
    <_>
      <rects>
        <_>
          0 13 31 2 -1.</_>
        <_>
          0 14 31 1 2.</_></rects>
      <tilted>0</tilted></_>
    <_>
      <rects>
        <_>
          0 14 6 12 -1.</_>
        <_>
          3 14 3 12 2.</_></rects>
      <tilted>0</tilted></_>
    <_>
      <rects>
        <_>
          0 14 26 2 -1.</_>
        <_>
          0 15 26 1 2.</_></rects>
      <tilted>0</tilted></_>
    <_>
      <rects>
        <_>
          0 15 2 6 -1.</_>
        <_>
          0 18 2 3 2.</_></rects>
      <tilted>0</tilted></_>
    <_>
      <rects>
        <_>
          0 19 27 11 -1.</_>
        <_>
          9 19 9 11 2.</_></rects>
      <tilted>0</tilted></_>
    <_>
      <rects>
        <_>
          0 20 15 11 -1.</_>
        <_>
          5 20 5 11 2.</_></rects>
      <tilted>0</tilted></_>
    <_>
      <rects>
        <_>
          0 21 20 9 -1.</_>
        <_>
          0 24 20 3 2.</_></rects>
      <tilted>0</tilted></_>
    <_>
      <rects>
        <_>
          0 27 8 4 -1.</_>
        <_>
          4 27 4 4 2.</_></rects>
      <tilted>0</tilted></_>
    <_>
      <rects>
        <_>
          0 28 6 4 -1.</_>
        <_>
          3 28 3 4 2.</_></rects>
      <tilted>0</tilted></_>
    <_>
      <rects>
        <_>
          0 28 8 4 -1.</_>
        <_>
          4 28 4 4 2.</_></rects>
      <tilted>0</tilted></_>
    <_>
      <rects>
        <_>
          0 28 31 4 -1.</_>
        <_>
          0 30 31 2 2.</_></rects>
      <tilted>0</tilted></_>
    <_>
      <rects>
        <_>
          0 29 13 2 -1.</_>
        <_>
          0 30 13 1 2.</_></rects>
      <tilted>0</tilted></_>
    <_>
      <rects>
        <_>
          0 30 6 2 -1.</_>
        <_>
          3 30 3 2 2.</_></rects>
      <tilted>0</tilted></_>
    <_>
      <rects>
        <_>
          0 31 9 1 -1.</_>
        <_>
          3 31 3 1 2.</_></rects>
      <tilted>0</tilted></_>
    <_>
      <rects>
        <_>
          1 0 22 4 -1.</_>
        <_>
          1 0 11 2 2.</_>
        <_>
          12 2 11 2 2.</_></rects>
      <tilted>0</tilted></_>
    <_>
      <rects>
        <_>
          1 1 3 2 -1.</_>
        <_>
          2 1 1 2 2.</_></rects>
      <tilted>0</tilted></_>
    <_>
      <rects>
        <_>
          1 7 4 12 -1.</_>
        <_>
          3 7 2 12 2.</_></rects>
      <tilted>0</tilted></_>
    <_>
      <rects>
        <_>
          1 8 7 12 -1.</_>
        <_>
          1 14 7 6 2.</_></rects>
      <tilted>0</tilted></_>
    <_>
      <rects>
        <_>
          1 9 30 2 -1.</_>
        <_>
          1 10 30 1 2.</_></rects>
      <tilted>0</tilted></_>
    <_>
      <rects>
        <_>
          1 13 2 8 -1.</_>
        <_>
          2 13 1 8 2.</_></rects>
      <tilted>0</tilted></_>
    <_>
      <rects>
        <_>
          1 13 27 10 -1.</_>
        <_>
          10 13 9 10 2.</_></rects>
      <tilted>0</tilted></_>
    <_>
      <rects>
        <_>
          1 13 27 11 -1.</_>
        <_>
          10 13 9 11 2.</_></rects>
      <tilted>0</tilted></_>
    <_>
      <rects>
        <_>
          1 14 12 18 -1.</_>
        <_>
          1 23 12 9 2.</_></rects>
      <tilted>0</tilted></_>
    <_>
      <rects>
        <_>
          1 17 12 14 -1.</_>
        <_>
          1 17 6 7 2.</_>
        <_>
          7 24 6 7 2.</_></rects>
      <tilted>0</tilted></_>
    <_>
      <rects>
        <_>
          1 17 27 3 -1.</_>
        <_>
          10 17 9 3 2.</_></rects>
      <tilted>0</tilted></_>
    <_>
      <rects>
        <_>
          1 17 27 6 -1.</_>
        <_>
          10 17 9 6 2.</_></rects>
      <tilted>0</tilted></_>
    <_>
      <rects>
        <_>
          1 18 12 14 -1.</_>
        <_>
          1 18 6 7 2.</_>
        <_>
          7 25 6 7 2.</_></rects>
      <tilted>0</tilted></_>
    <_>
      <rects>
        <_>
          1 20 3 12 -1.</_>
        <_>
          1 26 3 6 2.</_></rects>
      <tilted>0</tilted></_>
    <_>
      <rects>
        <_>
          1 25 21 1 -1.</_>
        <_>
          8 25 7 1 2.</_></rects>
      <tilted>0</tilted></_>
    <_>
      <rects>
        <_>
          1 30 6 2 -1.</_>
        <_>
          1 31 6 1 2.</_></rects>
      <tilted>0</tilted></_>
    <_>
      <rects>
        <_>
          2 3 30 4 -1.</_>
        <_>
          17 3 15 4 2.</_></rects>
      <tilted>0</tilted></_>
    <_>
      <rects>
        <_>
          2 4 2 14 -1.</_>
        <_>
          2 4 1 7 2.</_>
        <_>
          3 11 1 7 2.</_></rects>
      <tilted>0</tilted></_>
    <_>
      <rects>
        <_>
          2 4 4 19 -1.</_>
        <_>
          4 4 2 19 2.</_></rects>
      <tilted>0</tilted></_>
    <_>
      <rects>
        <_>
          2 4 16 22 -1.</_>
        <_>
          2 15 16 11 2.</_></rects>
      <tilted>0</tilted></_>
    <_>
      <rects>
        <_>
          2 7 26 2 -1.</_>
        <_>
          2 8 26 1 2.</_></rects>
      <tilted>0</tilted></_>
    <_>
      <rects>
        <_>
          2 9 26 2 -1.</_>
        <_>
          2 10 26 1 2.</_></rects>
      <tilted>0</tilted></_>
    <_>
      <rects>
        <_>
          2 10 30 2 -1.</_>
        <_>
          2 10 15 1 2.</_>
        <_>
          17 11 15 1 2.</_></rects>
      <tilted>0</tilted></_>
    <_>
      <rects>
        <_>
          2 10 23 2 -1.</_>
        <_>
          2 11 23 1 2.</_></rects>
      <tilted>0</tilted></_>
    <_>
      <rects>
        <_>
          2 13 11 4 -1.</_>
        <_>
          2 15 11 2 2.</_></rects>
      <tilted>0</tilted></_>
    <_>
      <rects>
        <_>
          2 13 25 2 -1.</_>
        <_>
          2 14 25 1 2.</_></rects>
      <tilted>0</tilted></_>
    <_>
      <rects>
        <_>
          2 15 4 11 -1.</_>
        <_>
          4 15 2 11 2.</_></rects>
      <tilted>0</tilted></_>
    <_>
      <rects>
        <_>
          2 15 27 8 -1.</_>
        <_>
          11 15 9 8 2.</_></rects>
      <tilted>0</tilted></_>
    <_>
      <rects>
        <_>
          2 16 27 10 -1.</_>
        <_>
          2 21 27 5 2.</_></rects>
      <tilted>0</tilted></_>
    <_>
      <rects>
        <_>
          2 21 10 2 -1.</_>
        <_>
          2 22 10 1 2.</_></rects>
      <tilted>0</tilted></_>
    <_>
      <rects>
        <_>
          2 22 4 6 -1.</_>
        <_>
          2 22 2 3 2.</_>
        <_>
          4 25 2 3 2.</_></rects>
      <tilted>0</tilted></_>
    <_>
      <rects>
        <_>
          2 22 30 5 -1.</_>
        <_>
          17 22 15 5 2.</_></rects>
      <tilted>0</tilted></_>
    <_>
      <rects>
        <_>
          2 24 2 2 -1.</_>
        <_>
          2 24 1 1 2.</_>
        <_>
          3 25 1 1 2.</_></rects>
      <tilted>0</tilted></_>
    <_>
      <rects>
        <_>
          2 27 2 5 -1.</_>
        <_>
          3 27 1 5 2.</_></rects>
      <tilted>0</tilted></_>
    <_>
      <rects>
        <_>
          2 28 8 4 -1.</_>
        <_>
          2 28 4 2 2.</_>
        <_>
          6 30 4 2 2.</_></rects>
      <tilted>0</tilted></_>
    <_>
      <rects>
        <_>
          3 0 3 1 -1.</_>
        <_>
          4 0 1 1 2.</_></rects>
      <tilted>0</tilted></_>
    <_>
      <rects>
        <_>
          3 1 24 30 -1.</_>
        <_>
          11 1 8 30 2.</_></rects>
      <tilted>0</tilted></_>
    <_>
      <rects>
        <_>
          3 3 12 2 -1.</_>
        <_>
          3 3 6 1 2.</_>
        <_>
          9 4 6 1 2.</_></rects>
      <tilted>0</tilted></_>
    <_>
      <rects>
        <_>
          3 4 6 8 -1.</_>
        <_>
          3 4 3 4 2.</_>
        <_>
          6 8 3 4 2.</_></rects>
      <tilted>0</tilted></_>
    <_>
      <rects>
        <_>
          3 6 6 2 -1.</_>
        <_>
          3 6 3 1 2.</_>
        <_>
          6 7 3 1 2.</_></rects>
      <tilted>0</tilted></_>
    <_>
      <rects>
        <_>
          3 6 8 16 -1.</_>
        <_>
          3 6 4 8 2.</_>
        <_>
          7 14 4 8 2.</_></rects>
      <tilted>0</tilted></_>
    <_>
      <rects>
        <_>
          3 6 13 12 -1.</_>
        <_>
          3 10 13 4 2.</_></rects>
      <tilted>0</tilted></_>
    <_>
      <rects>
        <_>
          3 8 4 2 -1.</_>
        <_>
          3 8 2 1 2.</_>
        <_>
          5 9 2 1 2.</_></rects>
      <tilted>0</tilted></_>
    <_>
      <rects>
        <_>
          3 8 26 15 -1.</_>
        <_>
          16 8 13 15 2.</_></rects>
      <tilted>0</tilted></_>
    <_>
      <rects>
        <_>
          3 9 4 2 -1.</_>
        <_>
          3 9 2 1 2.</_>
        <_>
          5 10 2 1 2.</_></rects>
      <tilted>0</tilted></_>
    <_>
      <rects>
        <_>
          3 11 10 6 -1.</_>
        <_>
          8 11 5 6 2.</_></rects>
      <tilted>0</tilted></_>
    <_>
      <rects>
        <_>
          3 11 24 4 -1.</_>
        <_>
          3 11 12 2 2.</_>
        <_>
          15 13 12 2 2.</_></rects>
      <tilted>0</tilted></_>
    <_>
      <rects>
        <_>
          3 12 26 4 -1.</_>
        <_>
          3 12 13 2 2.</_>
        <_>
          16 14 13 2 2.</_></rects>
      <tilted>0</tilted></_>
    <_>
      <rects>
        <_>
          3 12 24 2 -1.</_>
        <_>
          3 13 24 1 2.</_></rects>
      <tilted>0</tilted></_>
    <_>
      <rects>
        <_>
          3 14 2 14 -1.</_>
        <_>
          3 14 1 7 2.</_>
        <_>
          4 21 1 7 2.</_></rects>
      <tilted>0</tilted></_>
    <_>
      <rects>
        <_>
          3 14 16 17 -1.</_>
        <_>
          11 14 8 17 2.</_></rects>
      <tilted>0</tilted></_>
    <_>
      <rects>
        <_>
          3 15 27 7 -1.</_>
        <_>
          12 15 9 7 2.</_></rects>
      <tilted>0</tilted></_>
    <_>
      <rects>
        <_>
          3 16 2 10 -1.</_>
        <_>
          3 16 1 5 2.</_>
        <_>
          4 21 1 5 2.</_></rects>
      <tilted>0</tilted></_>
    <_>
      <rects>
        <_>
          3 16 2 14 -1.</_>
        <_>
          3 16 1 7 2.</_>
        <_>
          4 23 1 7 2.</_></rects>
      <tilted>0</tilted></_>
    <_>
      <rects>
        <_>
          3 18 2 4 -1.</_>
        <_>
          3 20 2 2 2.</_></rects>
      <tilted>0</tilted></_>
    <_>
      <rects>
        <_>
          3 18 8 12 -1.</_>
        <_>
          3 18 4 6 2.</_>
        <_>
          7 24 4 6 2.</_></rects>
      <tilted>0</tilted></_>
    <_>
      <rects>
        <_>
          3 29 4 2 -1.</_>
        <_>
          3 29 2 1 2.</_>
        <_>
          5 30 2 1 2.</_></rects>
      <tilted>0</tilted></_>
    <_>
      <rects>
        <_>
          4 2 12 2 -1.</_>
        <_>
          4 2 6 1 2.</_>
        <_>
          10 3 6 1 2.</_></rects>
      <tilted>0</tilted></_>
    <_>
      <rects>
        <_>
          4 3 24 2 -1.</_>
        <_>
          16 3 12 2 2.</_></rects>
      <tilted>0</tilted></_>
    <_>
      <rects>
        <_>
          4 5 6 2 -1.</_>
        <_>
          4 5 3 1 2.</_>
        <_>
          7 6 3 1 2.</_></rects>
      <tilted>0</tilted></_>
    <_>
      <rects>
        <_>
          4 6 22 6 -1.</_>
        <_>
          4 6 11 3 2.</_>
        <_>
          15 9 11 3 2.</_></rects>
      <tilted>0</tilted></_>
    <_>
      <rects>
        <_>
          4 7 20 2 -1.</_>
        <_>
          4 7 10 1 2.</_>
        <_>
          14 8 10 1 2.</_></rects>
      <tilted>0</tilted></_>
    <_>
      <rects>
        <_>
          4 8 24 4 -1.</_>
        <_>
          4 8 12 2 2.</_>
        <_>
          16 10 12 2 2.</_></rects>
      <tilted>0</tilted></_>
    <_>
      <rects>
        <_>
          4 10 22 4 -1.</_>
        <_>
          4 10 11 2 2.</_>
        <_>
          15 12 11 2 2.</_></rects>
      <tilted>0</tilted></_>
    <_>
      <rects>
        <_>
          4 10 23 2 -1.</_>
        <_>
          4 11 23 1 2.</_></rects>
      <tilted>0</tilted></_>
    <_>
      <rects>
        <_>
          4 10 28 4 -1.</_>
        <_>
          4 12 28 2 2.</_></rects>
      <tilted>0</tilted></_>
    <_>
      <rects>
        <_>
          4 11 22 2 -1.</_>
        <_>
          4 12 22 1 2.</_></rects>
      <tilted>0</tilted></_>
    <_>
      <rects>
        <_>
          4 14 24 2 -1.</_>
        <_>
          4 14 12 1 2.</_>
        <_>
          16 15 12 1 2.</_></rects>
      <tilted>0</tilted></_>
    <_>
      <rects>
        <_>
          4 15 27 4 -1.</_>
        <_>
          13 15 9 4 2.</_></rects>
      <tilted>0</tilted></_>
    <_>
      <rects>
        <_>
          4 16 13 2 -1.</_>
        <_>
          4 17 13 1 2.</_></rects>
      <tilted>0</tilted></_>
    <_>
      <rects>
        <_>
          4 19 9 4 -1.</_>
        <_>
          4 21 9 2 2.</_></rects>
      <tilted>0</tilted></_>
    <_>
      <rects>
        <_>
          4 21 8 2 -1.</_>
        <_>
          8 21 4 2 2.</_></rects>
      <tilted>0</tilted></_>
    <_>
      <rects>
        <_>
          4 21 24 2 -1.</_>
        <_>
          16 21 12 2 2.</_></rects>
      <tilted>0</tilted></_>
    <_>
      <rects>
        <_>
          4 23 4 4 -1.</_>
        <_>
          4 23 2 2 2.</_>
        <_>
          6 25 2 2 2.</_></rects>
      <tilted>0</tilted></_>
    <_>
      <rects>
        <_>
          4 24 21 6 -1.</_>
        <_>
          4 27 21 3 2.</_></rects>
      <tilted>0</tilted></_>
    <_>
      <rects>
        <_>
          4 28 18 4 -1.</_>
        <_>
          4 30 18 2 2.</_></rects>
      <tilted>0</tilted></_>
    <_>
      <rects>
        <_>
          4 30 2 2 -1.</_>
        <_>
          4 31 2 1 2.</_></rects>
      <tilted>0</tilted></_>
    <_>
      <rects>
        <_>
          5 3 4 2 -1.</_>
        <_>
          5 3 2 1 2.</_>
        <_>
          7 4 2 1 2.</_></rects>
      <tilted>0</tilted></_>
    <_>
      <rects>
        <_>
          5 6 4 2 -1.</_>
        <_>
          5 6 2 1 2.</_>
        <_>
          7 7 2 1 2.</_></rects>
      <tilted>0</tilted></_>
    <_>
      <rects>
        <_>
          5 6 10 10 -1.</_>
        <_>
          5 6 5 5 2.</_>
        <_>
          10 11 5 5 2.</_></rects>
      <tilted>0</tilted></_>
    <_>
      <rects>
        <_>
          5 8 23 4 -1.</_>
        <_>
          5 10 23 2 2.</_></rects>
      <tilted>0</tilted></_>
    <_>
      <rects>
        <_>
          5 8 24 2 -1.</_>
        <_>
          5 9 24 1 2.</_></rects>
      <tilted>0</tilted></_>
    <_>
      <rects>
        <_>
          5 9 24 4 -1.</_>
        <_>
          5 9 12 2 2.</_>
        <_>
          17 11 12 2 2.</_></rects>
      <tilted>0</tilted></_>
    <_>
      <rects>
        <_>
          5 9 22 4 -1.</_>
        <_>
          5 11 22 2 2.</_></rects>
      <tilted>0</tilted></_>
    <_>
      <rects>
        <_>
          5 10 22 4 -1.</_>
        <_>
          5 12 22 2 2.</_></rects>
      <tilted>0</tilted></_>
    <_>
      <rects>
        <_>
          5 12 9 6 -1.</_>
        <_>
          5 14 9 2 2.</_></rects>
      <tilted>0</tilted></_>
    <_>
      <rects>
        <_>
          5 12 22 4 -1.</_>
        <_>
          5 12 11 2 2.</_>
        <_>
          16 14 11 2 2.</_></rects>
      <tilted>0</tilted></_>
    <_>
      <rects>
        <_>
          5 13 24 2 -1.</_>
        <_>
          5 14 24 1 2.</_></rects>
      <tilted>0</tilted></_>
    <_>
      <rects>
        <_>
          5 15 21 2 -1.</_>
        <_>
          5 16 21 1 2.</_></rects>
      <tilted>0</tilted></_>
    <_>
      <rects>
        <_>
          5 18 12 12 -1.</_>
        <_>
          5 22 12 4 2.</_></rects>
      <tilted>0</tilted></_>
    <_>
      <rects>
        <_>
          5 20 26 4 -1.</_>
        <_>
          5 20 13 2 2.</_>
        <_>
          18 22 13 2 2.</_></rects>
      <tilted>0</tilted></_>
    <_>
      <rects>
        <_>
          5 21 6 2 -1.</_>
        <_>
          5 22 6 1 2.</_></rects>
      <tilted>0</tilted></_>
    <_>
      <rects>
        <_>
          5 28 20 2 -1.</_>
        <_>
          5 28 10 1 2.</_>
        <_>
          15 29 10 1 2.</_></rects>
      <tilted>0</tilted></_>
    <_>
      <rects>
        <_>
          5 31 18 1 -1.</_>
        <_>
          14 31 9 1 2.</_></rects>
      <tilted>0</tilted></_>
    <_>
      <rects>
        <_>
          6 0 24 26 -1.</_>
        <_>
          14 0 8 26 2.</_></rects>
      <tilted>0</tilted></_>
    <_>
      <rects>
        <_>
          6 2 2 2 -1.</_>
        <_>
          6 3 2 1 2.</_></rects>
      <tilted>0</tilted></_>
    <_>
      <rects>
        <_>
          6 4 6 2 -1.</_>
        <_>
          8 4 2 2 2.</_></rects>
      <tilted>0</tilted></_>
    <_>
      <rects>
        <_>
          6 6 16 16 -1.</_>
        <_>
          14 6 8 16 2.</_></rects>
      <tilted>0</tilted></_>
    <_>
      <rects>
        <_>
          6 7 10 16 -1.</_>
        <_>
          6 7 5 8 2.</_>
        <_>
          11 15 5 8 2.</_></rects>
      <tilted>0</tilted></_>
    <_>
      <rects>
        <_>
          6 7 16 2 -1.</_>
        <_>
          6 7 8 1 2.</_>
        <_>
          14 8 8 1 2.</_></rects>
      <tilted>0</tilted></_>
    <_>
      <rects>
        <_>
          6 8 10 16 -1.</_>
        <_>
          6 8 5 8 2.</_>
        <_>
          11 16 5 8 2.</_></rects>
      <tilted>0</tilted></_>
    <_>
      <rects>
        <_>
          6 8 22 6 -1.</_>
        <_>
          6 8 11 3 2.</_>
        <_>
          17 11 11 3 2.</_></rects>
      <tilted>0</tilted></_>
    <_>
      <rects>
        <_>
          6 9 6 8 -1.</_>
        <_>
          6 9 3 4 2.</_>
        <_>
          9 13 3 4 2.</_></rects>
      <tilted>0</tilted></_>
    <_>
      <rects>
        <_>
          6 11 18 4 -1.</_>
        <_>
          6 11 9 2 2.</_>
        <_>
          15 13 9 2 2.</_></rects>
      <tilted>0</tilted></_>
    <_>
      <rects>
        <_>
          6 12 20 4 -1.</_>
        <_>
          6 12 10 2 2.</_>
        <_>
          16 14 10 2 2.</_></rects>
      <tilted>0</tilted></_>
    <_>
      <rects>
        <_>
          6 12 15 2 -1.</_>
        <_>
          6 13 15 1 2.</_></rects>
      <tilted>0</tilted></_>
    <_>
      <rects>
        <_>
          6 12 19 2 -1.</_>
        <_>
          6 13 19 1 2.</_></rects>
      <tilted>0</tilted></_>
    <_>
      <rects>
        <_>
          6 13 19 2 -1.</_>
        <_>
          6 14 19 1 2.</_></rects>
      <tilted>0</tilted></_>
    <_>
      <rects>
        <_>
          6 14 20 2 -1.</_>
        <_>
          6 15 20 1 2.</_></rects>
      <tilted>0</tilted></_>
    <_>
      <rects>
        <_>
          6 21 23 6 -1.</_>
        <_>
          6 23 23 2 2.</_></rects>
      <tilted>0</tilted></_>
    <_>
      <rects>
        <_>
          6 23 13 4 -1.</_>
        <_>
          6 25 13 2 2.</_></rects>
      <tilted>0</tilted></_>
    <_>
      <rects>
        <_>
          6 28 6 2 -1.</_>
        <_>
          6 28 3 1 2.</_>
        <_>
          9 29 3 1 2.</_></rects>
      <tilted>0</tilted></_>
    <_>
      <rects>
        <_>
          6 29 4 3 -1.</_>
        <_>
          8 29 2 3 2.</_></rects>
      <tilted>0</tilted></_>
    <_>
      <rects>
        <_>
          7 2 3 2 -1.</_>
        <_>
          8 2 1 2 2.</_></rects>
      <tilted>0</tilted></_>
    <_>
      <rects>
        <_>
          7 3 2 2 -1.</_>
        <_>
          7 3 1 1 2.</_>
        <_>
