<?xml version="1.0"?>
<opencv_storage>
<cascade>
  <stageType>BOOST</stageType>
  <featureType>HAAR</featureType>
  <height>32</height>
  <width>32</width>
  <stageParams>
    <boostType>GAB</boostType>
    <minHitRate>9.9900001287460327e-01</minHitRate>
    <maxFalseAlarm>4.0000000596046448e-01</maxFalseAlarm>
    <weightTrimRate>9.4999999999999996e-01</weightTrimRate>
    <maxDepth>1</maxDepth>
    <maxWeakCount>100</maxWeakCount></stageParams>
  <featureParams>
    <maxCatCount>0</maxCatCount>
    <featSize>1</featSize>
    <mode>BASIC</mode></featureParams>
  <stageNum>12</stageNum>
  <stages>
    <!-- stage 0 -->
    <_>
      <maxWeakCount>7</maxWeakCount>
      <stageThreshold>-1.6408770084381104e+00</stageThreshold>
      <weakClassifiers>
        <_>
          <internalNodes>
            0 -1 25 -9.4402804970741272e-02</internalNodes>
          <leafValues>
            -7.9521274566650391e-01 4.4196429848670959e-01</leafValues></_>
        <_>
          <internalNodes>
            0 -1 128 -1.3007440138608217e-03</internalNodes>
          <leafValues>
            5.5046808719635010e-01 -6.6101729869842529e-01</leafValues></_>
        <_>
          <internalNodes>
            0 -1 3 -5.2954684942960739e-03</internalNodes>
          <leafValues>
            5.7844859361648560e-01 -4.7286245226860046e-01</leafValues></_>
        <_>
          <internalNodes>
            0 -1 181 1.5143874043133110e-04</internalNodes>
          <leafValues>
            -5.5121254920959473e-01 4.6741291880607605e-01</leafValues></_>
        <_>
          <internalNodes>
            0 -1 113 4.8999376595020294e-03</internalNodes>
          <leafValues>
            -4.4301199913024902e-01 5.5999362468719482e-01</leafValues></_>
        <_>
          <internalNodes>
            0 -1 48 -2.5093424483202398e-04</internalNodes>
          <leafValues>
            6.4482909440994263e-01 -3.5850551724433899e-01</leafValues></_>
        <_>
          <internalNodes>
            0 -1 150 3.8568628951907158e-04</internalNodes>
          <leafValues>
            -3.8101452589035034e-01 5.7717812061309814e-01</leafValues></_></weakClassifiers></_>
    <!-- stage 1 -->
    <_>
      <maxWeakCount>10</maxWeakCount>
      <stageThreshold>-1.5600006580352783e+00</stageThreshold>
      <weakClassifiers>
        <_>
          <internalNodes>
            0 -1 17 -1.4016878604888916e-01</internalNodes>
          <leafValues>
            -7.3890340328216553e-01 3.8248848915100098e-01</leafValues></_>
        <_>
          <internalNodes>
            0 -1 13 -3.9866915903985500e-04</internalNodes>
          <leafValues>
            3.5623177886009216e-01 -6.4463818073272705e-01</leafValues></_>
        <_>
          <internalNodes>
            0 -1 79 -1.0837767273187637e-02</internalNodes>
          <leafValues>
            5.8845561742782593e-01 -4.1137844324111938e-01</leafValues></_>
        <_>
          <internalNodes>
            0 -1 77 7.1935392916202545e-03</internalNodes>
          <leafValues>
            -4.4119167327880859e-01 4.6795836091041565e-01</leafValues></_>
        <_>
          <internalNodes>
            0 -1 193 6.9769909605383873e-03</internalNodes>
          <leafValues>
            -3.3560776710510254e-01 5.6928783655166626e-01</leafValues></_>
        <_>
          <internalNodes>
            0 -1 102 -9.4960338901728392e-04</internalNodes>
          <leafValues>
            5.1082837581634521e-01 -4.0076372027397156e-01</leafValues></_>
        <_>
          <internalNodes>
            0 -1 175 2.0936701912432909e-04</internalNodes>
          <leafValues>
            -4.8199138045310974e-01 4.0018597245216370e-01</leafValues></_>
        <_>
          <internalNodes>
            0 -1 10 -1.8860587850213051e-02</internalNodes>
          <leafValues>
            7.6699370145797729e-01 -2.4570684134960175e-01</leafValues></_>
        <_>
          <internalNodes>
            0 -1 93 -1.6297288239002228e-03</internalNodes>
          <leafValues>
            5.7592636346817017e-01 -3.0202972888946533e-01</leafValues></_>
        <_>
          <internalNodes>
            0 -1 75 2.1100882440805435e-02</internalNodes>
          <leafValues>
            -2.5648781657218933e-01 7.7184778451919556e-01</leafValues></_></weakClassifiers></_>
    <!-- stage 2 -->
    <_>
      <maxWeakCount>10</maxWeakCount>
      <stageThreshold>-1.3393367528915405e+00</stageThreshold>
      <weakClassifiers>
        <_>
          <internalNodes>
            0 -1 147 2.1379023790359497e-02</internalNodes>
          <leafValues>
            -6.2981367111206055e-01 2.7088606357574463e-01</leafValues></_>
        <_>
          <internalNodes>
            0 -1 143 -1.9191232323646545e-01</internalNodes>
          <leafValues>
            -7.3508894443511963e-01 2.3919546604156494e-01</leafValues></_>
        <_>
          <internalNodes>
            0 -1 82 -2.4122055619955063e-03</internalNodes>
          <leafValues>
            4.6012672781944275e-01 -4.1589999198913574e-01</leafValues></_>
        <_>
          <internalNodes>
            0 -1 53 6.0580540448427200e-03</internalNodes>
          <leafValues>
            -4.7910591959953308e-01 4.1893988847732544e-01</leafValues></_>
        <_>
          <internalNodes>
            0 -1 51 -2.9890006408095360e-03</internalNodes>
          <leafValues>
            5.1374447345733643e-01 -3.2624888420104980e-01</leafValues></_>
        <_>
          <internalNodes>
            0 -1 4 -1.2505393242463470e-03</internalNodes>
          <leafValues>
            4.0880492329597473e-01 -4.3768873810768127e-01</leafValues></_>
        <_>
          <internalNodes>
            0 -1 195 2.7991649694740772e-03</internalNodes>
          <leafValues>
            -2.9190000891685486e-01 5.7884079217910767e-01</leafValues></_>
        <_>
          <internalNodes>
            0 -1 47 -6.6485127899795771e-04</internalNodes>
          <leafValues>
            7.7264672517776489e-01 -2.0677691698074341e-01</leafValues></_>
        <_>
          <internalNodes>
            0 -1 88 -1.7462002579122782e-03</internalNodes>
          <leafValues>
            6.9099187850952148e-01 -2.1857152879238129e-01</leafValues></_>
        <_>
          <internalNodes>
            0 -1 198 -2.4301870726048946e-03</internalNodes>
          <leafValues>
            6.7923742532730103e-01 -2.0220696926116943e-01</leafValues></_></weakClassifiers></_>
    <!-- stage 3 -->
    <_>
      <maxWeakCount>11</maxWeakCount>
      <stageThreshold>-1.6823170185089111e+00</stageThreshold>
      <weakClassifiers>
        <_>
          <internalNodes>
            0 -1 132 -3.1698774546384811e-03</internalNodes>
          <leafValues>
            1.1890838295221329e-01 -6.7103350162506104e-01</leafValues></_>
        <_>
          <internalNodes>
            0 -1 137 -6.6114990040659904e-03</internalNodes>
          <leafValues>
            2.9083231091499329e-01 -4.8624908924102783e-01</leafValues></_>
        <_>
          <internalNodes>
            0 -1 52 -3.6723739467561245e-03</internalNodes>
          <leafValues>
            4.7019127011299133e-01 -3.3884778618812561e-01</leafValues></_>
        <_>
          <internalNodes>
            0 -1 57 3.2370795961469412e-03</internalNodes>
          <leafValues>
            -2.8093406558036804e-01 5.5627524852752686e-01</leafValues></_>
        <_>
          <internalNodes>
            0 -1 7 -1.9648727029561996e-02</internalNodes>
          <leafValues>
            6.7918622493743896e-01 -1.9753161072731018e-01</leafValues></_>
        <_>
          <internalNodes>
            0 -1 162 2.3802851792424917e-03</internalNodes>
          <leafValues>
            -4.1145572066307068e-01 3.5341691970825195e-01</leafValues></_>
        <_>
          <internalNodes>
            0 -1 32 -8.1269012298434973e-05</internalNodes>
          <leafValues>
            3.3483296632766724e-01 -4.2974498867988586e-01</leafValues></_>
        <_>
          <internalNodes>
            0 -1 94 3.8013625890016556e-03</internalNodes>
          <leafValues>
            -3.9915591478347778e-01 3.7330716848373413e-01</leafValues></_>
        <_>
          <internalNodes>
            0 -1 124 -1.3230455806478858e-04</internalNodes>
          <leafValues>
            4.6174588799476624e-01 -3.3440178632736206e-01</leafValues></_>
        <_>
          <internalNodes>
            0 -1 92 -1.3925138860940933e-02</internalNodes>
          <leafValues>
            6.4807581901550293e-01 -2.2295531630516052e-01</leafValues></_>
        <_>
          <internalNodes>
            0 -1 185 3.7368079647421837e-03</internalNodes>
          <leafValues>
            -3.4806159138679504e-01 3.7886530160903931e-01</leafValues></_></weakClassifiers></_>
    <!-- stage 4 -->
    <_>
      <maxWeakCount>14</maxWeakCount>
      <stageThreshold>-1.6787652969360352e+00</stageThreshold>
      <weakClassifiers>
        <_>
          <internalNodes>
            0 -1 6 1.3046339154243469e-02</internalNodes>
          <leafValues>
            -5.7669442892074585e-01 2.3676879703998566e-01</leafValues></_>
        <_>
          <internalNodes>
            0 -1 108 -1.9622537365648896e-04</internalNodes>
          <leafValues>
            3.8480398058891296e-01 -4.2730170488357544e-01</leafValues></_>
        <_>
          <internalNodes>
            0 -1 122 -1.2750822305679321e-01</internalNodes>
          <leafValues>
            -6.5533834695816040e-01 2.3230528831481934e-01</leafValues></_>
        <_>
          <internalNodes>
            0 -1 133 -2.3211231455206871e-03</internalNodes>
          <leafValues>
            4.6612095832824707e-01 -3.9294701814651489e-01</leafValues></_>
        <_>
          <internalNodes>
            0 -1 169 -2.4979450972750783e-04</internalNodes>
          <leafValues>
            6.8555247783660889e-01 -2.1013726294040680e-01</leafValues></_>
        <_>
          <internalNodes>
            0 -1 158 3.3393112244084477e-04</internalNodes>
          <leafValues>
            -2.4414330720901489e-01 4.9381306767463684e-01</leafValues></_>
        <_>
          <internalNodes>
            0 -1 130 -3.0334975570440292e-02</internalNodes>
          <leafValues>
            4.1135767102241516e-01 -3.3017563819885254e-01</leafValues></_>
        <_>
          <internalNodes>
            0 -1 20 -2.6009156135842204e-04</internalNodes>
          <leafValues>
            3.4087145328521729e-01 -3.7529930472373962e-01</leafValues></_>
        <_>
          <internalNodes>
            0 -1 33 -2.3623085580766201e-03</internalNodes>
          <leafValues>
            6.0862636566162109e-01 -2.0075659453868866e-01</leafValues></_>
        <_>
          <internalNodes>
            0 -1 160 -5.0055600702762604e-02</internalNodes>
          <leafValues>
            -3.2754969596862793e-01 3.9909297227859497e-01</leafValues></_>
        <_>
          <internalNodes>
            0 -1 199 2.2887857630848885e-03</internalNodes>
          <leafValues>
            -3.0515223741531372e-01 4.2568099498748779e-01</leafValues></_>
        <_>
          <internalNodes>
            0 -1 129 -5.9307523770257831e-04</internalNodes>
          <leafValues>
            3.2465404272079468e-01 -4.1200253367424011e-01</leafValues></_>
        <_>
          <internalNodes>
            0 -1 37 6.6804820671677589e-03</internalNodes>
          <leafValues>
            -1.5538834035396576e-01 8.5741150379180908e-01</leafValues></_>
        <_>
          <internalNodes>
            0 -1 46 -2.8497148305177689e-03</internalNodes>
          <leafValues>
            5.6458264589309692e-01 -2.1703264117240906e-01</leafValues></_></weakClassifiers></_>
    <!-- stage 5 -->
    <_>
      <maxWeakCount>18</maxWeakCount>
      <stageThreshold>-1.6552917957305908e+00</stageThreshold>
      <weakClassifiers>
        <_>
          <internalNodes>
            0 -1 80 -2.2228047251701355e-02</internalNodes>
          <leafValues>
            7.2519081830978394e-01 -4.6304959058761597e-01</leafValues></_>
        <_>
          <internalNodes>
            0 -1 66 1.9145186990499496e-02</internalNodes>
          <leafValues>
            -2.4074684083461761e-01 7.0956259965896606e-01</leafValues></_>
        <_>
          <internalNodes>
            0 -1 54 -5.2888076752424240e-03</internalNodes>
          <leafValues>
            3.5864973068237305e-01 -3.3912953734397888e-01</leafValues></_>
        <_>
          <internalNodes>
            0 -1 171 3.4443438053131104e-03</internalNodes>
          <leafValues>
            -3.7273266911506653e-01 3.0562874674797058e-01</leafValues></_>
        <_>
          <internalNodes>
            0 -1 90 -3.6446098238229752e-04</internalNodes>
          <leafValues>
            5.1782959699630737e-01 -2.5023925304412842e-01</leafValues></_>
        <_>
          <internalNodes>
            0 -1 167 -4.1859060525894165e-02</internalNodes>
          <leafValues>
            -2.8783550858497620e-01 3.6541175842285156e-01</leafValues></_>
        <_>
          <internalNodes>
            0 -1 172 5.4409285075962543e-04</internalNodes>
          <leafValues>
            -1.6492992639541626e-01 5.9547805786132813e-01</leafValues></_>
        <_>
          <internalNodes>
            0 -1 81 -1.6605210839770734e-04</internalNodes>
          <leafValues>
            3.0660617351531982e-01 -3.9171209931373596e-01</leafValues></_>
        <_>
          <internalNodes>
            0 -1 161 -3.4925746731460094e-03</internalNodes>
          <leafValues>
            7.3353576660156250e-01 -1.5171061456203461e-01</leafValues></_>
        <_>
          <internalNodes>
            0 -1 29 -7.0270552532747388e-04</internalNodes>
          <leafValues>
            4.2059257626533508e-01 -2.4134273827075958e-01</leafValues></_>
        <_>
          <internalNodes>
            0 -1 44 -3.9568456122651696e-04</internalNodes>
          <leafValues>
            5.1529747247695923e-01 -1.8932838737964630e-01</leafValues></_>
        <_>
          <internalNodes>
            0 -1 73 1.9210446625947952e-02</internalNodes>
          <leafValues>
            -1.3260504603385925e-01 7.1192228794097900e-01</leafValues></_>
        <_>
          <internalNodes>
            0 -1 117 6.7279227077960968e-03</internalNodes>
          <leafValues>
            -2.7440637350082397e-01 3.7149310111999512e-01</leafValues></_>
        <_>
          <internalNodes>
            0 -1 86 -2.6943182572722435e-02</internalNodes>
          <leafValues>
            -8.8990336656570435e-01 1.0935196280479431e-01</leafValues></_>
        <_>
          <internalNodes>
            0 -1 201 9.5495878485962749e-04</internalNodes>
          <leafValues>
            -2.2663596272468567e-01 4.3976280093193054e-01</leafValues></_>
        <_>
          <internalNodes>
            0 -1 15 -1.7191283404827118e-03</internalNodes>
          <leafValues>
            2.9568117856979370e-01 -3.2061201333999634e-01</leafValues></_>
        <_>
          <internalNodes>
            0 -1 188 -2.0644045434892178e-03</internalNodes>
          <leafValues>
            5.2615445852279663e-01 -2.2558422386646271e-01</leafValues></_>
        <_>
          <internalNodes>
            0 -1 182 -2.1598607418127358e-04</internalNodes>
          <leafValues>
            4.0703779458999634e-01 -2.8686007857322693e-01</leafValues></_></weakClassifiers></_>
    <!-- stage 6 -->
    <_>
      <maxWeakCount>17</maxWeakCount>
      <stageThreshold>-1.3917825222015381e+00</stageThreshold>
      <weakClassifiers>
        <_>
          <internalNodes>
            0 -1 42 -7.5715616345405579e-02</internalNodes>
          <leafValues>
            -6.3869130611419678e-01 9.8591551184654236e-02</leafValues></_>
        <_>
          <internalNodes>
            0 -1 63 2.2937737405300140e-02</internalNodes>
          <leafValues>
            -2.1612839400768280e-01 6.9221621751785278e-01</leafValues></_>
        <_>
          <internalNodes>
            0 -1 50 -1.8672093749046326e-02</internalNodes>
          <leafValues>
            6.8970936536788940e-01 -1.7856340110301971e-01</leafValues></_>
        <_>
          <internalNodes>
            0 -1 89 -7.2490237653255463e-04</internalNodes>
          <leafValues>
            -1.3201600313186646e-01 7.3096412420272827e-01</leafValues></_>
        <_>
          <internalNodes>
            0 -1 190 3.8178436807356775e-04</internalNodes>
          <leafValues>
            -2.9189199209213257e-01 2.8737843036651611e-01</leafValues></_>
        <_>
          <internalNodes>
            0 -1 101 -7.9526123590767384e-04</internalNodes>
          <leafValues>
            2.8291720151901245e-01 -3.3184158802032471e-01</leafValues></_>
        <_>
          <internalNodes>
            0 -1 62 3.9929570630192757e-03</internalNodes>
          <leafValues>
            -1.4706937968730927e-01 5.3846096992492676e-01</leafValues></_>
        <_>
          <internalNodes>
            0 -1 84 -3.9394171908497810e-03</internalNodes>
          <leafValues>
            5.2687877416610718e-01 -1.7265112698078156e-01</leafValues></_>
        <_>
          <internalNodes>
            0 -1 125 -1.4173857867717743e-02</internalNodes>
          <leafValues>
            2.7700361609458923e-01 -3.3222517371177673e-01</leafValues></_>
        <_>
          <internalNodes>
            0 -1 1 -1.3888016343116760e-02</internalNodes>
          <leafValues>
            3.9426451921463013e-01 -2.8563746809959412e-01</leafValues></_>
        <_>
          <internalNodes>
            0 -1 22 1.0518141090869904e-02</internalNodes>
          <leafValues>
            -1.6971726715564728e-01 5.7679671049118042e-01</leafValues></_>
        <_>
          <internalNodes>
            0 -1 78 -1.6736401012167335e-03</internalNodes>
          <leafValues>
            3.1475543975830078e-01 -3.0657419562339783e-01</leafValues></_>
        <_>
          <internalNodes>
            0 -1 136 -2.3773241788148880e-02</internalNodes>
          <leafValues>
            -2.6033058762550354e-01 4.3385022878646851e-01</leafValues></_>
        <_>
          <internalNodes>
            0 -1 134 -3.2418876071460545e-04</internalNodes>
          <leafValues>
            5.2650260925292969e-01 -1.6593292355537415e-01</leafValues></_>
        <_>
          <internalNodes>
            0 -1 105 2.3506298661231995e-02</internalNodes>
          <leafValues>
            1.4145930111408234e-01 -6.4383196830749512e-01</leafValues></_>
        <_>
          <internalNodes>
            0 -1 168 3.5068276338279247e-03</internalNodes>
          <leafValues>
            -2.0149751007556915e-01 4.9648568034172058e-01</leafValues></_>
        <_>
          <internalNodes>
            0 -1 118 -2.8714032378047705e-03</internalNodes>
          <leafValues>
            3.4723404049873352e-01 -2.8001627326011658e-01</leafValues></_></weakClassifiers></_>
    <!-- stage 7 -->
    <_>
      <maxWeakCount>18</maxWeakCount>
      <stageThreshold>-1.2173119783401489e+00</stageThreshold>
      <weakClassifiers>
        <_>
          <internalNodes>
            0 -1 41 -1.9735008478164673e-02</internalNodes>
          <leafValues>
            2.4260355532169342e-01 -5.5916476249694824e-01</leafValues></_>
        <_>
          <internalNodes>
            0 -1 49 -1.3347201980650425e-02</internalNodes>
          <leafValues>
            3.6203563213348389e-01 -3.4564989805221558e-01</leafValues></_>
        <_>
          <internalNodes>
            0 -1 145 6.3871988095343113e-03</internalNodes>
          <leafValues>
            -2.8549855947494507e-01 4.0297579765319824e-01</leafValues></_>
        <_>
          <internalNodes>
            0 -1 67 1.2026160955429077e-02</internalNodes>
          <leafValues>
            -3.4774848818778992e-01 3.2204598188400269e-01</leafValues></_>
        <_>
          <internalNodes>
            0 -1 18 3.1722187995910645e-03</internalNodes>
          <leafValues>
            -1.8149323761463165e-01 5.6681096553802490e-01</leafValues></_>
        <_>
          <internalNodes>
            0 -1 157 -3.8797936867922544e-03</internalNodes>
          <leafValues>
            -1.6719533503055573e-01 5.1641410589218140e-01</leafValues></_>
        <_>
          <internalNodes>
            0 -1 58 -8.2144810585305095e-04</internalNodes>
          <leafValues>
            5.1877182722091675e-01 -1.8401549756526947e-01</leafValues></_>
        <_>
          <internalNodes>
            0 -1 96 -4.1866983519867063e-04</internalNodes>
          <leafValues>
            3.8690218329429626e-01 -2.6268175244331360e-01</leafValues></_>
        <_>
          <internalNodes>
            0 -1 12 -7.0025882450863719e-04</internalNodes>
          <leafValues>
            2.7123948931694031e-01 -3.7395617365837097e-01</leafValues></_>
        <_>
          <internalNodes>
            0 -1 135 2.8011165559291840e-03</internalNodes>
          <leafValues>
            -1.5124417841434479e-01 7.4852699041366577e-01</leafValues></_>
        <_>
          <internalNodes>
            0 -1 165 3.2232803641818464e-04</internalNodes>
          <leafValues>
            1.8881694972515106e-01 -5.5788320302963257e-01</leafValues></_>
        <_>
          <internalNodes>
            0 -1 138 -4.4896965846419334e-05</internalNodes>
          <leafValues>
            2.9813507199287415e-01 -3.0917170643806458e-01</leafValues></_>
        <_>
          <internalNodes>
            0 -1 97 5.2946209907531738e-03</internalNodes>
          <leafValues>
            -1.6634155809879303e-01 6.4786458015441895e-01</leafValues></_>
        <_>
          <internalNodes>
            0 -1 189 -4.6010134974494576e-04</internalNodes>
          <leafValues>
            4.4615349173545837e-01 -1.9324907660484314e-01</leafValues></_>
        <_>
          <internalNodes>
            0 -1 191 -4.3447231873869896e-03</internalNodes>
          <leafValues>
            5.6080704927444458e-01 -1.4100033044815063e-01</leafValues></_>
        <_>
          <internalNodes>
            0 -1 170 -4.6429306268692017e-02</internalNodes>
          <leafValues>
            -6.5013027191162109e-01 1.3253976404666901e-01</leafValues></_>
        <_>
          <internalNodes>
            0 -1 24 -7.6100574806332588e-03</internalNodes>
          <leafValues>
            6.5267688035964966e-01 -1.5443710982799530e-01</leafValues></_>
        <_>
          <internalNodes>
            0 -1 121 1.4572942163795233e-03</internalNodes>
          <leafValues>
            -2.0965580642223358e-01 3.9227393269538879e-01</leafValues></_></weakClassifiers></_>
    <!-- stage 8 -->
    <_>
      <maxWeakCount>24</maxWeakCount>
      <stageThreshold>-1.5458285808563232e+00</stageThreshold>
      <weakClassifiers>
        <_>
          <internalNodes>
            0 -1 65 2.2616324946284294e-02</internalNodes>
          <leafValues>
            -4.6351084113121033e-01 3.7634408473968506e-01</leafValues></_>
        <_>
          <internalNodes>
            0 -1 40 -2.0535990595817566e-02</internalNodes>
          <leafValues>
            6.4261496067047119e-01 -2.1852292120456696e-01</leafValues></_>
        <_>
          <internalNodes>
            0 -1 95 -1.2456021271646023e-02</internalNodes>
          <leafValues>
            3.6656677722930908e-01 -2.5751566886901855e-01</leafValues></_>
        <_>
          <internalNodes>
            0 -1 176 5.4472644114866853e-04</internalNodes>
          <leafValues>
            -4.2991894483566284e-01 2.7248027920722961e-01</leafValues></_>
        <_>
          <internalNodes>
            0 -1 61 -1.2746432796120644e-02</internalNodes>
          <leafValues>
            -2.5215131044387817e-01 3.7776830792427063e-01</leafValues></_>
        <_>
          <internalNodes>
            0 -1 151 2.3545179283246398e-04</internalNodes>
          <leafValues>
            -3.2382565736770630e-01 2.9232680797576904e-01</leafValues></_>
        <_>
          <internalNodes>
            0 -1 72 -5.8196820318698883e-02</internalNodes>
          <leafValues>
            4.1024079918861389e-01 -2.5321885943412781e-01</leafValues></_>
        <_>
          <internalNodes>
            0 -1 119 -2.0978273823857307e-02</internalNodes>
          <leafValues>
            -8.9865714311599731e-01 1.5651240944862366e-01</leafValues></_>
        <_>
          <internalNodes>
            0 -1 31 3.4829657524824142e-03</internalNodes>
          <leafValues>
            -2.5621324777603149e-01 3.0013719201087952e-01</leafValues></_>
        <_>
          <internalNodes>
            0 -1 45 -4.0019471198320389e-03</internalNodes>
          <leafValues>
            5.9613859653472900e-01 -1.5928944945335388e-01</leafValues></_>
        <_>
          <internalNodes>
            0 -1 177 6.9358584005385637e-04</internalNodes>
          <leafValues>
            -1.4067886769771576e-01 5.1932978630065918e-01</leafValues></_>
        <_>
          <internalNodes>
            0 -1 103 -3.2213784754276276e-02</internalNodes>
          <leafValues>
            3.9430919289588928e-01 -1.9441702961921692e-01</leafValues></_>
        <_>
          <internalNodes>
            0 -1 163 5.8575795264914632e-04</internalNodes>
          <leafValues>
            -2.3312276601791382e-01 3.9713329076766968e-01</leafValues></_>
        <_>
          <internalNodes>
            0 -1 23 1.1748846620321274e-01</internalNodes>
          <leafValues>
            1.0654959082603455e-01 -8.9108794927597046e-01</leafValues></_>
        <_>
          <internalNodes>
            0 -1 74 6.5718200057744980e-03</internalNodes>
          <leafValues>
            -3.8498157262802124e-01 2.2140906751155853e-01</leafValues></_>
        <_>
          <internalNodes>
            0 -1 2 -8.5779138316866010e-05</internalNodes>
          <leafValues>
            2.0855042338371277e-01 -3.4453696012496948e-01</leafValues></_>
        <_>
          <internalNodes>
            0 -1 127 -2.0661982707679272e-03</internalNodes>
          <leafValues>
            3.1186771392822266e-01 -2.6599824428558350e-01</leafValues></_>
        <_>
          <internalNodes>
            0 -1 43 -2.1840609610080719e-02</internalNodes>
          <leafValues>
            -1.5092346072196960e-01 4.9677711725234985e-01</leafValues></_>
        <_>
          <internalNodes>
            0 -1 99 1.4316547662019730e-02</internalNodes>
          <leafValues>
            -1.2529981136322021e-01 5.6041991710662842e-01</leafValues></_>
        <_>
          <internalNodes>
            0 -1 100 -6.7754136398434639e-03</internalNodes>
          <leafValues>
            6.7524284124374390e-01 -1.1730144917964935e-01</leafValues></_>
        <_>
          <internalNodes>
            0 -1 186 2.2272186470218003e-04</internalNodes>
          <leafValues>
            -1.2916362285614014e-01 5.2799987792968750e-01</leafValues></_>
        <_>
          <internalNodes>
            0 -1 154 1.0435195144964382e-04</internalNodes>
          <leafValues>
            1.3644266128540039e-01 -5.8953475952148438e-01</leafValues></_>
        <_>
          <internalNodes>
            0 -1 27 -2.0460183732211590e-03</internalNodes>
          <leafValues>
            2.5211924314498901e-01 -3.0574768781661987e-01</leafValues></_>
        <_>
          <internalNodes>
            0 -1 69 -6.8946683313697577e-04</internalNodes>
          <leafValues>
            5.6898552179336548e-01 -1.4189377427101135e-01</leafValues></_></weakClassifiers></_>
    <!-- stage 9 -->
    <_>
      <maxWeakCount>22</maxWeakCount>
      <stageThreshold>-1.3091582059860229e+00</stageThreshold>
      <weakClassifiers>
        <_>
          <internalNodes>
            0 -1 60 1.3778581283986568e-02</internalNodes>
          <leafValues>
            -4.3280816078186035e-01 5.5371898412704468e-01</leafValues></_>
        <_>
          <internalNodes>
            0 -1 83 -2.8532394208014011e-03</internalNodes>
          <leafValues>
            3.2847699522972107e-01 -3.3714410662651062e-01</leafValues></_>
        <_>
          <internalNodes>
            0 -1 115 -1.3071971945464611e-02</internalNodes>
          <leafValues>
            2.6456812024116516e-01 -3.3325272798538208e-01</leafValues></_>
        <_>
          <internalNodes>
            0 -1 8 -5.2955583669245243e-04</internalNodes>
          <leafValues>
            4.3983784317970276e-01 -1.8395052850246429e-01</leafValues></_>
        <_>
          <internalNodes>
            0 -1 0 2.3414321185555309e-04</internalNodes>
          <leafValues>
            1.9375500082969666e-01 -4.5386618375778198e-01</leafValues></_>
        <_>
          <internalNodes>
            0 -1 164 -1.2753964401781559e-03</internalNodes>
          <leafValues>
            2.4668544530868530e-01 -3.6679932475090027e-01</leafValues></_>
        <_>
          <internalNodes>
            0 -1 36 -5.3273129742592573e-04</internalNodes>
          <leafValues>
            3.8254189491271973e-01 -1.8744672834873199e-01</leafValues></_>
        <_>
          <internalNodes>
            0 -1 87 -2.9841635841876268e-03</internalNodes>
          <leafValues>
            -3.3597949147224426e-01 2.6423576474189758e-01</leafValues></_>
        <_>
          <internalNodes>
            0 -1 59 -3.1074162689037621e-04</internalNodes>
          <leafValues>
            2.7046084403991699e-01 -3.3998346328735352e-01</leafValues></_>
        <_>
          <internalNodes>
            0 -1 184 -8.5125246550887823e-04</internalNodes>
          <leafValues>
            4.4717749953269958e-01 -2.1146948635578156e-01</leafValues></_>
        <_>
          <internalNodes>
            0 -1 55 3.0929825734347105e-03</internalNodes>
          <leafValues>
            -1.8457181751728058e-01 4.5567414164543152e-01</leafValues></_>
        <_>
          <internalNodes>
            0 -1 155 3.0248291790485382e-02</internalNodes>
          <leafValues>
            1.1347034573554993e-01 -8.2396411895751953e-01</leafValues></_>
        <_>
          <internalNodes>
            0 -1 64 -1.1701839976012707e-02</internalNodes>
          <leafValues>
            3.7185305356979370e-01 -2.5599324703216553e-01</leafValues></_>
        <_>
          <internalNodes>
            0 -1 68 -1.9371693488210440e-03</internalNodes>
          <leafValues>
            1.0108099877834320e-01 -7.2980874776840210e-01</leafValues></_>
        <_>
          <internalNodes>
            0 -1 39 3.4057892858982086e-02</internalNodes>
          <leafValues>
            -1.4528144896030426e-01 5.7490712404251099e-01</leafValues></_>
        <_>
          <internalNodes>
            0 -1 14 4.1279019205830991e-04</internalNodes>
          <leafValues>
            -1.8259416520595551e-01 3.6436882615089417e-01</leafValues></_>
        <_>
          <internalNodes>
            0 -1 35 -7.7125877141952515e-02</internalNodes>
          <leafValues>
            -2.3229324817657471e-01 3.0147364735603333e-01</leafValues></_>
        <_>
          <internalNodes>
            0 -1 70 -3.5113008925691247e-04</internalNodes>
          <leafValues>
            2.9143294692039490e-01 -2.3065017163753510e-01</leafValues></_>
        <_>
          <internalNodes>
            0 -1 159 1.6896901652216911e-03</internalNodes>
          <leafValues>
            -1.3225087523460388e-01 5.0293958187103271e-01</leafValues></_>
        <_>
          <internalNodes>
            0 -1 194 -4.3046302744187415e-04</internalNodes>
          <leafValues>
            6.1222505569458008e-01 -1.2127225100994110e-01</leafValues></_>
        <_>
          <internalNodes>
            0 -1 180 4.2485734447836876e-03</internalNodes>
          <leafValues>
            -3.5529789328575134e-01 2.4735157191753387e-01</leafValues></_>
        <_>
          <internalNodes>
            0 -1 9 -2.5350607931613922e-02</internalNodes>
          <leafValues>
            1.0677885264158249e-01 -6.6212522983551025e-01</leafValues></_></weakClassifiers></_>
    <!-- stage 10 -->
    <_>
      <maxWeakCount>27</maxWeakCount>
      <stageThreshold>-1.3379988670349121e+00</stageThreshold>
      <weakClassifiers>
        <_>
          <internalNodes>
            0 -1 112 -2.0975401625037193e-02</internalNodes>
          <leafValues>
            3.0769231915473938e-01 -4.6774193644523621e-01</leafValues></_>
        <_>
          <internalNodes>
            0 -1 34 -2.9989480972290039e-03</internalNodes>
          <leafValues>
            3.5188108682632446e-01 -2.8614675998687744e-01</leafValues></_>
        <_>
          <internalNodes>
            0 -1 123 -3.8763634860515594e-02</internalNodes>
          <leafValues>
            3.1114605069160461e-01 -2.4052326381206512e-01</leafValues></_>
        <_>
          <internalNodes>
            0 -1 152 -3.9050029590725899e-03</internalNodes>
          <leafValues>
            -3.4170702099800110e-01 1.9552995264530182e-01</leafValues></_>
        <_>
          <internalNodes>
            0 -1 126 -3.0814314959570765e-04</internalNodes>
          <leafValues>
            -4.0554580092430115e-01 1.6777309775352478e-01</leafValues></_>
        <_>
          <internalNodes>
            0 -1 114 3.6603994667530060e-03</internalNodes>
          <leafValues>
            1.8484766781330109e-01 -4.7838369011878967e-01</leafValues></_>
        <_>
          <internalNodes>
            0 -1 153 -1.6827721992740408e-05</internalNodes>
          <leafValues>
            2.4386112391948700e-01 -3.1232163310050964e-01</leafValues></_>
        <_>
          <internalNodes>
            0 -1 202 9.3302136519923806e-05</internalNodes>
          <leafValues>
            -2.4246665835380554e-01 2.7647176384925842e-01</leafValues></_>
        <_>
          <internalNodes>
            0 -1 142 2.1429597400128841e-03</internalNodes>
          <leafValues>
            -1.0830754041671753e-01 6.8019539117813110e-01</leafValues></_>
        <_>
          <internalNodes>
            0 -1 144 9.4220007304102182e-04</internalNodes>
          <leafValues>
            -1.4954125881195068e-01 4.4508820772171021e-01</leafValues></_>
        <_>
          <internalNodes>
            0 -1 173 2.8689589817076921e-04</internalNodes>
          <leafValues>
            -1.6189652681350708e-01 3.7239366769790649e-01</leafValues></_>
        <_>
          <internalNodes>
            0 -1 5 -5.1429867744445801e-03</internalNodes>
          <leafValues>
            2.9491341114044189e-01 -2.3077867925167084e-01</leafValues></_>
        <_>
          <internalNodes>
            0 -1 16 -2.6430405676364899e-02</internalNodes>
          <leafValues>
            -7.3851555585861206e-01 9.7452528774738312e-02</leafValues></_>
        <_>
          <internalNodes>
            0 -1 91 -1.9906717352569103e-04</internalNodes>
          <leafValues>
            3.7856641411781311e-01 -1.9116686284542084e-01</leafValues></_>
        <_>
          <internalNodes>
            0 -1 196 -1.4419053681194782e-02</internalNodes>
          <leafValues>
            -8.2954406738281250e-01 6.6994599997997284e-02</leafValues></_>
        <_>
          <internalNodes>
            0 -1 109 -1.9939776393584907e-04</internalNodes>
          <leafValues>
            2.1903853118419647e-01 -2.9050245881080627e-01</leafValues></_>
        <_>
          <internalNodes>
            0 -1 107 -2.4384647607803345e-02</internalNodes>
          <leafValues>
            -1.2108302116394043e-01 5.6973421573638916e-01</leafValues></_>
        <_>
          <internalNodes>
            0 -1 110 -5.5795203661546111e-04</internalNodes>
          <leafValues>
            2.8027087450027466e-01 -2.3417785763740540e-01</leafValues></_>
        <_>
          <internalNodes>
            0 -1 179 -2.8440367896109819e-04</internalNodes>
          <leafValues>
            7.5200788676738739e-02 -9.5026117563247681e-01</leafValues></_>
        <_>
          <internalNodes>
            0 -1 183 -3.0517508275806904e-04</internalNodes>
          <leafValues>
            2.7108344435691833e-01 -2.3366068303585052e-01</leafValues></_>
        <_>
          <internalNodes>
            0 -1 197 -6.5481296041980386e-04</internalNodes>
          <leafValues>
            4.8312354087829590e-01 -1.5104280412197113e-01</leafValues></_>
        <_>
          <internalNodes>
            0 -1 131 -1.3435177970677614e-03</internalNodes>
          <leafValues>
            3.1717824935913086e-01 -1.7693878710269928e-01</leafValues></_>
        <_>
          <internalNodes>
            0 -1 139 -2.2538774646818638e-03</internalNodes>
          <leafValues>
            -7.3934823274612427e-01 7.2139054536819458e-02</leafValues></_>
        <_>
          <internalNodes>
            0 -1 98 -1.7943013459444046e-02</internalNodes>
          <leafValues>
            -1.4227807521820068e-01 4.3223094940185547e-01</leafValues></_>
        <_>
          <internalNodes>
            0 -1 21 -1.0809968225657940e-03</internalNodes>
          <leafValues>
            1.3327752053737640e-01 -5.0463563203811646e-01</leafValues></_>
        <_>
          <internalNodes>
            0 -1 11 1.0253095999360085e-02</internalNodes>
          <leafValues>
            -2.5906938314437866e-01 2.3472799360752106e-01</leafValues></_>
        <_>
          <internalNodes>
            0 -1 140 -1.4472285693045706e-04</internalNodes>
          <leafValues>
            -3.5945153236389160e-01 1.6903090476989746e-01</leafValues></_></weakClassifiers></_>
    <!-- stage 11 -->
    <_>
      <maxWeakCount>25</maxWeakCount>
      <stageThreshold>-1.1358573436737061e+00</stageThreshold>
      <weakClassifiers>
        <_>
          <internalNodes>
            0 -1 76 -1.5301159583032131e-02</internalNodes>
          <leafValues>
            6.1728395521640778e-02 -5.3459119796752930e-01</leafValues></_>
        <_>
          <internalNodes>
            0 -1 111 1.4117361977696419e-02</internalNodes>
          <leafValues>
            -2.8967291116714478e-01 2.9099690914154053e-01</leafValues></_>
        <_>
          <internalNodes>
            0 -1 120 -9.8184296803083271e-05</internalNodes>
          <leafValues>
            -5.7003360986709595e-01 1.3315925002098083e-01</leafValues></_>
        <_>
          <internalNodes>
            0 -1 192 1.4083392452448606e-03</internalNodes>
          <leafValues>
            -2.4452932178974152e-01 2.9730761051177979e-01</leafValues></_>
        <_>
          <internalNodes>
            0 -1 178 -4.4752233661711216e-03</internalNodes>
          <leafValues>
            -1.4870819449424744e-01 4.0368407964706421e-01</leafValues></_>
        <_>
          <internalNodes>
            0 -1 141 -2.3282774782273918e-04</internalNodes>
          <leafValues>
            1.8853771686553955e-01 -3.5468381643295288e-01</leafValues></_>
        <_>
          <internalNodes>
            0 -1 149 1.7982334829866886e-03</internalNodes>
          <leafValues>
            -2.6996272802352905e-01 2.1726275980472565e-01</leafValues></_>
        <_>
          <internalNodes>
            0 -1 146 -3.1189309433102608e-02</internalNodes>
          <leafValues>
            -7.2161912918090820e-01 9.8592542111873627e-02</leafValues></_>
        <_>
          <internalNodes>
            0 -1 106 -1.5784758329391479e-01</internalNodes>
          <leafValues>
            -1. 4.4319447129964828e-02</leafValues></_>
        <_>
          <internalNodes>
            0 -1 19 3.5487543791532516e-03</internalNodes>
          <leafValues>
            -1.8513628840446472e-01 3.4344744682312012e-01</leafValues></_>
        <_>
          <internalNodes>
            0 -1 156 -3.8306908681988716e-03</internalNodes>
          <leafValues>
            4.5756265521049500e-01 -1.3402199745178223e-01</leafValues></_>
        <_>
          <internalNodes>
            0 -1 174 -3.5785156069323421e-04</internalNodes>
          <leafValues>
            8.8918417692184448e-02 -8.7945240736007690e-01</leafValues></_>
        <_>
          <internalNodes>
            0 -1 116 3.1326417811214924e-03</internalNodes>
          <leafValues>
            -1.5242499113082886e-01 4.4954478740692139e-01</leafValues></_>
        <_>
          <internalNodes>
            0 -1 30 9.5284422059194185e-06</internalNodes>
          <leafValues>
            -7.8445993363857269e-02 7.1387904882431030e-01</leafValues></_>
        <_>
          <internalNodes>
            0 -1 166 -4.3771899072453380e-05</internalNodes>
          <leafValues>
            1.8703182041645050e-01 -4.0223357081413269e-01</leafValues></_>
        <_>
          <internalNodes>
            0 -1 85 2.4034162925090641e-04</internalNodes>
          <leafValues>
            -1.7142552137374878e-01 3.5209327936172485e-01</leafValues></_>
        <_>
          <internalNodes>
            0 -1 187 -5.8665691176429391e-04</internalNodes>
          <leafValues>
            3.8743802905082703e-01 -1.5842123329639435e-01</leafValues></_>
        <_>
          <internalNodes>
            0 -1 26 -2.5504004210233688e-02</internalNodes>
          <leafValues>
            4.9630808830261230e-01 -1.1703316122293472e-01</leafValues></_>
        <_>
          <internalNodes>
            0 -1 56 -5.6801491882652044e-04</internalNodes>
          <leafValues>
            2.4761800467967987e-01 -3.1932085752487183e-01</leafValues></_>
        <_>
          <internalNodes>
            0 -1 200 1.0477815521880984e-03</internalNodes>
          <leafValues>
            -2.4329507350921631e-01 2.4214300513267517e-01</leafValues></_>
        <_>
          <internalNodes>
            0 -1 148 -7.8063691034913063e-04</internalNodes>
          <leafValues>
            9.8064370453357697e-02 -6.6106349229812622e-01</leafValues></_>
        <_>
          <internalNodes>
            0 -1 104 -3.2825900707393885e-03</internalNodes>
          <leafValues>
            -2.6908534765243530e-01 2.0663611590862274e-01</leafValues></_>
        <_>
          <internalNodes>
            0 -1 71 2.0095926523208618e-01</internalNodes>
          <leafValues>
            6.2787897884845734e-02 -1.</leafValues></_>
        <_>
          <internalNodes>
            0 -1 28 -1.8511220812797546e-02</internalNodes>
          <leafValues>
            4.5859672129154205e-02 -8.6725437641143799e-01</leafValues></_>
        <_>
          <internalNodes>
            0 -1 38 -1.1100398842245340e-04</internalNodes>
          <leafValues>
            2.2398948669433594e-01 -2.6058927178382874e-01</leafValues></_></weakClassifiers></_></stages>
  <features>
    <_>
      <rects>
        <_>
          0 0 2 8 -1.</_>
        <_>
          1 0 1 8 2.</_></rects>
      <tilted>0</tilted></_>
    <_>
      <rects>
        <_>
          0 0 4 31 -1.</_>
        <_>
          2 0 2 31 2.</_></rects>
      <tilted>0</tilted></_>
    <_>
      <rects>
        <_>
          0 0 10 1 -1.</_>
        <_>
          5 0 5 1 2.</_></rects>
      <tilted>0</tilted></_>
    <_>
      <rects>
        <_>
          0 0 10 7 -1.</_>
        <_>
          5 0 5 7 2.</_></rects>
      <tilted>0</tilted></_>
    <_>
      <rects>
        <_>
          0 0 14 2 -1.</_>
        <_>
          7 0 7 2 2.</_></rects>
      <tilted>0</tilted></_>
    <_>
      <rects>
        <_>
          0 2 6 5 -1.</_>
        <_>
          3 2 3 5 2.</_></rects>
      <tilted>0</tilted></_>
    <_>
      <rects>
        <_>
          0 2 12 10 -1.</_>
        <_>
          0 2 6 5 2.</_>
        <_>
          6 7 6 5 2.</_></rects>
      <tilted>0</tilted></_>
    <_>
      <rects>
        <_>
          0 6 4 26 -1.</_>
        <_>
          2 6 2 26 2.</_></rects>
      <tilted>0</tilted></_>
    <_>
      <rects>
        <_>
          0 6 6 2 -1.</_>
        <_>
          0 6 3 1 2.</_>
        <_>
          3 7 3 1 2.</_></rects>
      <tilted>0</tilted></_>
    <_>
      <rects>
        <_>
          0 11 4 21 -1.</_>
        <_>
          0 18 4 7 2.</_></rects>
      <tilted>0</tilted></_>
    <_>
      <rects>
        <_>
          0 13 6 9 -1.</_>
        <_>
          3 13 3 9 2.</_></rects>
      <tilted>0</tilted></_>
    <_>
      <rects>
        <_>
          0 14 16 6 -1.</_>
        <_>
          8 14 8 6 2.</_></rects>
      <tilted>0</tilted></_>
    <_>
      <rects>
        <_>
          0 26 8 4 -1.</_>
        <_>
          4 26 4 4 2.</_></rects>
      <tilted>0</tilted></_>
    <_>
      <rects>
        <_>
          0 28 8 3 -1.</_>
        <_>
          4 28 4 3 2.</_></rects>
      <tilted>0</tilted></_>
    <_>
      <rects>
        <_>
          0 30 5 2 -1.</_>
        <_>
          0 31 5 1 2.</_></rects>
      <tilted>0</tilted></_>
    <_>
      <rects>
        <_>
          1 0 3 1 -1.</_>
        <_>
          2 0 1 1 2.</_></rects>
      <tilted>0</tilted></_>
    <_>
      <rects>
        <_>
          1 0 3 8 -1.</_>
        <_>
          2 0 1 8 2.</_></rects>
      <tilted>0</tilted></_>
    <_>
      <rects>
        <_>
          1 12 30 11 -1.</_>
        <_>
          11 12 10 11 2.</_></rects>
      <tilted>0</tilted></_>
    <_>
      <rects>
        <_>
          1 13 4 5 -1.</_>
        <_>
          3 13 2 5 2.</_></rects>
      <tilted>0</tilted></_>
    <_>
      <rects>
        <_>
          1 20 6 8 -1.</_>
        <_>
          1 20 3 4 2.</_>
        <_>
          4 24 3 4 2.</_></rects>
      <tilted>0</tilted></_>
    <_>
      <rects>
        <_>
          1 28 4 4 -1.</_>
        <_>
          3 28 2 4 2.</_></rects>
      <tilted>0</tilted></_>
    <_>
      <rects>
        <_>
          1 31 3 1 -1.</_>
        <_>
          2 31 1 1 2.</_></rects>
      <tilted>0</tilted></_>
    <_>
      <rects>
        <_>
          2 1 20 4 -1.</_>
        <_>
          2 1 10 2 2.</_>
        <_>
          12 3 10 2 2.</_></rects>
      <tilted>0</tilted></_>
    <_>
      <rects>
        <_>
          2 3 18 20 -1.</_>
        <_>
          2 3 9 10 2.</_>
        <_>
          11 13 9 10 2.</_></rects>
      <tilted>0</tilted></_>
    <_>
      <rects>
        <_>
          2 8 26 2 -1.</_>
        <_>
          2 8 13 1 2.</_>
        <_>
          15 9 13 1 2.</_></rects>
      <tilted>0</tilted></_>
    <_>
      <rects>
        <_>
          2 15 27 8 -1.</_>
        <_>
          11 15 9 8 2.</_></rects>
      <tilted>0</tilted></_>
    <_>
      <rects>
        <_>
          2 19 30 6 -1.</_>
        <_>
          2 19 15 3 2.</_>
        <_>
          17 22 15 3 2.</_></rects>
      <tilted>0</tilted></_>
    <_>
      <rects>
        <_>
          2 21 8 10 -1.</_>
        <_>
          2 21 4 5 2.</_>
        <_>
          6 26 4 5 2.</_></rects>
      <tilted>0</tilted></_>
    <_>
      <rects>
        <_>
          2 23 15 6 -1.</_>
        <_>
          2 25 15 2 2.</_></rects>
      <tilted>0</tilted></_>
    <_>
      <rects>
        <_>
          2 25 4 6 -1.</_>
        <_>
          2 25 2 3 2.</_>
        <_>
          4 28 2 3 2.</_></rects>
      <tilted>0</tilted></_>
    <_>
      <rects>
        <_>
          2 25 21 1 -1.</_>
        <_>
          9 25 7 1 2.</_></rects>
      <tilted>0</tilted></_>
    <_>
      <rects>
        <_>
          2 30 25 2 -1.</_>
        <_>
          2 31 25 1 2.</_></rects>
      <tilted>0</tilted></_>
    <_>
      <rects>
        <_>
          2 31 16 1 -1.</_>
        <_>
          10 31 8 1 2.</_></rects>
      <tilted>0</tilted></_>
    <_>
      <rects>
        <_>
          3 1 14 2 -1.</_>
        <_>
          3 2 14 1 2.</_></rects>
      <tilted>0</tilted></_>
    <_>
      <rects>
        <_>
          3 3 6 4 -1.</_>
        <_>
          6 3 3 4 2.</_></rects>
      <tilted>0</tilted></_>
    <_>
      <rects>
        <_>
          3 5 15 11 -1.</_>
        <_>
          8 5 5 11 2.</_></rects>
      <tilted>0</tilted></_>
    <_>
      <rects>
        <_>
          3 6 6 2 -1.</_>
        <_>
          3 6 3 1 2.</_>
        <_>
          6 7 3 1 2.</_></rects>
      <tilted>0</tilted></_>
    <_>
      <rects>
        <_>
          3 6 20 2 -1.</_>
        <_>
          3 6 10 1 2.</_>
        <_>
          13 7 10 1 2.</_></rects>
      <tilted>0</tilted></_>
    <_>
      <rects>
        <_>
          3 7 7 2 -1.</_>
        <_>
          3 8 7 1 2.</_></rects>
      <tilted>0</tilted></_>
    <_>
      <rects>
        <_>
          3 8 26 4 -1.</_>
        <_>
          3 10 26 2 2.</_></rects>
      <tilted>0</tilted></_>
    <_>
      <rects>
        <_>
          3 10 24 4 -1.</_>
        <_>
          3 10 12 2 2.</_>
        <_>
          15 12 12 2 2.</_></rects>
      <tilted>0</tilted></_>
    <_>
      <rects>
        <_>
          3 11 26 4 -1.</_>
        <_>
          3 13 26 2 2.</_></rects>
      <tilted>0</tilted></_>
    <_>
      <rects>
        <_>
          3 15 27 8 -1.</_>
        <_>
          12 15 9 8 2.</_></rects>
      <tilted>0</tilted></_>
    <_>
      <rects>
        <_>
          3 17 19 3 -1.</_>
        <_>
          3 18 19 1 2.</_></rects>
      <tilted>0</tilted></_>
    <_>
      <rects>
        <_>
          3 24 4 2 -1.</_>
        <_>
          3 24 2 1 2.</_>
        <_>
          5 25 2 1 2.</_></rects>
      <tilted>0</tilted></_>
    <_>
      <rects>
        <_>
          3 30 19 2 -1.</_>
        <_>
          3 31 19 1 2.</_></rects>
      <tilted>0</tilted></_>
    <_>
      <rects>
        <_>
          4 4 6 4 -1.</_>
        <_>
          4 4 3 2 2.</_>
        <_>
          7 6 3 2 2.</_></rects>
      <tilted>0</tilted></_>
    <_>
      <rects>
        <_>
          4 5 4 2 -1.</_>
        <_>
          4 5 2 1 2.</_>
        <_>
          6 6 2 1 2.</_></rects>
      <tilted>0</tilted></_>
    <_>
      <rects>
        <_>
          4 6 6 2 -1.</_>
        <_>
          4 6 3 1 2.</_>
        <_>
          7 7 3 1 2.</_></rects>
      <tilted>0</tilted></_>
    <_>
      <rects>
        <_>
          4 8 28 4 -1.</_>
        <_>
          4 10 28 2 2.</_></rects>
      <tilted>0</tilted></_>
    <_>
      <rects>
        <_>
          4 9 24 4 -1.</_>
        <_>
          4 9 12 2 2.</_>
        <_>
          16 11 12 2 2.</_></rects>
      <tilted>0</tilted></_>
    <_>
      <rects>
        <_>
          4 10 23 2 -1.</_>
        <_>
          4 11 23 1 2.</_></rects>
      <tilted>0</tilted></_>
    <_>
      <rects>
        <_>
          4 11 25 2 -1.</_>
        <_>
          4 12 25 1 2.</_></rects>
      <tilted>0</tilted></_>
    <_>
      <rects>
        <_>
          4 16 10 8 -1.</_>
        <_>
          9 16 5 8 2.</_></rects>
      <tilted>0</tilted></_>
    <_>
      <rects>
        <_>
          4 18 8 14 -1.</_>
        <_>
          4 18 4 7 2.</_>
        <_>
          8 25 4 7 2.</_></rects>
      <tilted>0</tilted></_>
    <_>
      <rects>
        <_>
          4 19 6 6 -1.</_>
        <_>
          4 19 3 3 2.</_>
        <_>
          7 22 3 3 2.</_></rects>
      <tilted>0</tilted></_>
    <_>
      <rects>
        <_>
          4 19 10 4 -1.</_>
        <_>
          4 21 10 2 2.</_></rects>
      <tilted>0</tilted></_>
    <_>
      <rects>
        <_>
          4 30 21 2 -1.</_>
        <_>
          4 31 21 1 2.</_></rects>
      <tilted>0</tilted></_>
    <_>
      <rects>
        <_>
          5 2 6 2 -1.</_>
        <_>
          5 2 3 1 2.</_>
        <_>
          8 3 3 1 2.</_></rects>
      <tilted>0</tilted></_>
    <_>
      <rects>
        <_>
          5 6 2 12 -1.</_>
        <_>
          5 12 2 6 2.</_></rects>
      <tilted>0</tilted></_>
    <_>
      <rects>
        <_>
          5 6 21 2 -1.</_>
        <_>
          5 7 21 1 2.</_></rects>
      <tilted>0</tilted></_>
    <_>
      <rects>
        <_>
          5 7 4 9 -1.</_>
        <_>
          5 10 4 3 2.</_></rects>
      <tilted>0</tilted></_>
    <_>
      <rects>
        <_>
          5 7 20 2 -1.</_>
        <_>
          5 7 10 1 2.</_>
        <_>
          15 8 10 1 2.</_></rects>
      <tilted>0</tilted></_>
    <_>
      <rects>
        <_>
          5 8 24 4 -1.</_>
        <_>
          5 8 12 2 2.</_>
        <_>
          17 10 12 2 2.</_></rects>
      <tilted>0</tilted></_>
    <_>
      <rects>
        <_>
          5 8 21 4 -1.</_>
        <_>
          5 10 21 2 2.</_></rects>
      <tilted>0</tilted></_>
    <_>
      <rects>
        <_>
          5 9 24 4 -1.</_>
        <_>
          5 9 12 2 2.</_>
        <_>
          17 11 12 2 2.</_></rects>
      <tilted>0</tilted></_>
    <_>
      <rects>
        <_>
          5 10 22 4 -1.</_>
        <_>
          5 10 11 2 2.</_>
        <_>
          16 12 11 2 2.</_></rects>
      <tilted>0</tilted></_>
    <_>
      <rects>
        <_>
          5 13 14 11 -1.</_>
        <_>
          12 13 7 11 2.</_></rects>
      <tilted>0</tilted></_>
    <_>
      <rects>
        <_>
          5 17 27 1 -1.</_>
        <_>
          14 17 9 1 2.</_></rects>
      <tilted>0</tilted></_>
    <_>
      <rects>
        <_>
          5 20 4 2 -1.</_>
        <_>
          5 20 2 1 2.</_>
        <_>
          7 21 2 1 2.</_></rects>
      <tilted>0</tilted></_>
    <_>
      <rects>
        <_>
          5 21 6 2 -1.</_>
        <_>
          5 22 6 1 2.</_></rects>
      <tilted>0</tilted></_>
    <_>
      <rects>
        <_>
          6 0 14 28 -1.</_>
        <_>
          6 14 14 14 2.</_></rects>
      <tilted>0</tilted></_>
    <_>
      <rects>
        <_>
          6 6 20 20 -1.</_>
        <_>
          16 6 10 20 2.</_></rects>
      <tilted>0</tilted></_>
    <_>
      <rects>
        <_>
          6 6 24 4 -1.</_>
        <_>
          6 6 12 2 2.</_>
        <_>
          18 8 12 2 2.</_></rects>
      <tilted>0</tilted></_>
    <_>
      <rects>
        <_>
          6 7 10 16 -1.</_>
        <_>
          6 7 5 8 2.</_>
        <_>
          11 15 5 8 2.</_></rects>
      <tilted>0</tilted></_>
    <_>
      <rects>
        <_>
          6 8 22 4 -1.</_>
        <_>
          6 10 22 2 2.</_></rects>
      <tilted>0</tilted></_>
    <_>
      <rects>
        <_>
          6 9 19 4 -1.</_>
        <_>
          6 11 19 2 2.</_></rects>
      <tilted>0</tilted></_>
    <_>
      <rects>
        <_>
          6 10 12 12 -1.</_>
        <_>
          6 10 6 6 2.</_>
        <_>
          12 16 6 6 2.</_></rects>
      <tilted>0</tilted></_>
    <_>
      <rects>
        <_>
          6 10 20 2 -1.</_>
        <_>
          6 11 20 1 2.</_></rects>
      <tilted>0</tilted></_>
    <_>
      <rects>
        <_>
          6 10 21 4 -1.</_>
        <_>
          6 12 21 2 2.</_></rects>
      <tilted>0</tilted></_>
    <_>
      <rects>
        <_>
          6 11 20 4 -1.</_>
        <_>
          6 11 10 2 2.</_>
        <_>
          16 13 10 2 2.</_></rects>
      <tilted>0</tilted></_>
    <_>
      <rects>
        <_>
          6 12 18 2 -1.</_>
        <_>
          6 13 18 1 2.</_></rects>
      <tilted>0</tilted></_>
    <_>
      <rects>
        <_>
          6 12 19 2 -1.</_>
        <_>
          6 13 19 1 2.</_></rects>
      <tilted>0</tilted></_>
    <_>
      <rects>
        <_>
          6 13 22 2 -1.</_>
        <_>
          6 14 22 1 2.</_></rects>
      <tilted>0</tilted></_>
    <_>
      <rects>
        <_>
          6 14 20 2 -1.</_>
        <_>
          6 15 20 1 2.</_></rects>
      <tilted>0</tilted></_>
    <_>
      <rects>
        <_>
          6 30 1 2 -1.</_>
        <_>
          6 31 1 1 2.</_></rects>
      <tilted>0</tilted></_>
    <_>
      <rects>
        <_>
          7 2 14 5 -1.</_>
        <_>
          14 2 7 5 2.</_></rects>
      <tilted>0</tilted></_>
    <_>
      <rects>
        <_>
          7 4 3 2 -1.</_>
        <_>
          8 4 1 2 2.</_></rects>
      <tilted>0</tilted></_>
    <_>
      <rects>
        <_>
          7 4 10 2 -1.</_>
        <_>
          7 4 5 1 2.</_>
        <_>
          12 5 5 1 2.</_></rects>
      <tilted>0</tilted></_>
    <_>
      <rects>
        <_>
          7 5 1 9 -1.</_>
        <_>
          7 8 1 3 2.</_></rects>
      <tilted>0</tilted></_>
    <_>
      <rects>
        <_>
          7 5 4 2 -1.</_>
        <_>
          7 5 2 1 2.</_>
        <_>
          9 6 2 1 2.</_></rects>
      <tilted>0</tilted></_>
    <_>
      <rects>
        <_>
          7 6 1 2 -1.</_>
        <_>
          7 7 1 1 2.</_></rects>
      <tilted>0</tilted></_>
    <_>
      <rects>
        <_>
          7 8 20 4 -1.</_>
        <_>
          7 8 10 2 2.</_>
        <_>
          17 10 10 2 2.</_></rects>
      <tilted>0</tilted></_>
    <_>
      <rects>
        <_>
          7 9 17 2 -1.</_>
        <_>
          7 10 17 1 2.</_></rects>
      <tilted>0</tilted></_>
    <_>
      <rects>
        <_>
          7 19 8 13 -1.</_>
        <_>
          11 19 4 13 2.</_></rects>
      <tilted>0</tilted></_>
    <_>
      <rects>
        <_>
          7 19 13 6 -1.</_>
        <_>
          7 22 13 3 2.</_></rects>
      <tilted>0</tilted></_>
    <_>
      <rects>
        <_>
          8 2 8 2 -1.</_>
        <_>
          8 2 4 1 2.</_>
        <_>
          12 3 4 1 2.</_></rects>
      <tilted>0</tilted></_>
    <_>
      <rects>
        <_>
          8 4 24 2 -1.</_>
        <_>
          8 4 12 1 2.</_>
        <_>
          20 5 12 1 2.</_></rects>
      <tilted>0</tilted></_>
    <_>
      <rects>
        <_>
          8 8 5 12 -1.</_>
        <_>
          8 12 5 4 2.</_></rects>
      <tilted>0</tilted></_>
    <_>
      <rects>
        <_>
          8 12 16 4 -1.</_>
        <_>
          8 12 8 2 2.</_>
        <_>
          16 14 8 2 2.</_></rects>
      <tilted>0</tilted></_>
    <_>
      <rects>
        <_>
          8 13 18 2 -1.</_>
        <_>
          8 13 9 1 2.</_>
        <_>
          17 14 9 1 2.</_></rects>
      <tilted>0</tilted></_>
    <_>
      <rects>
        <_>
          8 22 3 8 -1.</_>
        <_>
          8 26 3 4 2.</_></rects>
      <tilted>0</tilted></_>
    <_>
      <rects>
        <_>
          8 22 4 4 -1.</_>
        <_>
          8 24 4 2 2.</_></rects>
      <tilted>0</tilted></_>
    <_>
      <rects>
        <_>
          8 22 18 10 -1.</_>
        <_>
          8 27 18 5 2.</_></rects>
      <tilted>0</tilted></_>
    <_>
      <rects>
        <_>
          9 1 2 3 -1.</_>
        <_>
          9 2 2 1 2.</_></rects>
      <tilted>0</tilted></_>
    <_>
      <rects>
        <_>
          9 1 8 20 -1.</_>
        <_>
          9 1 4 10 2.</_>
        <_>
          13 11 4 10 2.</_></rects>
      <tilted>0</tilted></_>
    <_>
      <rects>
        <_>
          9 4 22 18 -1.</_>
        <_>
          9 4 11 9 2.</_>
        <_>
          20 13 11 9 2.</_></rects>
      <tilted>0</tilted></_>
    <_>
      <rects>
        <_>
          9 16 9 15 -1.</_>
        <_>
          9 21 9 5 2.</_></rects>
      <tilted>0</tilted></_>
    <_>
      <rects>
        <_>
          9 18 13 2 -1.</_>
        <_>
          9 19 13 1 2.</_></rects>
      <tilted>0</tilted></_>
    <_>
      <rects>
        <_>
          9 18 15 2 -1.</_>
        <_>
          9 19 15 1 2.</_></rects>
      <tilted>0</tilted></_>
    <_>
      <rects>
        <_>
          9 21 7 2 -1.</_>
        <_>
          9 22 7 1 2.</_></rects>
      <tilted>0</tilted></_>
    <_>
      <rects>
        <_>
          10 3 6 28 -1.</_>
        <_>
          10 3 3 14 2.</_>
        <_>
          13 17 3 14 2.</_></rects>
      <tilted>0</tilted></_>
    <_>
      <rects>
        <_>
          10 7 8 6 -1.</_>
        <_>
          14 7 4 6 2.</_></rects>
      <tilted>0</tilted></_>
    <_>
      <rects>
        <_>
          10 8 6 24 -1.</_>
        <_>
          10 8 3 12 2.</_>
        <_>
          13 20 3 12 2.</_></rects>
      <tilted>0</tilted></_>
    <_>
      <rects>
        <_>
          10 12 6 8 -1.</_>
        <_>
          13 12 3 8 2.</_></rects>
      <tilted>0</tilted></_>
    <_>
      <rects>
        <_>
          10 14 18 16 -1.</_>
        <_>
          19 14 9 16 2.</_></rects>
      <tilted>0</tilted></_>
    <_>
      <rects>
        <_>
          10 25 12 1 -1.</_>
        <_>
          16 25 6 1 2.</_></rects>
      <tilted>0</tilted></_>
    <_>
      <rects>
        <_>
          11 4 6 24 -1.</_>
        <_>
          11 4 3 12 2.</_>
        <_>
          14 16 3 12 2.</_></rects>
      <tilted>0</tilted></_>
    <_>
      <rects>
        <_>
          11 6 4 21 -1.</_>
        <_>
          13 6 2 21 2.</_></rects>
      <tilted>0</tilted></_>
    <_>
      <rects>
        <_>
          11 15 10 5 -1.</_>
        <_>
          16 15 5 5 2.</_></rects>
      <tilted>0</tilted></_>
    <_>
      <rects>
        <_>
          11 17 2 1 -1.</_>
        <_>
          12 17 1 1 2.</_></rects>
      <tilted>0</tilted></_>
    <_>
      <rects>
        <_>
          11 24 6 6 -1.</_>
        <_>
          11 24 3 3 2.</_>
        <_>
          14 27 3 3 2.</_></rects>
      <tilted>0</tilted></_>
    <_>
      <rects>
        <_>
          12 6 18 10 -1.</_>
        <_>
          18 6 6 10 2.</_></rects>
      <tilted>0</tilted></_>
    <_>
      <rects>
        <_>
          12 6 14 18 -1.</_>
        <_>
          12 6 7 9 2.</_>
        <_>
          19 15 7 9 2.</_></rects>
      <tilted>0</tilted></_>
    <_>
      <rects>
        <_>
          12 9 2 2 -1.</_>
        <_>
          12 10 2 1 2.</_></rects>
      <tilted>0</tilted></_>
    <_>
      <rects>
        <_>
          12 14 16 10 -1.</_>
        <_>
          20 14 8 10 2.</_></rects>
      <tilted>0</tilted></_>
    <_>
      <rects>
        <_>
          12 16 4 2 -1.</_>
        <_>
          14 16 2 2 2.</_></rects>
      <tilted>0</tilted></_>
    <_>
      <rects>
        <_>
          12 18 3 6 -1.</_>
        <_>
          12 21 3 3 2.</_></rects>
      <tilted>0</tilted></_>
    <_>
      <rects>
        <_>
          12 21 8 4 -1.</_>
        <_>
          12 23 8 2 2.</_></rects>
      <tilted>0</tilted></_>
    <_>
      <rects>
        <_>
          12 21 18 2 -1.</_>
        <_>
          12 22 18 1 2.</_></rects>
      <tilted>0</tilted></_>
    <_>
      <rects>
        <_>
          13 0 14 30 -1.</_>
        <_>
          13 0 7 15 2.</_>
        <_>
          20 15 7 15 2.</_></rects>
      <tilted>0</tilted></_>
    <_>
      <rects>
        <_>
          13 9 14 1 -1.</_>
        <_>
          20 9 7 1 2.</_></rects>
      <tilted>0</tilted></_>
    <_>
      <rects>
        <_>
          13 20 12 4 -1.</_>
        <_>
          13 22 12 2 2.</_></rects>
      <tilted>0</tilted></_>
    <_>
      <rects>
        <_>
          13 22 6 4 -1.</_>
        <_>
          13 24 6 2 2.</_></rects>
      <tilted>0</tilted></_>
    <_>
      <rects>
        <_>
          13 26 2 4 -1.</_>
        <_>
          13 26 1 2 2.</_>
        <_>
          14 28 1 2 2.</_></rects>
      <tilted>0</tilted></_>
    <_>
      <rects>
        <_>
          14 2 4 2 -1.</_>
        <_>
          14 3 4 1 2.</_></rects>
      <tilted>0</tilted></_>
    <_>
      <rects>
        <_>
          14 4 9 6 -1.</_>
        <_>
          14 6 9 2 2.</_></rects>
      <tilted>0</tilted></_>
    <_>
      <rects>
        <_>
          14 5 8 26 -1.</_>
        <_>
          14 5 4 13 2.</_>
        <_>
          18 18 4 13 2.</_></rects>
      <tilted>0</tilted></_>
    <_>
      <rects>
        <_>
          14 17 13 2 -1.</_>
        <_>
          14 18 13 1 2.</_></rects>
      <tilted>0</tilted></_>
    <_>
      <rects>
        <_>
          14 19 1 4 -1.</_>
        <_>
          14 21 1 2 2.</_></rects>
      <tilted>0</tilted></_>
    <_>
      <rects>
        <_>
          15 14 2 5 -1.</_>
        <_>
          16 14 1 5 2.</_></rects>
      <tilted>0</tilted></_>
    <_>
      <rects>
        <_>
          15 22 4 4 -1.</_>
        <_>
          15 24 4 2 2.</_></rects>
      <tilted>0</tilted></_>
    <_>
      <rects>
        <_>
          16 0 3 2 -1.</_>
        <_>
          16 1 3 1 2.</_></rects>
      <tilted>0</tilted></_>
    <_>
      <rects>
        <_>
          16 0 9 30 -1.</_>
        <_>
          19 0 3 30 2.</_></rects>
      <tilted>0</tilted></_>
    <_>
      <rects>
        <_>
          16 0 8 2 -1.</_>
        <_>
          16 0 4 1 2.</_>
        <_>
          20 1 4 1 2.</_></rects>
      <tilted>0</tilted></_>
    <_>
      <rects>
        <_>
          16 0 16 3 -1.</_>
        <_>
          24 0 8 3 2.</_></rects>
      <tilted>0</tilted></_>
    <_>
      <rects>
        <_>
          16 5 12 6 -1.</_>
        <_>
          22 5 6 6 2.</_></rects>
      <tilted>0</tilted></_>
    <_>
      <rects>
        <_>
          16 18 16 12 -1.</_>
        <_>
          16 18 8 6 2.</_>
        <_>
          24 24 8 6 2.</_></rects>
      <tilted>0</tilted></_>
    <_>
      <rects>
        <_>
          17 1 6 1 -1.</_>
        <_>
          19 1 2 1 2.</_></rects>
      <tilted>0</tilted></_>
    <_>
      <rects>
        <_>
          17 3 8 10 -1.</_>
        <_>
          17 3 4 5 2.</_>
        <_>
          21 8 4 5 2.</_></rects>
      <tilted>0</tilted></_>
    <_>
      <rects>
        <_>
          17 4 4 6 -1.</_>
        <_>
          17 4 2 3 2.</_>
        <_>
          19 7 2 3 2.</_></rects>
      <tilted>0</tilted></_>
    <_>
      <rects>
        <_>
          17 6 4 13 -1.</_>
        <_>
          19 6 2 13 2.</_></rects>
      <tilted>0</tilted></_>
    <_>
      <rects>
        <_>
          17 10 6 11 -1.</_>
        <_>
          20 10 3 11 2.</_></rects>
      <tilted>0</tilted></_>
    <_>
      <rects>
        <_>
          17 13 8 1 -1.</_>
        <_>
          21 13 4 1 2.</_></rects>
      <tilted>0</tilted></_>
    <_>
      <rects>
        <_>
          17 31 2 1 -1.</_>
        <_>
          18 31 1 1 2.</_></rects>
      <tilted>0</tilted></_>
    <_>
      <rects>
        <_>
          18 2 14 14 -1.</_>
        <_>
          18 2 7 7 2.</_>
        <_>
          25 9 7 7 2.</_></rects>
      <tilted>0</tilted></_>
    <_>
      <rects>
        <_>
          18 7 14 2 -1.</_>
        <_>
          18 8 14 1 2.</_></rects>
      <tilted>0</tilted></_>
    <_>
      <rects>
        <_>
          18 8 6 2 -1.</_>
        <_>
          20 8 2 2 2.</_></rects>
      <tilted>0</tilted></_>
    <_>
      <rects>
        <_>
          19 2 8 2 -1.</_>
        <_>
          19 2 4 1 2.</_>
        <_>
          23 3 4 1 2.</_></rects>
      <tilted>0</tilted></_>
    <_>
      <rects>
        <_>
          19 5 10 2 -1.</_>
        <_>
          19 5 5 1 2.</_>
        <_>
          24 6 5 1 2.</_></rects>
      <tilted>0</tilted></_>
    <_>
      <rects>
        <_>
          19 6 8 12 -1.</_>
        <_>
          19 10 8 4 2.</_></rects>
      <tilted>0</tilted></_>
    <_>
      <rects>
        <_>
          19 7 13 2 -1.</_>
        <_>
          19 8 13 1 2.</_></rects>
      <tilted>0</tilted></_>
    <_>
      <rects>
        <_>
          20 0 12 4 -1.</_>
        <_>
          26 0 6 4 2.</_></rects>
      <tilted>0</tilted></_>
    <_>
      <rects>
        <_>
          20 4 8 2 -1.</_>
        <_>
          20 4 4 1 2.</_>
        <_>
          24 5 4 1 2.</_></rects>
      <tilted>0</tilted></_>
    <_>
      <rects>
        <_>
          20 12 2 18 -1.</_>
        <_>
          20 21 2 9 2.</_></rects>
      <tilted>0</tilted></_>
    <_>
      <rects>
        <_>
          20 16 2 5 -1.</_>
        <_>
          21 16 1 5 2.</_></rects>
      <tilted>0</tilted></_>
    <_>
      <rects>
        <_>
          20 18 4 3 -1.</_>
        <_>
          22 18 2 3 2.</_></rects>
      <tilted>0</tilted></_>
    <_>
      <rects>
        <_>
          21 11 8 12 -1.</_>
        <_>
          21 15 8 4 2.</_></rects>
      <tilted>0</tilted></_>
    <_>
      <rects>
        <_>
          21 28 4 4 -1.</_>
        <_>
          21 30 4 2 2.</_></rects>
      <tilted>0</tilted></_>
    <_>
      <rects>
        <_>
          22 2 2 2 -1.</_>
        <_>
          22 2 1 1 2.</_>
        <_>
          23 3 1 1 2.</_></rects>
      <tilted>0</tilted></_>
    <_>
      <rects>
        <_>
          22 2 9 5 -1.</_>
        <_>
          25 2 3 5 2.</_></rects>
      <tilted>0</tilted></_>
    <_>
      <rects>
        <_>
          22 28 10 4 -1.</_>
        <_>
          27 28 5 4 2.</_></rects>
      <tilted>0</tilted></_>
    <_>
      <rects>
        <_>
          23 2 4 2 -1.</_>
        <_>
          23 2 2 1 2.</_>
        <_>
          25 3 2 1 2.</_></rects>
      <tilted>0</tilted></_>
    <_>
      <rects>
        <_>
          23 5 2 6 -1.</_>
        <_>
          23 5 1 3 2.</_>
        <_>
          24 8 1 3 2.</_></rects>
      <tilted>0</tilted></_>
    <_>
      <rects>
        <_>
          23 12 3 2 -1.</_>
        <_>
          24 12 1 2 2.</_></rects>
      <tilted>0</tilted></_>
    <_>
      <rects>
        <_>
          24 0 8 5 -1.</_>
        <_>
          28 0 4 5 2.</_></rects>
      <tilted>0</tilted></_>
    <_>
      <rects>
        <_>
          24 1 8 7 -1.</_>
        <_>
          28 1 4 7 2.</_></rects>
      <tilted>0</tilted></_>
    <_>
      <rects>
        <_>
          24 15 2 6 -1.</_>
        <_>
          25 15 1 6 2.</_></rects>
      <tilted>0</tilted></_>
    <_>
      <rects>
        <_>
          24 15 6 3 -1.</_>
        <_>
          26 15 2 3 2.</_></rects>
      <tilted>0</tilted></_>
    <_>
      <rects>
        <_>
          24 19 3 2 -1.</_>
        <_>
          25 19 1 2 2.</_></rects>
      <tilted>0</tilted></_>
    <_>
      <rects>
        <_>
          24 20 8 11 -1.</_>
        <_>
          28 20 4 11 2.</_></rects>
      <tilted>0</tilted></_>
    <_>
      <rects>
        <_>
          24 29 8 3 -1.</_>
        <_>
          28 29 4 3 2.</_></rects>
      <tilted>0</tilted></_>
    <_>
      <rects>
        <_>
          25 21 3 4 -1.</_>
        <_>
          25 23 3 2 2.</_></rects>
      <tilted>0</tilted></_>
    <_>
      <rects>
        <_>
          25 26 3 4 -1.</_>
        <_>
          25 28 3 2 2.</_></rects>
      <tilted>0</tilted></_>
    <_>
      <rects>
        <_>
          26 6 2 7 -1.</_>
        <_>
          27 6 1 7 2.</_></rects>
      <tilted>0</tilted></_>
    <_>
      <rects>
        <_>
          26 18 6 9 -1.</_>
        <_>
          29 18 3 9 2.</_></rects>
      <tilted>0</tilted></_>
    <_>
      <rects>
        <_>
          26 28 2 2 -1.</_>
        <_>
          26 28 1 1 2.</_>
        <_>
          27 29 1 1 2.</_></rects>
      <tilted>0</tilted></_>
    <_>
      <rects>
        <_>
          27 9 2 2 -1.</_>
        <_>
          27 10 2 1 2.</_></rects>
      <tilted>0</tilted></_>
    <_>
      <rects>
        <_>
          27 18 4 8 -1.</_>
        <_>
          27 18 2 4 2.</_>
        <_>
          29 22 2 4 2.</_></rects>
      <tilted>0</tilted></_>
    <_>
      <rects>
        <_>
          27 21 2 8 -1.</_>
        <_>
          27 21 1 4 2.</_>
        <_>
          28 25 1 4 2.</_></rects>
      <tilted>0</tilted></_>
    <_>
      <rects>
        <_>
          27 29 4 3 -1.</_>
        <_>
          29 29 2 3 2.</_></rects>
      <tilted>0</tilted></_>
    <_>
      <rects>
        <_>
          28 0 2 20 -1.</_>
        <_>
          28 0 1 10 2.</_>
        <_>
          29 10 1 10 2.</_></rects>
      <tilted>0</tilted></_>
    <_>
      <rects>
        <_>
          28 2 4 8 -1.</_>
        <_>
          30 2 2 8 2.</_></rects>
      <tilted>0</tilted></_>
    <_>
      <rects>
        <_>
          28 4 4 22 -1.</_>
        <_>
          30 4 2 22 2.</_></rects>
      <tilted>0</tilted></_>
    <_>
      <rects>
        <_>
          28 18 2 1 -1.</_>
        <_>
          29 18 1 1 2.</_></rects>
      <tilted>0</tilted></_>
    <_>
      <rects>
        <_>
          28 21 4 4 -1.</_>
        <_>
          30 21 2 4 2.</_></rects>
      <tilted>0</tilted></_>
    <_>
      <rects>
        <_>
          28 22 4 10 -1.</_>
        <_>
          28 27 4 5 2.</_></rects>
      <tilted>0</tilted></_>
    <_>
      <rects>
        <_>
          28 25 2 6 -1.</_>
        <_>
          28 25 1 3 2.</_>
        <_>
          29 28 1 3 2.</_></rects>
      <tilted>0</tilted></_>
    <_>
      <rects>
        <_>
          29 2 2 22 -1.</_>
        <_>
          29 2 1 11 2.</_>
        <_>
          30 13 1 11 2.</_></rects>
      <tilted>0</tilted></_>
    <_>
      <rects>
        <_>
          30 8 2 23 -1.</_>
        <_>
          31 8 1 23 2.</_></rects>
      <tilted>0</tilted></_>
    <_>
      <rects>
        <_>
          30 9 2 13 -1.</_>
        <_>
          31 9 1 13 2.</_></rects>
      <tilted>0</tilted></_>
    <_>
      <rects>
        <_>
          30 14 2 3 -1.</_>
        <_>
          31 14 1 3 2.</_></rects>
      <tilted>0</tilted></_>
    <_>
      <rects>
        <_>
          30 28 2 4 -1.</_>
        <_>
          31 28 1 4 2.</_></rects>
      <tilted>0</tilted></_></features></cascade>
</opencv_storage>
