<?xml version="1.0"?>
<opencv_storage>
<stage11>
  <maxWeakCount>49</maxWeakCount>
  <stageThreshold>-1.4344452619552612e+00</stageThreshold>
  <weakClassifiers>
    <_>
      <internalNodes>
        0 -1 51269 -9.8836980760097504e-02</internalNodes>
      <leafValues>
        -5.6179773807525635e-01 -1.6666667535901070e-02</leafValues></_>
    <_>
      <internalNodes>
        0 -1 373441 8.4040139336138964e-04</internalNodes>
      <leafValues>
        -3.4964936971664429e-01 1.5782694518566132e-01</leafValues></_>
    <_>
      <internalNodes>
        0 -1 363079 -1.9270598422735929e-03</internalNodes>
      <leafValues>
        2.2363543510437012e-01 -2.2860656678676605e-01</leafValues></_>
    <_>
      <internalNodes>
        0 -1 254849 -9.0050173457711935e-04</internalNodes>
      <leafValues>
        2.6647958159446716e-01 -1.6569055616855621e-01</leafValues></_>
    <_>
      <internalNodes>
        0 -1 508064 -8.0388056812807918e-04</internalNodes>
      <leafValues>
        4.8654023557901382e-02 -6.2930405139923096e-01</leafValues></_>
    <_>
      <internalNodes>
        0 -1 274169 -7.2813577950000763e-02</internalNodes>
      <leafValues>
        -1.1394894868135452e-01 3.5807013511657715e-01</leafValues></_>
    <_>
      <internalNodes>
        0 -1 484952 -4.1484826942905784e-04</internalNodes>
      <leafValues>
        3.0592384934425354e-01 -1.4173214137554169e-01</leafValues></_>
    <_>
      <internalNodes>
        0 -1 257 -2.7566769858822227e-04</internalNodes>
      <leafValues>
        1.6605524718761444e-01 -2.8389146924018860e-01</leafValues></_>
    <_>
      <internalNodes>
        0 -1 44917 -2.7013604994863272e-03</internalNodes>
      <leafValues>
        1.7189078032970428e-01 -2.1510015428066254e-01</leafValues></_>
    <_>
      <internalNodes>
        0 -1 401535 -2.1778335212729871e-04</internalNodes>
      <leafValues>
        1.9237427413463593e-01 -1.9399784505367279e-01</leafValues></_>
    <_>
      <internalNodes>
        0 -1 403148 -4.2594238766469061e-04</internalNodes>
      <leafValues>
        2.6244148612022400e-01 -1.5480525791645050e-01</leafValues></_>
    <_>
      <internalNodes>
        0 -1 504732 4.5050389599055052e-04</internalNodes>
      <leafValues>
        -2.6044666767120361e-01 1.4789476990699768e-01</leafValues></_>
    <_>
      <internalNodes>
        0 -1 410004 2.5989043060690165e-03</internalNodes>
      <leafValues>
        5.2993927150964737e-02 -5.6806087493896484e-01</leafValues></_>
    <_>
      <internalNodes>
        0 -1 169522 -1.2050387449562550e-02</internalNodes>
      <leafValues>
        3.9095202088356018e-01 -9.5292091369628906e-02</leafValues></_>
    <_>
      <internalNodes>
        0 -1 289311 1.8303068645764142e-04</internalNodes>
      <leafValues>
        -1.8598480522632599e-01 2.0477126538753510e-01</leafValues></_>
    <_>
      <internalNodes>
        0 -1 304505 1.2616489082574844e-02</internalNodes>
      <leafValues>
        9.3152225017547607e-02 -4.2057624459266663e-01</leafValues></_>
    <_>
      <internalNodes>
        0 -1 321525 -1.1110132932662964e-01</internalNodes>
      <leafValues>
        -8.0275875329971313e-01 3.6456171423196793e-02</leafValues></_>
    <_>
      <internalNodes>
        0 -1 449931 -3.9617659058421850e-04</internalNodes>
      <leafValues>
        2.5266280397772789e-02 -9.6523511409759521e-01</leafValues></_>
    <_>
      <internalNodes>
        0 -1 258445 -4.5368833525571972e-05</internalNodes>
      <leafValues>
        1.4923091232776642e-01 -2.1571843326091766e-01</leafValues></_>
    <_>
      <internalNodes>
        0 -1 259855 1.4291035011410713e-02</internalNodes>
      <leafValues>
        -8.7425589561462402e-02 3.6584779620170593e-01</leafValues></_>
    <_>
      <internalNodes>
        0 -1 282265 2.2759987041354179e-03</internalNodes>
      <leafValues>
        -1.2458445876836777e-01 3.1280863285064697e-01</leafValues></_>
    <_>
      <internalNodes>
        0 -1 82738 1.2090642936527729e-02</internalNodes>
      <leafValues>
        -8.2372941076755524e-02 3.9979481697082520e-01</leafValues></_>
    <_>
      <internalNodes>
        0 -1 21496 -1.2840399518609047e-02</internalNodes>
      <leafValues>
        2.3019579052925110e-01 -1.7441505193710327e-01</leafValues></_>
    <_>
      <internalNodes>
        0 -1 50764 3.1420355662703514e-03</internalNodes>
      <leafValues>
        -6.7301757633686066e-02 4.8329764604568481e-01</leafValues></_>
    <_>
      <internalNodes>
        0 -1 442719 -1.7802018672227859e-02</internalNodes>
      <leafValues>
        -1.5521471202373505e-01 2.1922101080417633e-01</leafValues></_>
    <_>
      <internalNodes>
        0 -1 201097 -4.2197469156235456e-04</internalNodes>
      <leafValues>
        4.0705997496843338e-02 -8.5287648439407349e-01</leafValues></_>
    <_>
      <internalNodes>
        0 -1 266715 -2.5034279096871614e-03</internalNodes>
      <leafValues>
        4.0333798527717590e-01 -9.3214631080627441e-02</leafValues></_>
    <_>
      <internalNodes>
        0 -1 327900 -3.3360522240400314e-02</internalNodes>
      <leafValues>
        -8.1469291448593140e-01 4.3938424438238144e-02</leafValues></_>
    <_>
      <internalNodes>
        0 -1 446229 -4.4008079916238785e-02</internalNodes>
      <leafValues>
        4.5327967405319214e-01 -8.7119720876216888e-02</leafValues></_>
    <_>
      <internalNodes>
        0 -1 454915 -1.5508225187659264e-02</internalNodes>
      <leafValues>
        -5.4245823621749878e-01 7.7011480927467346e-02</leafValues></_>
    <_>
      <internalNodes>
        0 -1 343813 -7.9744476824998856e-03</internalNodes>
      <leafValues>
        -4.7406920790672302e-01 7.1284905076026917e-02</leafValues></_>
    <_>
      <internalNodes>
        0 -1 205884 -5.7060658931732178e-02</internalNodes>
      <leafValues>
        3.4173136949539185e-01 -1.1772121489048004e-01</leafValues></_>
    <_>
      <internalNodes>
        0 -1 182079 3.1402163207530975e-02</internalNodes>
      <leafValues>
        -1.4617487788200378e-01 3.1371602416038513e-01</leafValues></_>
    <_>
      <internalNodes>
        0 -1 283066 3.2101094722747803e-02</internalNodes>
      <leafValues>
        5.4893970489501953e-02 -6.7803263664245605e-01</leafValues></_>
    <_>
      <internalNodes>
        0 -1 506873 -4.3588569387793541e-03</internalNodes>
      <leafValues>
        5.4748374223709106e-01 -7.3852807283401489e-02</leafValues></_>
    <_>
      <internalNodes>
        0 -1 376499 1.5780974645167589e-03</internalNodes>
      <leafValues>
        -9.0627528727054596e-02 3.2058086991310120e-01</leafValues></_>
    <_>
      <internalNodes>
        0 -1 60052 8.5921224672347307e-04</internalNodes>
      <leafValues>
        -4.7970544546842575e-02 6.6951704025268555e-01</leafValues></_>
    <_>
      <internalNodes>
        0 -1 289647 -1.2026871554553509e-03</internalNodes>
      <leafValues>
        -4.4236615300178528e-01 8.8600367307662964e-02</leafValues></_>
    <_>
      <internalNodes>
        0 -1 449108 -2.1395931980805472e-05</internalNodes>
      <leafValues>
        3.3594496548175812e-02 -8.4441393613815308e-01</leafValues></_>
    <_>
      <internalNodes>
        0 -1 477590 1.7031579773174599e-05</internalNodes>
      <leafValues>
        -2.0106272399425507e-01 1.6088925302028656e-01</leafValues></_>
    <_>
      <internalNodes>
        0 -1 500156 -8.8159204460680485e-04</internalNodes>
      <leafValues>
        1.8866509199142456e-01 -1.7559477686882019e-01</leafValues></_>
    <_>
      <internalNodes>
        0 -1 239787 -7.3772976174950600e-03</internalNodes>
      <leafValues>
        4.8465785384178162e-01 -6.3583046197891235e-02</leafValues></_>
    <_>
      <internalNodes>
        0 -1 237679 1.1244187771808356e-04</internalNodes>
      <leafValues>
        1.5378870069980621e-01 -2.4081924557685852e-01</leafValues></_>
    <_>
      <internalNodes>
        0 -1 264431 -1.0688313341233879e-04</internalNodes>
      <leafValues>
        1.5172603726387024e-01 -2.1625263988971710e-01</leafValues></_>
    <_>
      <internalNodes>
        0 -1 326234 2.0052751642651856e-04</internalNodes>
      <leafValues>
        -1.0450530797243118e-01 3.5103300213813782e-01</leafValues></_>
    <_>
      <internalNodes>
        0 -1 501245 2.4159997701644897e-04</internalNodes>
      <leafValues>
        -2.1053756773471832e-01 1.6711089015007019e-01</leafValues></_>
    <_>
      <internalNodes>
        0 -1 504032 -1.0482037905603647e-03</internalNodes>
      <leafValues>
        3.0465108156204224e-01 -1.0933539271354675e-01</leafValues></_>
    <_>
      <internalNodes>
        0 -1 507248 -1.1115858796983957e-04</internalNodes>
      <leafValues>
        3.7486199289560318e-02 -9.2843919992446899e-01</leafValues></_>
    <_>
      <internalNodes>
        0 -1 418959 -4.6308476477861404e-02</internalNodes>
      <leafValues>
        -6.5864883363246918e-02 5.5854409933090210e-01</leafValues></_></weakClassifiers></stage11>
</opencv_storage>
