<?xml version="1.0"?>
<opencv_storage>
<stage7>
  <maxWeakCount>34</maxWeakCount>
  <stageThreshold>-1.5687661170959473e+00</stageThreshold>
  <weakClassifiers>
    <_>
      <internalNodes>
        0 -1 377879 2.8208831325173378e-02</internalNodes>
      <leafValues>
        -5.8327424526214600e-01 7.1942447684705257e-03</leafValues></_>
    <_>
      <internalNodes>
        0 -1 449 -7.1170651353895664e-03</internalNodes>
      <leafValues>
        2.3021212220191956e-01 -3.2627573609352112e-01</leafValues></_>
    <_>
      <internalNodes>
        0 -1 212459 -2.0234072580933571e-02</internalNodes>
      <leafValues>
        5.9335327148437500e-01 -1.2129218131303787e-01</leafValues></_>
    <_>
      <internalNodes>
        0 -1 187781 2.0000401884317398e-02</internalNodes>
      <leafValues>
        -1.1988317966461182e-01 6.0900449752807617e-01</leafValues></_>
    <_>
      <internalNodes>
        0 -1 324749 1.4097198843955994e-02</internalNodes>
      <leafValues>
        1.0504070669412613e-01 -7.3248076438903809e-01</leafValues></_>
    <_>
      <internalNodes>
        0 -1 437482 -1.6457166522741318e-02</internalNodes>
      <leafValues>
        -3.0405342578887939e-01 2.2232252359390259e-01</leafValues></_>
    <_>
      <internalNodes>
        0 -1 19140 -9.7313039004802704e-03</internalNodes>
      <leafValues>
        2.9802432656288147e-01 -2.0616886019706726e-01</leafValues></_>
    <_>
      <internalNodes>
        0 -1 100698 -3.4661163226701319e-04</internalNodes>
      <leafValues>
        3.6343169212341309e-01 -1.5573132038116455e-01</leafValues></_>
    <_>
      <internalNodes>
        0 -1 477974 7.8411749564111233e-04</internalNodes>
      <leafValues>
        -3.3382782340049744e-01 1.7363291978836060e-01</leafValues></_>
    <_>
      <internalNodes>
        0 -1 159103 -1.5437914058566093e-02</internalNodes>
      <leafValues>
        4.0915188193321228e-01 -1.6325680911540985e-01</leafValues></_>
    <_>
      <internalNodes>
        0 -1 21300 -6.0779596678912640e-03</internalNodes>
      <leafValues>
        3.6805599927902222e-01 -1.6061231493949890e-01</leafValues></_>
    <_>
      <internalNodes>
        0 -1 236826 2.2830602247267962e-03</internalNodes>
      <leafValues>
        -1.9719873368740082e-01 3.0511108040809631e-01</leafValues></_>
    <_>
      <internalNodes>
        0 -1 474396 -4.7367289662361145e-03</internalNodes>
      <leafValues>
        -1.8301030993461609e-01 3.1663060188293457e-01</leafValues></_>
    <_>
      <internalNodes>
        0 -1 31275 -4.3880986049771309e-03</internalNodes>
      <leafValues>
        1.6662006080150604e-01 -3.4448230266571045e-01</leafValues></_>
    <_>
      <internalNodes>
        0 -1 440392 4.3423997703939676e-04</internalNodes>
      <leafValues>
        -1.6666892170906067e-01 3.2061326503753662e-01</leafValues></_>
    <_>
      <internalNodes>
        0 -1 222731 1.1963274329900742e-02</internalNodes>
      <leafValues>
        -2.0893880724906921e-01 2.3992402851581573e-01</leafValues></_>
    <_>
      <internalNodes>
        0 -1 444929 -3.4454293549060822e-02</internalNodes>
      <leafValues>
        -9.2932993173599243e-01 4.3386034667491913e-02</leafValues></_>
    <_>
      <internalNodes>
        0 -1 291195 -5.2459768950939178e-02</internalNodes>
      <leafValues>
        -9.6374815702438354e-01 3.5062775015830994e-02</leafValues></_>
    <_>
      <internalNodes>
        0 -1 61297 8.7109999731183052e-04</internalNodes>
      <leafValues>
        -1.6764827072620392e-01 3.3620920777320862e-01</leafValues></_>
    <_>
      <internalNodes>
        0 -1 270920 1.6734231263399124e-02</internalNodes>
      <leafValues>
        8.6636364459991455e-02 -5.6980925798416138e-01</leafValues></_>
    <_>
      <internalNodes>
        0 -1 316835 -1.8918201327323914e-02</internalNodes>
      <leafValues>
        4.4178283214569092e-01 -1.1438413709402084e-01</leafValues></_>
    <_>
      <internalNodes>
        0 -1 294656 6.1840796843171120e-03</internalNodes>
      <leafValues>
        -2.4056971073150635e-01 3.2679253816604614e-01</leafValues></_>
    <_>
      <internalNodes>
        0 -1 103318 -8.7324040941894054e-04</internalNodes>
      <leafValues>
        4.6083322167396545e-01 -1.1332087218761444e-01</leafValues></_>
    <_>
      <internalNodes>
        0 -1 386299 -1.3069380074739456e-02</internalNodes>
      <leafValues>
        -4.4502314925193787e-01 1.2491572648286819e-01</leafValues></_>
    <_>
      <internalNodes>
        0 -1 169859 -3.4315302036702633e-04</internalNodes>
      <leafValues>
        2.5340399146080017e-01 -1.8976302444934845e-01</leafValues></_>
    <_>
      <internalNodes>
        0 -1 111978 3.4083228092640638e-03</internalNodes>
      <leafValues>
        -8.7639711797237396e-02 5.4864567518234253e-01</leafValues></_>
    <_>
      <internalNodes>
        0 -1 336774 4.2643509805202484e-03</internalNodes>
      <leafValues>
        -1.8996654450893402e-01 2.5930637121200562e-01</leafValues></_>
    <_>
      <internalNodes>
        0 -1 353795 -1.7500990070402622e-03</internalNodes>
      <leafValues>
        3.0798327922821045e-01 -1.5906906127929688e-01</leafValues></_>
    <_>
      <internalNodes>
        0 -1 362053 -2.7723843231797218e-05</internalNodes>
      <leafValues>
        -3.5917177796363831e-01 1.5987627208232880e-01</leafValues></_>
    <_>
      <internalNodes>
        0 -1 183252 -5.8259442448616028e-03</internalNodes>
      <leafValues>
        5.5712366104125977e-01 -9.5780700445175171e-02</leafValues></_>
    <_>
      <internalNodes>
        0 -1 466314 2.1763395518064499e-02</internalNodes>
      <leafValues>
        -1.6598799824714661e-01 2.9553723335266113e-01</leafValues></_>
    <_>
      <internalNodes>
        0 -1 419727 -2.6047831401228905e-02</internalNodes>
      <leafValues>
        3.1002196669578552e-01 -2.0012719929218292e-01</leafValues></_>
    <_>
      <internalNodes>
        0 -1 163036 -1.3379148207604885e-02</internalNodes>
      <leafValues>
        -9.4103723764419556e-02 4.7565022110939026e-01</leafValues></_>
    <_>
      <internalNodes>
        0 -1 139164 -1.1652536690235138e-02</internalNodes>
      <leafValues>
        8.0395907163619995e-02 -7.6291465759277344e-01</leafValues></_></weakClassifiers></stage7>
</opencv_storage>
