<?xml version="1.0"?>
<opencv_storage>
<stage0>
  <maxWeakCount>7</maxWeakCount>
  <stageThreshold>-1.7497786283493042e+00</stageThreshold>
  <weakClassifiers>
    <_>
      <internalNodes>
        0 -1 183041 6.7966338247060776e-03</internalNodes>
      <leafValues>
        -7.9388296604156494e-01 4.2954546213150024e-01</leafValues></_>
    <_>
      <internalNodes>
        0 -1 484279 5.3130099549889565e-03</internalNodes>
      <leafValues>
        -6.5266239643096924e-01 4.9513101577758789e-01</leafValues></_>
    <_>
      <internalNodes>
        0 -1 93584 -4.4561302661895752e-01</internalNodes>
      <leafValues>
        -6.8786573410034180e-01 4.6415492892265320e-01</leafValues></_>
    <_>
      <internalNodes>
        0 -1 55003 -1.2822901830077171e-02</internalNodes>
      <leafValues>
        6.9458097219467163e-01 -4.7301465272903442e-01</leafValues></_>
    <_>
      <internalNodes>
        0 -1 462051 1.4598930720239878e-03</internalNodes>
      <leafValues>
        -3.5956051945686340e-01 6.0273724794387817e-01</leafValues></_>
    <_>
      <internalNodes>
        0 -1 30817 -6.3308747485280037e-04</internalNodes>
      <leafValues>
        4.9967333674430847e-01 -4.6290782094001770e-01</leafValues></_>
    <_>
      <internalNodes>
        0 -1 395453 -6.5769982757046819e-04</internalNodes>
      <leafValues>
        5.1251983642578125e-01 -4.0520167350769043e-01</leafValues></_></weakClassifiers></stage0>
</opencv_storage>
