<?xml version="1.0"?>
<opencv_storage>
<stage4>
  <maxWeakCount>29</maxWeakCount>
  <stageThreshold>-1.8187829256057739e+00</stageThreshold>
  <weakClassifiers>
    <_>
      <internalNodes>
        0 -1 134601 -2.1777162328362465e-02</internalNodes>
      <leafValues>
        2.6492536067962646e-01 -5.1839828491210938e-01</leafValues></_>
    <_>
      <internalNodes>
        0 -1 371152 9.6380256582051516e-04</internalNodes>
      <leafValues>
        -4.5631623268127441e-01 2.4101695418357849e-01</leafValues></_>
    <_>
      <internalNodes>
        0 -1 411673 -1.1521759442985058e-02</internalNodes>
      <leafValues>
        -5.7706874608993530e-01 2.1094197034835815e-01</leafValues></_>
    <_>
      <internalNodes>
        0 -1 449087 3.5829339176416397e-03</internalNodes>
      <leafValues>
        -3.8228785991668701e-01 3.3050638437271118e-01</leafValues></_>
    <_>
      <internalNodes>
        0 -1 2542 -1.5034377574920654e-03</internalNodes>
      <leafValues>
        2.7572906017303467e-01 -3.3434492349624634e-01</leafValues></_>
    <_>
      <internalNodes>
        0 -1 335813 -9.0747233480215073e-04</internalNodes>
      <leafValues>
        5.3515142202377319e-01 -1.7762231826782227e-01</leafValues></_>
    <_>
      <internalNodes>
        0 -1 159121 -2.5992803275585175e-03</internalNodes>
      <leafValues>
        4.2949509620666504e-01 -2.0708616077899933e-01</leafValues></_>
    <_>
      <internalNodes>
        0 -1 143338 7.9951854422688484e-04</internalNodes>
      <leafValues>
        -3.3741378784179688e-01 2.7267283201217651e-01</leafValues></_>
    <_>
      <internalNodes>
        0 -1 307024 -2.6767520466819406e-04</internalNodes>
      <leafValues>
        3.2476583123207092e-01 -3.1786501407623291e-01</leafValues></_>
    <_>
      <internalNodes>
        0 -1 188816 -2.1966310217976570e-02</internalNodes>
      <leafValues>
        7.7731275558471680e-01 -1.0324161499738693e-01</leafValues></_>
    <_>
      <internalNodes>
        0 -1 101490 -5.4475955665111542e-02</internalNodes>
      <leafValues>
        -1.5453344583511353e-01 5.3192204236984253e-01</leafValues></_>
    <_>
      <internalNodes>
        0 -1 357582 -3.6429945379495621e-02</internalNodes>
      <leafValues>
        3.7202006578445435e-01 -2.4028806388378143e-01</leafValues></_>
    <_>
      <internalNodes>
        0 -1 225210 -5.2953802514821291e-04</internalNodes>
      <leafValues>
        4.1695567965507507e-01 -1.7963948845863342e-01</leafValues></_>
    <_>
      <internalNodes>
        0 -1 496805 2.1845386072527617e-04</internalNodes>
      <leafValues>
        -1.3956882059574127e-01 5.3145182132720947e-01</leafValues></_>
    <_>
      <internalNodes>
        0 -1 469138 1.6528000123798847e-03</internalNodes>
      <leafValues>
        -1.5935671329498291e-01 5.0566220283508301e-01</leafValues></_>
    <_>
      <internalNodes>
        0 -1 426628 1.5793263446539640e-04</internalNodes>
      <leafValues>
        -1.3485817611217499e-01 4.9744200706481934e-01</leafValues></_>
    <_>
      <internalNodes>
        0 -1 438657 6.0584424063563347e-03</internalNodes>
      <leafValues>
        -2.8350776433944702e-01 2.5216954946517944e-01</leafValues></_>
    <_>
      <internalNodes>
        0 -1 401864 -5.8493879623711109e-04</internalNodes>
      <leafValues>
        3.9659354090690613e-01 -2.2566996514797211e-01</leafValues></_>
    <_>
      <internalNodes>
        0 -1 111986 -2.6196541730314493e-03</internalNodes>
      <leafValues>
        5.3985643386840820e-01 -1.4618323743343353e-01</leafValues></_>
    <_>
      <internalNodes>
        0 -1 110132 3.5342462360858917e-03</internalNodes>
      <leafValues>
        -1.1717658489942551e-01 5.8553951978683472e-01</leafValues></_>
    <_>
      <internalNodes>
        0 -1 454350 -8.2575920969247818e-03</internalNodes>
      <leafValues>
        -1.9230310618877411e-01 3.4230467677116394e-01</leafValues></_>
    <_>
      <internalNodes>
        0 -1 336277 3.8789336103945971e-03</internalNodes>
      <leafValues>
        -1.5980266034603119e-01 5.1711684465408325e-01</leafValues></_>
    <_>
      <internalNodes>
        0 -1 27033 -9.5666848123073578e-02</internalNodes>
      <leafValues>
        2.3186142742633820e-01 -2.9530709981918335e-01</leafValues></_>
    <_>
      <internalNodes>
        0 -1 416895 -4.8358316416852176e-04</internalNodes>
      <leafValues>
        5.8282595872879028e-01 -1.3691799342632294e-01</leafValues></_>
    <_>
      <internalNodes>
        0 -1 130424 5.3000226616859436e-03</internalNodes>
      <leafValues>
        -1.2401594221591949e-01 6.0257011651992798e-01</leafValues></_>
    <_>
      <internalNodes>
        0 -1 490685 -2.0064151613041759e-04</internalNodes>
      <leafValues>
        3.4341192245483398e-01 -2.0018383860588074e-01</leafValues></_>
    <_>
      <internalNodes>
        0 -1 438375 1.0076757753267884e-03</internalNodes>
      <leafValues>
        -1.9788675010204315e-01 3.1966418027877808e-01</leafValues></_>
    <_>
      <internalNodes>
        0 -1 26455 -9.5834605395793915e-02</internalNodes>
      <leafValues>
        -1.4925965666770935e-01 4.2397132515907288e-01</leafValues></_>
    <_>
      <internalNodes>
        0 -1 329100 7.2279195301234722e-03</internalNodes>
      <leafValues>
        -1.7334462702274323e-01 3.6871066689491272e-01</leafValues></_></weakClassifiers></stage4>
</opencv_storage>
