<?xml version="1.0"?>
<opencv_storage>
<stage2>
  <maxWeakCount>10</maxWeakCount>
  <stageThreshold>-1.3393367528915405e+00</stageThreshold>
  <weakClassifiers>
    <_>
      <internalNodes>
        0 -1 394502 2.1379023790359497e-02</internalNodes>
      <leafValues>
        -6.2981367111206055e-01 2.7088606357574463e-01</leafValues></_>
    <_>
      <internalNodes>
        0 -1 381873 -1.9191232323646545e-01</internalNodes>
      <leafValues>
        -7.3508894443511963e-01 2.3919546604156494e-01</leafValues></_>
    <_>
      <internalNodes>
        0 -1 189073 -2.4122055619955063e-03</internalNodes>
      <leafValues>
        4.6012672781944275e-01 -4.1589999198913574e-01</leafValues></_>
    <_>
      <internalNodes>
        0 -1 139819 6.0580540448427200e-03</internalNodes>
      <leafValues>
        -4.7910591959953308e-01 4.1893988847732544e-01</leafValues></_>
    <_>
      <internalNodes>
        0 -1 134509 -2.9890006408095360e-03</internalNodes>
      <leafValues>
        5.1374447345733643e-01 -3.2624888420104980e-01</leafValues></_>
    <_>
      <internalNodes>
        0 -1 641 -1.2505393242463470e-03</internalNodes>
      <leafValues>
        4.0880492329597473e-01 -4.3768873810768127e-01</leafValues></_>
    <_>
      <internalNodes>
        0 -1 505087 2.7991649694740772e-03</internalNodes>
      <leafValues>
        -2.9190000891685486e-01 5.7884079217910767e-01</leafValues></_>
    <_>
      <internalNodes>
        0 -1 126989 -6.6485127899795771e-04</internalNodes>
      <leafValues>
        7.7264672517776489e-01 -2.0677691698074341e-01</leafValues></_>
    <_>
      <internalNodes>
        0 -1 204194 -1.7462002579122782e-03</internalNodes>
      <leafValues>
        6.9099187850952148e-01 -2.1857152879238129e-01</leafValues></_>
    <_>
      <internalNodes>
        0 -1 505853 -2.4301870726048946e-03</internalNodes>
      <leafValues>
        6.7923742532730103e-01 -2.0220696926116943e-01</leafValues></_></weakClassifiers></stage2>
</opencv_storage>
