<?xml version="1.0"?>
<opencv_storage>
<stage9>
  <maxWeakCount>42</maxWeakCount>
  <stageThreshold>-1.4435278177261353e+00</stageThreshold>
  <weakClassifiers>
    <_>
      <internalNodes>
        0 -1 134509 -3.6569768562912941e-03</internalNodes>
      <leafValues>
        2.1844660863280296e-02 -5.3461539745330811e-01</leafValues></_>
    <_>
      <internalNodes>
        0 -1 371950 -8.5116913542151451e-03</internalNodes>
      <leafValues>
        2.3017178475856781e-01 -3.1229126453399658e-01</leafValues></_>
    <_>
      <internalNodes>
        0 -1 297725 -1.5782113187015057e-03</internalNodes>
      <leafValues>
        2.4009425938129425e-01 -2.6755219697952271e-01</leafValues></_>
    <_>
      <internalNodes>
        0 -1 216474 -2.4574503768235445e-03</internalNodes>
      <leafValues>
        -4.6707272529602051e-01 1.1820050328969955e-01</leafValues></_>
    <_>
      <internalNodes>
        0 -1 341485 -6.3822069205343723e-04</internalNodes>
      <leafValues>
        3.4722065925598145e-01 -1.5670955181121826e-01</leafValues></_>
    <_>
      <internalNodes>
        0 -1 91059 -2.8039497556164861e-04</internalNodes>
      <leafValues>
        4.4239658862352371e-02 -7.7468013763427734e-01</leafValues></_>
    <_>
      <internalNodes>
        0 -1 222801 -8.1565469503402710e-02</internalNodes>
      <leafValues>
        -3.6000794172286987e-01 1.4310497045516968e-01</leafValues></_>
    <_>
      <internalNodes>
        0 -1 426005 -1.1954301735386252e-03</internalNodes>
      <leafValues>
        4.9109208583831787e-01 -1.1769745498895645e-01</leafValues></_>
    <_>
      <internalNodes>
        0 -1 412585 6.6448247525840998e-04</internalNodes>
      <leafValues>
        -1.0615603625774384e-01 4.1616049408912659e-01</leafValues></_>
    <_>
      <internalNodes>
        0 -1 241066 2.7665235393214971e-05</internalNodes>
      <leafValues>
        1.7304791510105133e-01 -2.4645881354808807e-01</leafValues></_>
    <_>
      <internalNodes>
        0 -1 166098 -5.0734495744109154e-03</internalNodes>
      <leafValues>
        4.5455482602119446e-01 -1.0000532120466232e-01</leafValues></_>
    <_>
      <internalNodes>
        0 -1 113654 -2.0863654208369553e-04</internalNodes>
      <leafValues>
        2.4897556006908417e-01 -1.7818365991115570e-01</leafValues></_>
    <_>
      <internalNodes>
        0 -1 437446 -1.9974191673099995e-03</internalNodes>
      <leafValues>
        7.7542044222354889e-02 -5.2689820528030396e-01</leafValues></_>
    <_>
      <internalNodes>
        0 -1 474097 -7.8117139637470245e-03</internalNodes>
      <leafValues>
        -9.2015214264392853e-02 5.0009226799011230e-01</leafValues></_>
    <_>
      <internalNodes>
        0 -1 336675 -7.4908426031470299e-03</internalNodes>
      <leafValues>
        3.6577793955802917e-01 -1.1336088925600052e-01</leafValues></_>
    <_>
      <internalNodes>
        0 -1 185224 -1.2632661499083042e-02</internalNodes>
      <leafValues>
        -7.1989387273788452e-01 6.0226194560527802e-02</leafValues></_>
    <_>
      <internalNodes>
        0 -1 104613 -9.6516148187220097e-04</internalNodes>
      <leafValues>
        4.3276634812355042e-01 -9.8613195121288300e-02</leafValues></_>
    <_>
      <internalNodes>
        0 -1 489560 -4.1231713839806616e-04</internalNodes>
      <leafValues>
        4.6498551964759827e-02 -7.8362590074539185e-01</leafValues></_>
    <_>
      <internalNodes>
        0 -1 504499 -2.3153317160904408e-03</internalNodes>
      <leafValues>
        2.5226423144340515e-01 -1.6227635741233826e-01</leafValues></_>
    <_>
      <internalNodes>
        0 -1 90335 -1.5646914107492194e-05</internalNodes>
      <leafValues>
        1.7014823853969574e-01 -2.4311745166778564e-01</leafValues></_>
    <_>
      <internalNodes>
        0 -1 20132 -7.5056785717606544e-03</internalNodes>
      <leafValues>
        3.3242130279541016e-01 -1.2848325073719025e-01</leafValues></_>
    <_>
      <internalNodes>
        0 -1 501991 -3.9833607152104378e-03</internalNodes>
      <leafValues>
        3.9590516686439514e-01 -1.0711313039064407e-01</leafValues></_>
    <_>
      <internalNodes>
        0 -1 478905 3.9165511727333069e-02</internalNodes>
      <leafValues>
        -1.6882675886154175e-01 2.5490012764930725e-01</leafValues></_>
    <_>
      <internalNodes>
        0 -1 113767 -5.5377949029207230e-03</internalNodes>
      <leafValues>
        1.9750341773033142e-01 -2.1771802008152008e-01</leafValues></_>
    <_>
      <internalNodes>
        0 -1 394091 7.3883828008547425e-05</internalNodes>
      <leafValues>
        1.5494400262832642e-01 -2.4673390388488770e-01</leafValues></_>
    <_>
      <internalNodes>
        0 -1 211825 7.7594585716724396e-02</internalNodes>
      <leafValues>
        -1.0338798910379410e-01 4.0030798316001892e-01</leafValues></_>
    <_>
      <internalNodes>
        0 -1 241861 2.7589510864345357e-05</internalNodes>
      <leafValues>
        1.8504442274570465e-01 -2.7758723497390747e-01</leafValues></_>
    <_>
      <internalNodes>
        0 -1 456449 2.2338319569826126e-02</internalNodes>
      <leafValues>
        5.6617539376020432e-02 -6.7007756233215332e-01</leafValues></_>
    <_>
      <internalNodes>
        0 -1 381889 -2.0015614107251167e-02</internalNodes>
      <leafValues>
        -7.7997636795043945e-01 3.7922747433185577e-02</leafValues></_>
    <_>
      <internalNodes>
        0 -1 122809 -1.7768624238669872e-03</internalNodes>
      <leafValues>
        3.3330520987510681e-01 -1.2812027335166931e-01</leafValues></_>
    <_>
      <internalNodes>
        0 -1 507768 3.5267940256744623e-04</internalNodes>
      <leafValues>
        -1.0329931974411011e-01 3.5441371798515320e-01</leafValues></_>
    <_>
      <internalNodes>
        0 -1 175974 -6.6942209377884865e-04</internalNodes>
      <leafValues>
        3.3443352580070496e-01 -1.1932545900344849e-01</leafValues></_>
    <_>
      <internalNodes>
        0 -1 224004 -3.8489518919959664e-04</internalNodes>
      <leafValues>
        2.6207977533340454e-01 -1.4141377806663513e-01</leafValues></_>
    <_>
      <internalNodes>
        0 -1 370626 -2.6185151189565659e-02</internalNodes>
      <leafValues>
        -5.6893897056579590e-01 6.5964661538600922e-02</leafValues></_>
    <_>
      <internalNodes>
        0 -1 472229 -1.2553064152598381e-02</internalNodes>
      <leafValues>
        -1.2763509154319763e-01 3.1199491024017334e-01</leafValues></_>
    <_>
      <internalNodes>
        0 -1 480020 3.1006094068288803e-03</internalNodes>
      <leafValues>
        -6.0274694114923477e-02 7.4871510267257690e-01</leafValues></_>
    <_>
      <internalNodes>
        0 -1 400589 -1.5879946295171976e-03</internalNodes>
      <leafValues>
        7.8376285731792450e-02 -6.2782537937164307e-01</leafValues></_>
    <_>
      <internalNodes>
        0 -1 244466 -1.0496456176042557e-02</internalNodes>
      <leafValues>
        3.4146510064601898e-02 -7.9979890584945679e-01</leafValues></_>
    <_>
      <internalNodes>
        0 -1 19092 -2.4660746566951275e-03</internalNodes>
      <leafValues>
        -4.8497298359870911e-01 6.8065866827964783e-02</leafValues></_>
    <_>
      <internalNodes>
        0 -1 309047 1.5639897901564837e-04</internalNodes>
      <leafValues>
        -1.2136615812778473e-01 3.2642361521720886e-01</leafValues></_>
    <_>
      <internalNodes>
        0 -1 108776 -3.5995010286569595e-02</internalNodes>
      <leafValues>
        5.7665467262268066e-01 -6.0029663145542145e-02</leafValues></_>
    <_>
      <internalNodes>
        0 -1 254970 -1.7008610069751740e-02</internalNodes>
      <leafValues>
        -9.0012609958648682e-02 4.1606247425079346e-01</leafValues></_></weakClassifiers></stage9>
</opencv_storage>
