<?xml version="1.0"?>
<opencv_storage>
<stage1>
  <maxWeakCount>10</maxWeakCount>
  <stageThreshold>-1.5600006580352783e+00</stageThreshold>
  <weakClassifiers>
    <_>
      <internalNodes>
        0 -1 50225 -1.4016878604888916e-01</internalNodes>
      <leafValues>
        -7.3890340328216553e-01 3.8248848915100098e-01</leafValues></_>
    <_>
      <internalNodes>
        0 -1 30828 -3.9866915903985500e-04</internalNodes>
      <leafValues>
        3.5623177886009216e-01 -6.4463818073272705e-01</leafValues></_>
    <_>
      <internalNodes>
        0 -1 187116 -1.0837767273187637e-02</internalNodes>
      <leafValues>
        5.8845561742782593e-01 -4.1137844324111938e-01</leafValues></_>
    <_>
      <internalNodes>
        0 -1 186543 7.1935392916202545e-03</internalNodes>
      <leafValues>
        -4.4119167327880859e-01 4.6795836091041565e-01</leafValues></_>
    <_>
      <internalNodes>
        0 -1 502743 6.9769909605383873e-03</internalNodes>
      <leafValues>
        -3.3560776710510254e-01 5.6928783655166626e-01</leafValues></_>
    <_>
      <internalNodes>
        0 -1 243821 -9.4960338901728392e-04</internalNodes>
      <leafValues>
        5.1082837581634521e-01 -4.0076372027397156e-01</leafValues></_>
    <_>
      <internalNodes>
        0 -1 477962 2.0936701912432909e-04</internalNodes>
      <leafValues>
        -4.8199138045310974e-01 4.0018597245216370e-01</leafValues></_>
    <_>
      <internalNodes>
        0 -1 20374 -1.8860587850213051e-02</internalNodes>
      <leafValues>
        7.6699370145797729e-01 -2.4570684134960175e-01</leafValues></_>
    <_>
      <internalNodes>
        0 -1 210716 -1.6297288239002228e-03</internalNodes>
      <leafValues>
        5.7592636346817017e-01 -3.0202972888946533e-01</leafValues></_>
    <_>
      <internalNodes>
        0 -1 184957 2.1100882440805435e-02</internalNodes>
      <leafValues>
        -2.5648781657218933e-01 7.7184778451919556e-01</leafValues></_></weakClassifiers></stage1>
</opencv_storage>
